{"learner":{"attributes":{"best_iteration":"243","best_score":"0.8617316831166119","scikit_learn":"{\"_estimator_type\": \"classifier\"}"},"feature_names":["a0_type_id","a0_result_id","a0_bodypart_id","a0_start_x_norm","a0_start_y_norm","a0_end_x_norm","a0_end_y_norm","a0_dist_to_goal","a0_under_pressure","a1_type_id","a1_result_id","a1_bodypart_id","a1_start_x_norm","a1_start_y_norm","a1_end_x_norm","a1_end_y_norm","a1_dist_to_goal","a1_under_pressure","a2_type_id","a2_result_id","a2_bodypart_id","a2_start_x_norm","a2_start_y_norm","a2_end_x_norm","a2_end_y_norm","a2_dist_to_goal","a2_under_pressure","a3_type_id","a3_result_id","a3_bodypart_id","a3_start_x_norm","a3_start_y_norm","a3_end_x_norm","a3_end_y_norm","a3_dist_to_goal","a3_under_pressure"],"feature_types":["int","int","int","float","float","float","float","float","int","int","int","int","float","float","float","float","float","int","int","int","int","float","float","float","float","float","int","int","int","int","float","float","float","float","float","int"],"gradient_booster":{"model":{"cats":{"enc":[],"feature_segments":[],"sorted_idx":[]},"gbtree_model_param":{"num_parallel_tree":"1","num_trees":"274"},"iteration_indptr":[0,1,2,3,4,5,6,7,8,9,10,11,12,13,14,15,16,17,18,19,20,21,22,23,24,25,26,27,28,29,30,31,32,33,34,35,36,37,38,39,40,41,42,43,44,45,46,47,48,49,50,51,52,53,54,55,56,57,58,59,60,61,62,63,64,65,66,67,68,69,70,71,72,73,74,75,76,77,78,79,80,81,82,83,84,85,86,87,88,89,90,91,92,93,94,95,96,97,98,99,100,101,102,103,104,105,106,107,108,109,110,111,112,113,114,115,116,117,118,119,120,121,122,123,124,125,126,127,128,129,130,131,132,133,134,135,136,137,138,139,140,141,142,143,144,145,146,147,148,149,150,151,152,153,154,155,156,157,158,159,160,161,162,163,164,165,166,167,168,169,170,171,172,173,174,175,176,177,178,179,180,181,182,183,184,185,186,187,188,189,190,191,192,193,194,195,196,197,198,199,200,201,202,203,204,205,206,207,208,209,210,211,212,213,214,215,216,217,218,219,220,221,222,223,224,225,226,227,228,229,230,231,232,233,234,235,236,237,238,239,240,241,242,243,244,245,246,247,248,249,250,251,252,253,254,255,256,257,258,259,260,261,262,263,264,265,266,267,268,269,270,271,272,273,274],"tree_info":[0,0,0,0,0,0,0,0,0,0,0,0,0,0,0,0,0,0,0,0,0,0,0,0,0,0,0,0,0,0,0,0,0,0,0,0,0,0,0,0,0,0,0,0,0,0,0,0,0,0,0,0,0,0,0,0,0,0,0,0,0,0,0,0,0,0,0,0,0,0,0,0,0,0,0,0,0,0,0,0,0,0,0,0,0,0,0,0,0,0,0,0,0,0,0,0,0,0,0,0,0,0,0,0,0,0,0,0,0,0,0,0,0,0,0,0,0,0,0,0,0,0,0,0,0,0,0,0,0,0,0,0,0,0,0,0,0,0,0,0,0,0,0,0,0,0,0,0,0,0,0,0,0,0,0,0,0,0,0,0,0,0,0,0,0,0,0,0,0,0,0,0,0,0,0,0,0,0,0,0,0,0,0,0,0,0,0,0,0,0,0,0,0,0,0,0,0,0,0,0,0,0,0,0,0,0,0,0,0,0,0,0,0,0,0,0,0,0,0,0,0,0,0,0,0,0,0,0,0,0,0,0,0,0,0,0,0,0,0,0,0,0,0,0,0,0,0,0,0,0,0,0,0,0,0,0,0,0,0,0,0,0,0,0,0,0,0,0,0,0,0,0,0,0],"trees":[{"base_weights":[-7.8775E-3,4.6887236E0,-4.1384482E-1,2.2081175E0,6.551585E0,-6.793951E-1,9.0103257E-1,1.4861688E-1,4.7696766E-2,4.0916234E-1,2.1456671E-1,1.9709462E-1,-7.8725576E-1,1.1728263E0,-3.4855794E-2,-8.5935496E-2,6.0338944E-1,-5.318054E-1,-8.77708E-1,-3.4683153E-1,1.6009984E0,-2.3250295E-2,1.4935876E-2,6.6524774E-2,-9.3898375E-4,-2.2616787E-2,-4.3645795E-2,-2.3030275E-2,-4.4422217E-2,-3.2197002E-2,-1.7872405E-4,1.1446039E-1,7.953062E-3],"categories":[],"categories_nodes":[],"categories_segments":[],"categories_sizes":[],"default_left":[0,0,0,0,0,0,0,0,0,0,0,0,0,0,0,0,0,0,0,0,0,0,0,0,0,0,0,0,0,0,0,0,0],"id":0,"left_children":[1,3,5,7,9,11,13,-1,-1,-1,-1,15,17,19,-1,21,23,25,27,29,31,-1,-1,-1,-1,-1,-1,-1,-1,-1,-1,-1,-1],"loss_changes":[1.3372484E3,2.4250623E2,2.2606798E2,2.1177444E1,7.9201904E1,5.106575E1,4.815477E1,0E0,0E0,0E0,0E0,6.961579E0,1.0465942E1,6.150084E1,0E0,5.3874245E0,1.1355563E1,2.9464912E0,1.0326233E0,2.107024E0,7.198639E1,0E0,0E0,0E0,0E0,0E0,0E0,0E0,0E0,0E0,0E0,0E0,0E0],"parents":[2147483647,0,0,1,1,2,2,3,3,4,4,5,5,6,6,11,11,12,12,13,13,15,15,16,16,17,17,18,18,19,19,20,20],"right_children":[2,4,6,8,10,12,14,-1,-1,-1,-1,16,18,20,-1,22,24,26,28,30,32,-1,-1,-1,-1,-1,-1,-1,-1,-1,-1,-1,-1],"split_conditions":[2.861866E-1,8.65E-1,7.2E-1,3.5418922E-1,2.8634822E-1,4.423919E-1,1E0,1.4861688E-1,4.7696766E-2,4.0916234E-1,2.1456671E-1,5.7E-1,5.654116E-1,1.4625E-1,-3.4855794E-2,6.1583334E-1,6.1375E-1,8.25E-1,5.4166667E-2,7.025E-1,8.4125E-1,-2.3250295E-2,1.4935876E-2,6.6524774E-2,-9.3898375E-4,-2.2616787E-2,-4.3645795E-2,-2.3030275E-2,-4.4422217E-2,-3.2197002E-2,-1.7872405E-4,1.1446039E-1,7.953062E-3],"split_indices":[7,5,5,16,16,7,1,0,0,0,0,13,7,6,0,32,31,33,30,12,6,0,0,0,0,0,0,0,0,0,0,0,0],"split_type":[0,0,0,0,0,0,0,0,0,0,0,0,0,0,0,0,0,0,0,0,0,0,0,0,0,0,0,0,0,0,0,0,0],"sum_hessian":[6.9956055E2,5.4799065E1,6.447615E2,2.4462957E1,3.033611E1,5.3689124E2,1.0787023E2,1.42998495E1,1.0163107E1,1.6070307E1,1.4265802E1,5.8637894E1,4.7825336E2,9.247236E1,1.5397874E1,3.488142E1,2.3756475E1,1.271495E2,3.5110385E2,2.0317703E1,7.2154655E1,1.7593922E1,1.7287497E1,1.050358E1,1.3252896E1,1.052486E2,2.19009E1,1.0146084E1,3.409578E2,1.0265249E1,1.0052454E1,4.8398182E1,2.3756475E1],"tree_param":{"num_deleted":"0","num_feature":"36","num_nodes":"33","size_leaf_vector":"1"}},{"base_weights":[4.6652313E-2,3.924096E0,-3.8073996E-1,4.6035347E0,1.1704839E-2,-6.424907E-1,8.1636083E-1,5.6442204E0,3.1183893E-2,2.5818655E-1,-7.543229E-1,1.0519465E0,-3.4481633E-2,2.6779854E0,8.300941E0,4.1919217E-1,-2.2870606E-2,-3.810344E-1,-8.256518E-1,6.755485E-1,2.070192E0,1.6837664E-1,7.9627246E-2,3.0669287E-1,4.7340068E-1,-6.083363E-3,3.9549734E-2,-1.1054364E-2,-4.2291798E-2,-3.63925E-2,-4.656239E-2,5.965951E-2,1.034178E-2,1.3293925E-1,5.361529E-2],"categories":[],"categories_nodes":[],"categories_segments":[],"categories_sizes":[],"default_left":[0,0,0,0,0,0,0,0,0,0,0,0,0,0,0,0,0,0,0,0,0,0,0,0,0,0,0,0,0,0,0,0,0,0,0],"id":1,"left_children":[1,3,5,7,-1,9,11,13,-1,15,17,19,-1,21,23,25,-1,27,29,31,33,-1,-1,-1,-1,-1,-1,-1,-1,-1,-1,-1,-1,-1,-1],"loss_changes":[1.1699163E3,1.7416418E2,1.9971689E2,2.4069434E2,0E0,5.285463E1,4.1364357E1,3.4482532E2,0E0,6.9091783E0,1.1945435E1,3.642887E1,0E0,1.1779953E1,1.4439697E0,9.867449E0,0E0,5.4068003E0,3.1767883E0,1.76013E1,1.2208206E1,0E0,0E0,0E0,0E0,0E0,0E0,0E0,0E0,0E0,0E0,0E0,0E0,0E0,0E0],"parents":[2147483647,0,0,1,1,2,2,3,3,5,5,6,6,7,7,9,9,10,10,11,11,13,13,14,14,15,15,17,17,18,18,19,19,20,20],"right_children":[2,4,6,8,-1,10,12,14,-1,16,18,20,-1,22,24,26,-1,28,30,32,34,-1,-1,-1,-1,-1,-1,-1,-1,-1,-1,-1,-1,-1,-1],"split_conditions":[2.861866E-1,1E0,7.2E-1,1E0,1.1704839E-2,4.4003728E-1,1E0,8.691667E-1,3.1183893E-2,7.1E-1,5.2369547E-1,8.591667E-1,-3.4481633E-2,7.5333333E-1,7.5916666E-1,4.575E-1,-2.2870606E-2,6.358333E-1,7.110282E-1,7.3E-1,8.691667E-1,1.6837664E-1,7.9627246E-2,3.0669287E-1,4.7340068E-1,-6.083363E-3,3.9549734E-2,-1.1054364E-2,-4.2291798E-2,-3.63925E-2,-4.656239E-2,5.965951E-2,1.034178E-2,1.3293925E-1,5.361529E-2],"split_indices":[7,10,5,1,0,7,1,5,0,21,7,5,0,21,21,15,0,30,7,14,14,0,0,0,0,0,0,0,0,0,0,0,0,0,0],"split_type":[0,0,0,0,0,0,0,0,0,0,0,0,0,0,0,0,0,0,0,0,0,0,0,0,0,0,0,0,0,0,0,0,0,0,0],"sum_hessian":[7.038487E2,6.9090385E1,6.347583E2,5.8115013E1,1.0975376E1,5.2131714E2,1.1344119E2,4.5717186E1,1.2397825E1,5.7336445E1,4.6398068E2,9.841398E1,1.5027214E1,2.2566872E1,2.3150314E1,4.7257687E1,1.0078758E1,7.567763E1,3.8830307E2,7.313939E1,2.5274586E1,1.245806E1,1.0108811E1,1.0323156E1,1.2827158E1,1.9416456E1,2.784123E1,5.7560696E1,1.8116932E1,2.0618062E2,1.8212244E2,3.3919743E1,3.9219646E1,1.4787629E1,1.0486957E1],"tree_param":{"num_deleted":"0","num_feature":"36","num_nodes":"35","size_leaf_vector":"1"}},{"base_weights":[-6.3972767E-3,-6.0541165E-1,1.7954533E0,-8.276681E-1,-2.128881E-1,3.249205E0,9.879397E-1,-9.5660365E-1,-7.343752E-1,9.812422E-2,-5.068129E-1,3.8041477E0,1.6437968E-2,4.9858534E-1,1.8087063E0,-4.879546E-2,-3.2028195E-2,-5.213516E-1,-8.4598136E-1,-1.6243568E-1,5.1992816E-1,-3.445404E-1,-4.2290464E-2,2.536759E0,2.7813873E-1,7.759686E-1,-2.794264E-2,3.0429313E-2,2.189015E0,-3.069439E-2,-5.229616E-3,-3.141296E-2,-4.6515808E-2,1.0910201E-2,-2.5071064E-2,-1.1611026E-2,7.1112335E-2,-7.896389E-3,-4.002316E-2,1.4747408E-1,9.611412E-2,3.271338E-3,7.242324E-2,1.4794043E-1,4.165473E-2],"categories":[],"categories_nodes":[],"categories_segments":[],"categories_sizes":[],"default_left":[0,0,0,0,0,0,0,0,0,0,0,0,0,0,0,0,0,0,0,0,0,0,0,0,0,0,0,0,0,0,0,0,0,0,0,0,0,0,0,0,0,0,0,0,0],"id":2,"left_children":[1,3,5,7,9,11,13,15,17,19,21,23,-1,25,27,-1,-1,29,31,33,35,37,-1,39,-1,41,-1,-1,43,-1,-1,-1,-1,-1,-1,-1,-1,-1,-1,-1,-1,-1,-1,-1,-1],"loss_changes":[7.642897E2,4.609305E1,2.0375201E2,3.2046814E0,1.7795494E1,9.979956E1,4.5078728E1,5.8288574E-2,4.209709E0,1.05365715E1,5.085121E0,1.0206152E2,0E0,2.2024796E1,1.7794037E1,0E0,0E0,2.6461906E0,1.6508026E0,7.7765527E0,2.5271706E1,5.686449E0,0E0,2.053482E0,0E0,2.7826206E1,0E0,0E0,3.0388092E1,0E0,0E0,0E0,0E0,0E0,0E0,0E0,0E0,0E0,0E0,0E0,0E0,0E0,0E0,0E0,0E0],"parents":[2147483647,0,0,1,1,2,2,3,3,4,4,5,5,6,6,7,7,8,8,9,9,10,10,11,11,13,13,14,14,17,17,18,18,19,19,20,20,21,21,23,23,25,25,28,28],"right_children":[2,4,6,8,10,12,14,16,18,20,22,24,-1,26,28,-1,-1,30,32,34,36,38,-1,40,-1,42,-1,-1,44,-1,-1,-1,-1,-1,-1,-1,-1,-1,-1,-1,-1,-1,-1,-1,-1],"split_conditions":[7.5E-1,5.491667E-1,3.3456466E-1,3.3166668E-1,5.2369547E-1,1E0,8.775E-1,8.9666665E-1,4.1E-1,5.01105E-1,5.4083335E-1,8.958333E-1,1.6437968E-2,8.575E-1,2.25E-1,-4.879546E-2,-3.2028195E-2,8.1757647E-1,5.191535E-1,4.222764E-1,5.7875E-1,7.5625E-1,-4.2290464E-2,8.1E-1,2.7813873E-1,3.2E-1,-2.794264E-2,3.0429313E-2,7.525E-1,-3.069439E-2,-5.229616E-3,-3.141296E-2,-4.6515808E-2,1.0910201E-2,-2.5071064E-2,-1.1611026E-2,7.1112335E-2,-7.896389E-3,-4.002316E-2,1.4747408E-1,9.611412E-2,3.271338E-3,7.242324E-2,1.4794043E-1,4.165473E-2],"split_indices":[5,5,16,5,16,1,5,21,12,25,12,5,0,15,24,0,0,25,16,25,13,15,0,12,0,15,0,0,24,0,0,0,0,0,0,0,0,0,0,0,0,0,0,0,0],"split_type":[0,0,0,0,0,0,0,0,0,0,0,0,0,0,0,0,0,0,0,0,0,0,0,0,0,0,0,0,0,0,0,0,0,0,0,0,0,0,0,0,0,0,0,0,0],"sum_hessian":[7.0621515E2,5.305549E2,1.7566028E2,3.3787723E2,1.9267767E2,6.160549E1,1.1405479E2,1.375082E2,2.0036902E2,9.377593E1,9.890173E1,5.148541E1,1.0120083E1,7.253659E1,4.1518196E1,1.27326004E2,1.0182196E1,7.114377E1,1.2922525E2,5.820125E1,3.5574688E1,6.844803E1,3.0453705E1,3.1374258E1,2.0111149E1,5.7748867E1,1.4787723E1,1.0679777E1,3.0838419E1,5.7633926E1,1.3509845E1,3.877008E1,9.045517E1,2.7445068E1,3.0756178E1,1.9746416E1,1.5828271E1,4.9679546E1,1.8768482E1,1.6397734E1,1.4976525E1,2.868599E1,2.9062878E1,1.8869686E1,1.1968733E1],"tree_param":{"num_deleted":"0","num_feature":"36","num_nodes":"45","size_leaf_vector":"1"}},{"base_weights":[-3.5044614E-2,1.8431805E0,-4.812592E-1,2.5348237E-1,1.5225564E0,-7.8107643E-1,5.4804105E-2,1.7549878E0,-2.7619919E-2,-8.6905706E-1,-5.7841974E-1,-7.447893E-2,8.1631297E-1,2.0559573E0,-1.1853359E-2,-2.7872032E-2,-8.8258654E-1,-4.8909834E-1,-4.770801E-2,3.6243415E-1,-2.7987966E-1,2.1582216E-3,6.357681E-2,4.5306932E-2,1.483712E-1,-3.091453E-2,-4.4988856E-2,-4.30763E-2,-1.6276713E-2,-1.7527249E-2,2.9031975E-2,2.0579973E-3,-2.5549069E-2],"categories":[],"categories_nodes":[],"categories_segments":[],"categories_sizes":[],"default_left":[0,0,0,0,0,0,0,0,0,0,0,0,0,0,0,0,0,0,0,0,0,0,0,0,0,0,0,0,0,0,0,0,0],"id":3,"left_children":[1,3,5,-1,7,9,11,13,-1,15,17,19,21,23,-1,-1,25,27,-1,29,31,-1,-1,-1,-1,-1,-1,-1,-1,-1,-1,-1,-1],"loss_changes":[5.9261584E2,1.3203433E2,9.196333E1,0E0,6.1336914E1,5.8904266E0,2.0395391E1,6.8190094E1,0E0,4.3211365E-1,3.2262459E0,1.595336E1,1.0394558E1,9.961374E1,0E0,0E0,3.8583374E-1,5.366003E0,0E0,9.062528E0,9.040521E0,0E0,0E0,0E0,0E0,0E0,0E0,0E0,0E0,0E0,0E0,0E0,0E0],"parents":[2147483647,0,0,1,1,2,2,4,4,5,5,6,6,7,7,9,9,10,10,11,11,12,12,13,13,16,16,17,17,19,19,20,20],"right_children":[2,4,6,-1,8,10,12,14,-1,16,18,20,22,24,-1,-1,26,28,-1,30,32,-1,-1,-1,-1,-1,-1,-1,-1,-1,-1,-1,-1],"split_conditions":[3.4678084E-1,1.13715656E-1,5.908333E-1,2.5348237E-1,1E0,4.7333333E-1,8.5333335E-1,1E0,-2.7619919E-2,7E-2,8.4E-1,4.2493954E-1,2.8375E-1,8.25E-1,-1.1853359E-2,-2.7872032E-2,2.6018155E-1,2.425E-1,-4.770801E-2,2.6875E-1,5.225E-1,2.1582216E-3,6.357681E-2,4.5306932E-2,1.483712E-1,-3.091453E-2,-4.4988856E-2,-4.30763E-2,-1.6276713E-2,-1.7527249E-2,2.9031975E-2,2.0579973E-3,-2.5549069E-2],"split_indices":[7,7,5,0,10,5,5,1,0,30,15,7,13,5,0,0,34,15,0,6,30,0,0,0,0,0,0,0,0,0,0,0,0],"split_type":[0,0,0,0,0,0,0,0,0,0,0,0,0,0,0,0,0,0,0,0,0,0,0,0,0,0,0,0,0,0,0,0,0],"sum_hessian":[7.052058E2,1.3473189E2,5.7047394E2,1.0811473E1,1.2392041E2,3.656804E2,2.0479355E2,1.1161946E2,1.2300945E1,2.5234608E2,1.1333429E2,1.757303E2,2.9063244E1,9.698466E1,1.4634805E1,1.2563848E1,2.3978224E2,9.364155E1,1.969274E1,5.579531E1,1.19935E2,1.1257707E1,1.7805536E1,4.3815327E1,5.3169334E1,1.7256514E1,2.2252573E2,2.7087051E1,6.6554504E1,1.2825057E1,4.2970253E1,5.036233E1,6.957266E1],"tree_param":{"num_deleted":"0","num_feature":"36","num_nodes":"33","size_leaf_vector":"1"}},{"base_weights":[-1.27194105E-2,-5.526181E-1,1.2878314E0,-8.288551E-1,-1.4782125E-1,2.4480997E-1,1.7668824E0,-4.65567E-2,-7.2497374E-1,-2.5924275E-2,-8.1404924E-1,-1.7502388E-1,9.246032E-1,2.6680284E0,6.064715E-1,-4.626924E-1,-8.56633E-1,-5.042144E-1,2.2109869E-1,-4.7277898E-2,-2.969258E-2,1.1001434E-2,-3.9218685E-1,-7.3378976E-4,7.723539E-2,3.3400006E0,7.792865E-3,1.1168956E0,-1.6363971E-1,-3.1198954E-2,5.5757267E-3,-4.8163213E-2,-3.717861E-2,1.2066155E-2,-3.3165425E-2,2.2866806E-2,-2.138795E-2,-3.7113417E-2,1.7031264E-3,1.9924895E-1,1.9350847E-3,3.313055E-2,8.666395E-2,2.7901275E-2,-3.421277E-2],"categories":[],"categories_nodes":[],"categories_segments":[],"categories_sizes":[],"default_left":[0,0,0,0,0,0,0,0,0,0,0,0,0,0,0,0,0,0,0,0,0,0,0,0,0,0,0,0,0,0,0,0,0,0,0,0,0,0,0,0,0,0,0,0,0],"id":4,"left_children":[1,3,5,7,9,11,13,-1,15,17,19,21,23,25,27,29,31,33,35,-1,-1,-1,37,-1,-1,39,-1,41,43,-1,-1,-1,-1,-1,-1,-1,-1,-1,-1,-1,-1,-1,-1,-1,-1],"loss_changes":[4.9784976E2,5.5817245E1,1.0328143E2,2.3202972E0,1.6513422E1,1.9268032E1,1.4684583E2,0E0,4.7412186E0,2.0714571E1,1.964302E-1,3.7044349E0,1.5150097E1,1.3375488E2,2.5254559E1,5.068945E0,3.2068634E-1,7.2894173E0,1.7886356E1,0E0,0E0,0E0,4.215743E0,0E0,0E0,1.3324365E2,0E0,9.369652E0,1.0208475E1,0E0,0E0,0E0,0E0,0E0,0E0,0E0,0E0,0E0,0E0,0E0,0E0,0E0,0E0,0E0,0E0],"parents":[2147483647,0,0,1,1,2,2,3,3,4,4,5,5,6,6,8,8,9,9,10,10,11,11,12,12,13,13,14,14,15,15,16,16,17,17,18,18,22,22,25,25,27,27,28,28],"right_children":[2,4,6,8,10,12,14,-1,16,18,20,22,24,26,28,30,32,34,36,-1,-1,-1,38,-1,-1,40,-1,42,44,-1,-1,-1,-1,-1,-1,-1,-1,-1,-1,-1,-1,-1,-1,-1,-1],"split_conditions":[7.4666667E-1,5.35E-1,3.475E-1,3.575E-1,8.55E-1,8.2416666E-1,6.6375E-1,-4.65567E-2,4.1E-1,3.1E-1,9.2375E-1,2.4E-1,2.175E-1,1E0,8.4125E-1,3.8333333E-1,4.6875E-1,4.075E-1,7.875E-1,-4.7277898E-2,-2.969258E-2,1.1001434E-2,2.7375E-1,-7.3378976E-4,7.723539E-2,1E0,7.792865E-3,8.858333E-1,4.5877725E-1,-3.1198954E-2,5.5757267E-3,-4.8163213E-2,-3.717861E-2,1.2066155E-2,-3.3165425E-2,2.2866806E-2,-2.138795E-2,-3.7113417E-2,1.7031264E-3,1.9924895E-1,1.9350847E-3,3.313055E-2,8.666395E-2,2.7901275E-2,-3.421277E-2],"split_indices":[5,5,6,5,33,14,6,0,12,6,31,31,6,1,6,12,6,32,6,0,0,0,4,0,0,10,0,5,25,0,0,0,0,0,0,0,0,0,0,0,0,0,0,0,0],"split_type":[0,0,0,0,0,0,0,0,0,0,0,0,0,0,0,0,0,0,0,0,0,0,0,0,0,0,0,0,0,0,0,0,0,0,0,0,0,0,0,0,0,0,0,0,0],"sum_hessian":[7.071116E2,5.0014005E2,2.0697153E2,2.965066E2,2.0363344E2,6.568266E1,1.4128886E2,1.4490796E2,1.5159863E2,1.7314316E2,3.0490276E1,4.0973347E1,2.4709318E1,7.874899E1,6.253987E1,5.24285E1,9.917013E1,5.875138E1,1.1439178E2,1.6742737E1,1.37475395E1,1.4365901E1,2.6607445E1,1.0150029E1,1.4559289E1,6.1838646E1,1.6910345E1,3.7418625E1,2.5121246E1,4.0999725E1,1.1428775E1,4.6711086E1,5.245904E1,1.013094E1,4.862044E1,8.418926E1,3.0202517E1,1.433073E1,1.2276715E1,5.153317E1,1.0305477E1,2.282987E1,1.4588755E1,1.0417213E1,1.4704032E1],"tree_param":{"num_deleted":"0","num_feature":"36","num_nodes":"45","size_leaf_vector":"1"}},{"base_weights":[-1.6019676E-2,1.4601609E0,-4.774844E-1,1.6651502E0,-1.70513E-2,-2.8441185E-2,-7.3535144E-1,1.0772439E0,2.500009E0,6.367808E-1,-1.6283503E-1,-5.423057E-1,-8.709687E-1,4.095772E-3,1.3538916E0,1.8648732E-1,1.9377223E0,-6.487177E-3,6.39446E-2,-4.9259827E-1,-1.674905E-2,-2.226075E-1,-7.598389E-1,-2.4244012E-2,-8.897637E-1,4.978642E-2,1.1834886E-1,1.2816805E-1,3.60339E-2,-6.189162E-3,-3.6913335E-2,-7.1902126E-3,3.0157823E-2,-1.1211656E-3,-2.6583983E-2,-2.0220606E-2,-4.2183265E-2,-4.5668457E-2,-3.0100256E-2],"categories":[],"categories_nodes":[],"categories_segments":[],"categories_sizes":[],"default_left":[0,0,0,0,0,0,0,0,0,0,0,0,0,0,0,0,0,0,0,0,0,0,0,0,0,0,0,0,0,0,0,0,0,0,0,0,0,0,0],"id":5,"left_children":[1,3,5,7,-1,9,11,13,15,17,19,21,23,-1,25,-1,27,-1,-1,29,31,33,35,-1,37,-1,-1,-1,-1,-1,-1,-1,-1,-1,-1,-1,-1,-1,-1],"loss_changes":[4.82227E2,6.2943237E1,6.2366974E1,7.134372E1,0E0,1.7754347E1,8.352722E0,2.4738976E1,3.494165E1,1.6695736E1,7.9188967E0,9.766197E0,8.7667847E-1,0E0,2.3026947E1,0E0,3.1745193E1,0E0,0E0,4.406828E0,9.1782675E0,3.646161E0,2.0741158E0,0E0,5.791321E-1,0E0,0E0,0E0,0E0,0E0,0E0,0E0,0E0,0E0,0E0,0E0,0E0,0E0,0E0],"parents":[2147483647,0,0,1,1,2,2,3,3,5,5,6,6,7,7,8,8,9,9,10,10,11,11,12,12,14,14,16,16,19,19,20,20,21,21,22,22,24,24],"right_children":[2,4,6,8,-1,10,12,14,16,18,20,22,24,-1,26,-1,28,-1,-1,30,32,34,36,-1,38,-1,-1,-1,-1,-1,-1,-1,-1,-1,-1,-1,-1,-1,-1],"split_conditions":[3.5427475E-1,1E0,5.280449E-1,8.283333E-1,-1.70513E-2,3.9858538E-1,6.6017634E-1,3.8083333E-1,1.483544E-1,4.775E-1,5.366667E-1,4.4416666E-1,7E-2,4.095772E-3,7.05E-1,1.8648732E-1,8.383333E-1,-6.487177E-3,6.39446E-2,4.375E-1,1E0,6.124745E-1,5.114951E-1,-2.4244012E-2,1E0,4.978642E-2,1.1834886E-1,1.2816805E-1,3.60339E-2,-6.189162E-3,-3.6913335E-2,-7.1902126E-3,3.0157823E-2,-1.1211656E-3,-2.6583983E-2,-2.0220606E-2,-4.2183265E-2,-4.5668457E-2,-3.0100256E-2],"split_indices":[7,10,7,14,0,25,7,32,7,15,14,30,30,0,31,0,21,0,0,31,35,7,25,0,28,0,0,0,0,0,0,0,0,0,0,0,0,0,0],"split_type":[0,0,0,0,0,0,0,0,0,0,0,0,0,0,0,0,0,0,0,0,0,0,0,0,0,0,0,0,0,0,0,0,0,0,0,0,0,0,0],"sum_hessian":[7.0602344E2,1.6757774E2,5.384457E2,1.5057245E2,1.7005287E1,1.9696092E2,3.4148474E2,8.976805E1,6.0804398E1,3.235047E1,1.6461046E2,1.4327489E2,1.9820987E2,1.9884556E1,6.98835E1,1.7255371E1,4.3549023E1,1.5039351E1,1.7311121E1,4.9597157E1,1.15013306E2,5.9019596E1,8.4255295E1,1.0692039E1,1.8751782E2,5.3168163E1,1.6715334E1,2.7978106E1,1.5570918E1,2.0592756E1,2.90044E1,9.622123E1,1.879207E1,3.6666817E1,2.235278E1,1.7418333E1,6.683696E1,1.7097112E2,1.6546711E1],"tree_param":{"num_deleted":"0","num_feature":"36","num_nodes":"39","size_leaf_vector":"1"}},{"base_weights":[-1.3406141E-2,1.322805E0,-4.492355E-1,7.829826E-1,1.871238E0,-7.32595E-1,1.6701858E-2,-0E0,9.7838515E-1,2.1991363E0,1.631323E-2,-5.1047987E-1,-8.367525E-1,4.484194E-1,-1.6420774E-1,1.0003126E-1,7.394793E-1,3.889181E-2,2.6448877E0,-2.7671438E-3,-6.452102E-1,-2.0669963E-2,-8.561312E-1,-9.41247E-3,9.401248E-1,-1.2363809E-2,-5.6886876E-1,4.8698325E-2,-8.217248E-3,2.2539397E-1,1.0105624E-1,-2.0649739E-2,2.4059089E-2,-4.37604E-2,-2.227573E-2,-3.6410518E-2,-4.5960583E-2,-1.8778743E-2,1.6262075E-2,1.6173555E-2,7.381724E-2,-2.8017154E-2,1.0837994E-2,-2.5764825E-3,-4.0677316E-2],"categories":[],"categories_nodes":[],"categories_segments":[],"categories_sizes":[],"default_left":[0,0,0,0,0,0,0,0,0,0,0,0,0,0,0,0,0,0,0,0,0,0,0,0,0,0,0,0,0,0,0,0,0,0,0,0,0,0,0,0,0,0,0,0,0],"id":6,"left_children":[1,3,5,7,9,11,13,-1,15,17,-1,19,21,23,25,-1,27,-1,29,31,33,-1,35,37,39,41,43,-1,-1,-1,-1,-1,-1,-1,-1,-1,-1,-1,-1,-1,-1,-1,-1,-1,-1],"loss_changes":[4.1209528E2,4.979007E1,7.055186E1,1.37259445E1,4.234961E1,7.1200867E0,1.5932198E1,0E0,1.5748909E1,4.2146942E1,0E0,7.380802E0,1.3582764E0,1.367311E1,8.746176E0,0E0,1.290543E1,0E0,5.189035E1,4.9550853E0,3.42247E0,0E0,8.86322E-1,4.0609403E0,8.991934E0,1.3398823E1,4.79881E0,0E0,0E0,0E0,0E0,0E0,0E0,0E0,0E0,0E0,0E0,0E0,0E0,0E0,0E0,0E0,0E0,0E0,0E0],"parents":[2147483647,0,0,1,1,2,2,3,3,4,4,5,5,6,6,8,8,9,9,11,11,12,12,13,13,14,14,16,16,18,18,19,19,20,20,22,22,23,23,24,24,25,25,26,26],"right_children":[2,4,6,8,10,12,14,-1,16,18,-1,20,22,24,26,-1,28,-1,30,32,34,-1,36,38,40,42,44,-1,-1,-1,-1,-1,-1,-1,-1,-1,-1,-1,-1,-1,-1,-1,-1,-1,-1],"split_conditions":[3.4678084E-1,8.775E-1,5.933333E-1,7.341667E-1,9.725E-1,6.124745E-1,4.4536287E-1,-0E0,7.5333333E-1,3.5875E-1,1.631323E-2,4.075E-1,7E-2,5.3125E-1,8.25E-1,1.0003126E-1,6.6375E-1,3.889181E-2,1E0,3.425E-1,4.6875E-1,-2.0669963E-2,7.083609E-1,3.791541E-1,7.4666667E-1,1.4625E-1,5.241615E-1,4.8698325E-2,-8.217248E-3,2.2539397E-1,1.0105624E-1,-2.0649739E-2,2.4059089E-2,-4.37604E-2,-2.227573E-2,-3.6410518E-2,-4.5960583E-2,-1.8778743E-2,1.6262075E-2,1.6173555E-2,7.381724E-2,-2.8017154E-2,1.0837994E-2,-2.5764825E-3,-4.0677316E-2],"split_indices":[7,5,5,5,5,7,25,0,3,6,0,32,30,22,6,0,6,0,0,32,24,0,7,25,5,6,25,0,0,0,0,0,0,0,0,0,0,0,0,0,0,0,0,0,0],"split_type":[0,0,0,0,0,0,0,0,0,0,0,0,0,0,0,0,0,0,0,0,0,0,0,0,0,0,0,0,0,0,0,0,0,0,0,0,0,0,0,0,0,0,0,0,0],"sum_hessian":[7.0575934E2,1.7302295E2,5.327364E2,8.8511314E1,8.4511635E1,3.310505E2,2.0168588E2,1.7844769E1,7.066654E1,6.931285E1,1.5198785E1,1.07872986E2,2.2317754E2,5.928468E1,1.424012E2,1.1910542E1,5.8756E1,1.7257101E1,5.2055748E1,2.299233E1,8.488065E1,1.0972061E1,2.1220547E2,3.1102406E1,2.8182276E1,1.0447569E2,3.792551E1,4.6678753E1,1.2077248E1,1.1455222E1,4.0600525E1,1.2635163E1,1.0357166E1,3.764261E1,4.7238045E1,7.474973E1,1.3745573E2,1.4936326E1,1.6166079E1,1.3940459E1,1.42418165E1,3.0506428E1,7.396927E1,1.2697526E1,2.5227983E1],"tree_param":{"num_deleted":"0","num_feature":"36","num_nodes":"45","size_leaf_vector":"1"}},{"base_weights":[-2.2105033E-2,-5.87186E-1,9.211137E-1,1.3413756E-1,-7.087689E-1,1.5316784E0,5.550056E-1,3.2439905E-1,-1.7686365E-2,-8.1693E-1,-4.5592958E-1,1.7425361E0,2.6299795E-2,6.731584E-1,-3.9405752E-2,-6.675197E-2,6.806793E-2,-8.399199E-1,-2.310149E-2,-1.3779299E-1,-6.157445E-1,1.4769025E0,1.5216568E-1,-3.3719298E-1,8.3949256E-1,2.1581754E-2,-1.5395987E-2,-4.8206124E-2,-3.7665803E-2,2.36803E-2,-1.944893E-2,-3.5309173E-2,-4.1403263E-4,2.2089629E-2,8.895632E-2,-5.844555E-3,-2.7317408E-2,-1.1478496E-4,5.4636177E-2],"categories":[],"categories_nodes":[],"categories_segments":[],"categories_sizes":[],"default_left":[0,0,0,0,0,0,0,0,0,0,0,0,0,0,0,0,0,0,0,0,0,0,0,0,0,0,0,0,0,0,0,0,0,0,0,0,0,0,0],"id":7,"left_children":[1,3,5,7,9,11,13,15,-1,17,19,21,-1,23,-1,25,-1,27,-1,29,31,33,-1,35,37,-1,-1,-1,-1,-1,-1,-1,-1,-1,-1,-1,-1,-1,-1],"loss_changes":[3.7758E2,3.9011658E1,5.8260376E1,6.1113048E0,9.877365E0,1.9808624E1,2.7110775E1,1.9352476E1,0E0,1.6375732E0,5.749281E0,2.3098083E1,0E0,2.6319092E1,0E0,4.3433414E0,0E0,1.7551727E0,0E0,6.3743277E0,4.1457214E0,2.070488E1,0E0,9.059098E-1,2.8492516E1,0E0,0E0,0E0,0E0,0E0,0E0,0E0,0E0,0E0,0E0,0E0,0E0,0E0,0E0],"parents":[2147483647,0,0,1,1,2,2,3,3,4,4,5,5,6,6,7,7,9,9,10,10,11,11,13,13,15,15,17,17,19,19,20,20,21,21,23,23,24,24],"right_children":[2,4,6,8,10,12,14,16,-1,18,20,22,-1,24,-1,26,-1,28,-1,30,32,34,-1,36,38,-1,-1,-1,-1,-1,-1,-1,-1,-1,-1,-1,-1,-1,-1],"split_conditions":[7.2E-1,4.423919E-1,3.2187924E-1,6.35E-1,5.35E-1,6.6375E-1,1E0,5.275E-1,-1.7686365E-2,8.7333333E-1,4.675E-1,6.075E-1,2.6299795E-2,1.5375E-1,-3.9405752E-2,3.125E-1,6.806793E-2,3.3166668E-1,-2.310149E-2,5.722258E-1,6.8833333E-1,8.2916665E-1,1.5216568E-1,1.775E-1,4.7333333E-1,2.1581754E-2,-1.5395987E-2,-4.8206124E-2,-3.7665803E-2,2.36803E-2,-1.944893E-2,-3.5309173E-2,-4.1403263E-4,2.2089629E-2,8.895632E-2,-5.844555E-3,-2.7317408E-2,-1.1478496E-4,5.4636177E-2],"split_indices":[5,7,16,6,5,6,10,6,0,23,32,4,0,6,0,33,0,5,0,25,5,5,0,13,23,0,0,0,0,0,0,0,0,0,0,0,0,0,0],"split_type":[0,0,0,0,0,0,0,0,0,0,0,0,0,0,0,0,0,0,0,0,0,0,0,0,0,0,0,0,0,0,0,0,0,0,0,0,0,0,0],"sum_hessian":[7.064598E2,4.4208862E2,2.6437115E2,6.3634415E1,3.7845422E2,9.780436E1,1.6656679E2,4.6169067E1,1.7465347E1,2.6322412E2,1.1523009E2,8.016446E1,1.7639898E1,1.5362578E2,1.2941019E1,3.4132977E1,1.2036091E1,2.4566205E2,1.756207E1,3.9361927E1,7.5868164E1,6.84072E1,1.1757254E1,2.1486076E1,1.321397E2,1.0737954E1,2.3395021E1,9.62863E1,1.4937575E2,1.1088453E1,2.8273474E1,6.5751915E1,1.0116249E1,1.6090452E1,5.2316753E1,1.1456255E1,1.002982E1,3.0696081E1,1.0144362E2],"tree_param":{"num_deleted":"0","num_feature":"36","num_nodes":"39","size_leaf_vector":"1"}},{"base_weights":[-9.955741E-3,8.9383256E-1,-4.8828262E-1,1.2831855E-1,8.089723E-1,-2.1105388E-1,-7.9965585E-1,9.157834E-1,-2.3625439E-2,3.295758E-1,-3.174784E-1,-8.8630164E-1,-6.9042677E-1,1.0556772E0,-2.3163494E-1,2.7823985E-2,4.7915336E-2,-4.2720642E-2,-2.5739703E-1,-4.6769455E-2,-2.8075678E-2,-2.796423E-1,-8.027116E-1,2.9521687E-2,6.916097E-2,1.1421027E-2,-3.162679E-2,2.0087903E-2,-2.2882348E-2,-7.8052627E-3,-3.2135095E-2,-3.0068064E-2,3.7553634E-3,-4.8461575E-2,-3.4313243E-2],"categories":[],"categories_nodes":[],"categories_segments":[],"categories_sizes":[],"default_left":[0,0,0,0,0,0,0,0,0,0,0,0,0,0,0,0,0,0,0,0,0,0,0,0,0,0,0,0,0,0,0,0,0,0,0],"id":8,"left_children":[1,3,5,-1,7,9,11,13,-1,15,17,19,21,23,25,27,-1,-1,29,-1,-1,31,33,-1,-1,-1,-1,-1,-1,-1,-1,-1,-1,-1,-1],"loss_changes":[3.0704584E2,3.246895E1,3.983217E1,0E0,3.2700424E1,1.4331309E1,1.2962494E0,3.5274567E1,0E0,7.6548862E0,6.355604E0,1.2013779E0,4.3532066E0,2.8597305E1,4.68556E0,5.414988E0,0E0,0E0,7.1577272E0,0E0,0E0,2.7837267E0,7.022896E-1,0E0,0E0,0E0,0E0,0E0,0E0,0E0,0E0,0E0,0E0,0E0,0E0],"parents":[2147483647,0,0,1,1,2,2,4,4,5,5,6,6,7,7,9,9,10,10,11,11,12,12,13,13,14,14,15,15,18,18,21,21,22,22],"right_children":[2,4,6,-1,8,10,12,14,-1,16,18,20,22,24,26,28,-1,-1,30,-1,-1,32,34,-1,-1,-1,-1,-1,-1,-1,-1,-1,-1,-1,-1],"split_conditions":[3.982854E-1,8.653937E-2,6.124745E-1,1.2831855E-1,1E0,4.4477367E-1,3.225E-1,1E0,-2.3625439E-2,6.975E-1,8.25E-2,8.7333333E-1,3.35E-1,7.341667E-1,3.1752953E-1,4E0,4.7915336E-2,-4.2720642E-2,8.375E-1,-4.6769455E-2,-2.8075678E-2,6.8662786E-1,2.45E-1,2.9521687E-2,6.916097E-2,1.1421027E-2,-3.162679E-2,2.0087903E-2,-2.2882348E-2,-7.8052627E-3,-3.2135095E-2,-3.0068064E-2,3.7553634E-3,-4.8461575E-2,-3.4313243E-2],"split_indices":[7,7,7,0,10,16,3,1,0,13,31,23,21,14,25,0,0,0,6,0,0,7,4,0,0,0,0,0,0,0,0,0,0,0,0],"split_type":[0,0,0,0,0,0,0,0,0,0,0,0,0,0,0,0,0,0,0,0,0,0,0,0,0,0,0,0,0,0,0,0,0,0,0],"sum_hessian":[7.083351E2,2.4476991E2,4.6356516E2,1.0350366E1,2.3441954E2,2.4628563E2,2.1727954E2,2.1671945E2,1.7700094E1,4.000851E1,2.0627711E2,1.16687645E2,1.00591896E2,1.9331721E2,2.3402227E1,2.7846989E1,1.2161522E1,1.9260925E1,1.8701619E2,9.946667E1,1.7220974E1,2.2534058E1,7.805784E1,8.115373E1,1.1216348E2,1.0981339E1,1.2420889E1,1.5944306E1,1.1902682E1,1.4940434E2,3.7611835E1,1.1600444E1,1.0933614E1,2.875533E1,4.930251E1],"tree_param":{"num_deleted":"0","num_feature":"36","num_nodes":"35","size_leaf_vector":"1"}},{"base_weights":[-1.439195E-2,7.764479E-1,-5.679533E-1,1.1617136E0,3.6339065E-1,-3.2171813E-1,-8.098885E-1,1.3263506E0,-1.3604792E-2,-2.7864042E-1,5.419337E-1,-3.8214734E-1,3.8515966E-2,-6.0559773E-1,-8.5641795E-1,4.10868E-1,1.5396519E0,2.1207564E-2,-6.336904E-1,9.880224E-1,2.1480475E-1,-5.2416396E-1,-1.4017029E-1,-4.303953E-2,-3.302365E-1,-8.7814724E-1,-2.3899255E-2,-2.838704E-2,5.2211065E-2,1.1839058E-1,5.7374943E-2,-4.1083373E-2,-1.9105447E-2,8.436615E-2,3.4396093E-2,-2.1777924E-2,2.7336089E-2,-3.4838583E-2,-1.8998444E-2,-1.5683983E-2,1.3609925E-2,7.099563E-3,-4.094148E-2,-4.5147255E-2,-2.4144782E-2],"categories":[],"categories_nodes":[],"categories_segments":[],"categories_sizes":[],"default_left":[0,0,0,0,0,0,0,0,0,0,0,0,0,0,0,0,0,0,0,0,0,0,0,0,0,0,0,0,0,0,0,0,0,0,0,0,0,0,0,0,0,0,0,0,0],"id":9,"left_children":[1,3,5,7,9,11,13,15,-1,17,19,21,-1,23,25,27,29,-1,31,33,35,37,39,-1,41,43,-1,-1,-1,-1,-1,-1,-1,-1,-1,-1,-1,-1,-1,-1,-1,-1,-1,-1,-1],"loss_changes":[3.103715E2,4.5873123E1,2.4476334E1,3.597809E1,1.6504877E1,1.4020941E1,1.3269653E0,2.5568405E1,0E0,8.157392E0,1.599781E1,6.6784954E0,0E0,2.5961246E0,8.249283E-1,1.7372713E1,3.2388885E1,0E0,5.797348E-1,8.452072E0,1.4489683E1,2.7239342E0,5.4562383E0,0E0,5.338894E0,9.6713257E-1,0E0,0E0,0E0,0E0,0E0,0E0,0E0,0E0,0E0,0E0,0E0,0E0,0E0,0E0,0E0,0E0,0E0,0E0,0E0],"parents":[2147483647,0,0,1,1,2,2,3,3,4,4,5,5,6,6,7,7,9,9,10,10,11,11,13,13,14,14,15,15,16,16,18,18,19,19,20,20,21,21,22,22,24,24,25,25],"right_children":[2,4,6,8,10,12,14,16,-1,18,20,22,-1,24,26,28,30,-1,32,34,36,38,40,-1,42,44,-1,-1,-1,-1,-1,-1,-1,-1,-1,-1,-1,-1,-1,-1,-1,-1,-1,-1,-1],"split_conditions":[4.3266878E-1,2.861866E-1,6.124745E-1,1E0,2.75E-1,8.383333E-1,6.6249645E-1,3.0833334E-1,-1.3604792E-2,1.8E-1,4.35088E-1,5.908333E-1,3.8515966E-2,4.925E-1,9.479167E-1,7.4916667E-1,3E0,2.1207564E-2,7.133333E-1,6.7583334E-1,5.0251466E-1,4.6875E-1,5.992362E-1,-4.303953E-2,6.95E-1,1E0,-2.3899255E-2,-2.838704E-2,5.2211065E-2,1.1839058E-1,5.7374943E-2,-4.1083373E-2,-1.9105447E-2,8.436615E-2,3.4396093E-2,-2.1777924E-2,2.7336089E-2,-3.4838583E-2,-1.8998444E-2,-1.5683983E-2,1.3609925E-2,7.099563E-3,-4.094148E-2,-4.5147255E-2,-2.4144782E-2],"split_indices":[7,7,7,10,6,21,7,32,0,4,34,14,0,6,34,21,9,0,14,32,34,24,34,0,13,10,0,0,0,0,0,0,0,0,0,0,0,0,0,0,0,0,0,0,0],"split_type":[0,0,0,0,0,0,0,0,0,0,0,0,0,0,0,0,0,0,0,0,0,0,0,0,0,0,0,0,0,0,0,0,0,0,0,0,0,0,0,0,0,0,0,0,0],"sum_hessian":[7.0700977E2,2.908733E2,4.1613647E2,1.4943658E2,1.4143669E2,2.0759497E2,2.0854152E2,1.3417468E2,1.5261903E1,3.0530384E1,1.109063E2,1.9741254E2,1.0182431E1,4.1685093E1,1.6685641E2,2.5995935E1,1.0817875E2,1.0087248E1,2.0443136E1,4.593761E1,6.49687E1,1.2340598E2,7.400656E1,2.034294E1,2.1342154E1,1.5629724E2,1.0559173E1,1.0192686E1,1.5803249E1,3.3062805E1,7.5115944E1,1.0176186E1,1.0266951E1,1.2306049E1,3.363156E1,2.1745905E1,4.322279E1,5.410925E1,6.929674E1,5.242845E1,2.1578108E1,1.1109491E1,1.0232661E1,1.4562341E2,1.0673828E1],"tree_param":{"num_deleted":"0","num_feature":"36","num_nodes":"45","size_leaf_vector":"1"}},{"base_weights":[-4.1046742E-2,-5.5214566E-1,6.7455053E-1,-2.3804548E-1,-7.7305603E-1,1.5606169E0,5.250323E-1,-1.5036394E-1,-4.5028362E-2,-9.1256624E-1,-6.7218417E-1,1.3300987E-2,2.1120782E0,6.6706765E-1,-5.209725E-1,-2.6229703E-1,3.61886E-1,-4.8440073E-2,-2.5530368E-2,-4.3708152E-1,-8.20714E-1,1.4670093E-1,5.7245415E-2,1.4402559E0,3.873405E-1,-1.11267995E-2,-4.2886395E-2,-2.5895268E-2,-3.6282192E-3,-2.7873922E-2,4.7452003E-2,-3.0542923E-2,-1.1760882E-3,-3.4691613E-2,-4.5830548E-2,3.373328E-2,1.1655066E-1,2.388765E-2,-2.9349273E-2],"categories":[],"categories_nodes":[],"categories_segments":[],"categories_sizes":[],"default_left":[0,0,0,0,0,0,0,0,0,0,0,0,0,0,0,0,0,0,0,0,0,0,0,0,0,0,0,0,0,0,0,0,0,0,0,0,0,0,0],"id":10,"left_children":[1,3,5,7,9,11,13,15,-1,17,19,-1,21,23,25,27,29,-1,-1,31,33,-1,-1,35,37,-1,-1,-1,-1,-1,-1,-1,-1,-1,-1,-1,-1,-1,-1],"loss_changes":[2.5795667E2,2.82677E1,3.789804E1,9.724513E0,2.6189575E0,2.9055138E1,3.7950325E1,8.847667E0,0E0,1.5703125E0,4.5458374E0,0E0,1.938823E1,4.7549873E1,2.788927E0,6.0217943E0,1.5502529E1,0E0,0E0,4.1029234E0,2.601204E-1,0E0,0E0,3.826301E1,1.4841665E1,0E0,0E0,0E0,0E0,0E0,0E0,0E0,0E0,0E0,0E0,0E0,0E0,0E0,0E0],"parents":[2147483647,0,0,1,1,2,2,3,3,4,4,5,5,6,6,7,7,9,9,10,10,12,12,13,13,14,14,15,15,16,16,19,19,20,20,23,23,24,24],"right_children":[2,4,6,8,10,12,14,16,-1,18,20,-1,22,24,26,28,30,-1,-1,32,34,-1,-1,36,38,-1,-1,-1,-1,-1,-1,-1,-1,-1,-1,-1,-1,-1,-1],"split_conditions":[7.2E-1,5.654116E-1,1.483544E-1,8.4875E-1,3.3166668E-1,3.65E-1,1E0,6.975E-1,-4.5028362E-2,8.7333333E-1,4.1E-1,1.3300987E-2,3.081576E-1,0E0,3.4269863E-1,5.933333E-1,5.35E-1,-4.8440073E-2,-2.5530368E-2,4.0166667E-1,4.7583333E-1,1.4670093E-1,5.7245415E-2,8.65E-1,1E0,-1.11267995E-2,-4.2886395E-2,-2.5895268E-2,-3.6282192E-3,-2.7873922E-2,4.7452003E-2,-3.0542923E-2,-1.1760882E-3,-3.4691613E-2,-4.5830548E-2,3.373328E-2,1.1655066E-1,2.388765E-2,-2.9349273E-2],"split_indices":[5,7,7,22,5,22,1,22,0,23,12,0,25,2,7,5,12,0,0,14,32,0,0,5,10,0,0,0,0,0,0,0,0,0,0,0,0,0,0],"split_type":[0,0,0,0,0,0,0,0,0,0,0,0,0,0,0,0,0,0,0,0,0,0,0,0,0,0,0,0,0,0,0,0,0,0,0,0,0,0,0],"sum_hessian":[7.0331384E2,4.104952E2,2.928186E2,1.7054172E2,2.399535E2,4.0818127E1,2.5200049E2,1.5182616E2,1.8715563E1,9.6899284E1,1.4305423E2,1.2690335E1,2.812779E1,2.2227588E2,2.9724617E1,1.25160225E2,2.6665928E1,8.3551254E1,1.3348029E1,5.7173016E1,8.588121E1,1.4050282E1,1.407751E1,5.785466E1,1.644212E2,1.679684E1,1.2927776E1,5.23617E1,7.279852E1,1.0346162E1,1.6319767E1,3.9750893E1,1.7422121E1,4.0962067E1,4.491914E1,3.211879E1,2.573587E1,1.5101965E2,1.340156E1],"tree_param":{"num_deleted":"0","num_feature":"36","num_nodes":"39","size_leaf_vector":"1"}},{"base_weights":[-1.869997E-2,-5.764902E-1,6.007217E-1,1.5976234E-1,-6.7727154E-1,7.276116E-1,-4.0428767E-1,4.164946E-1,-3.2225847E-2,-4.678241E-1,-8.253383E-1,4.3572655E-1,1.1680908E0,-4.180744E-2,-1.7234948E-2,-1.2335806E-2,7.894206E-1,-7.6661624E-2,-5.716937E-1,-9.068862E-1,-7.387074E-1,5.566732E-1,-3.5100332E-1,-1.599772E-2,1.3158442E0,1.2430741E-2,-1.4429693E-2,6.813525E-2,9.651217E-3,-2.0436315E-2,2.0444699E-2,-3.3585932E-2,-1.5084944E-2,-4.8317216E-2,-2.4376286E-2,-2.4696816E-2,-4.497913E-2,3.1917457E-2,-2.7638031E-2,-2.9325116E-2,-8.616842E-5,7.422488E-2,-8.117798E-3],"categories":[],"categories_nodes":[],"categories_segments":[],"categories_sizes":[],"default_left":[0,0,0,0,0,0,0,0,0,0,0,0,0,0,0,0,0,0,0,0,0,0,0,0,0,0,0,0,0,0,0,0,0,0,0,0,0,0,0,0,0,0,0],"id":11,"left_children":[1,3,5,7,9,11,13,15,-1,17,19,21,23,-1,25,-1,27,29,31,33,35,37,39,-1,41,-1,-1,-1,-1,-1,-1,-1,-1,-1,-1,-1,-1,-1,-1,-1,-1,-1,-1],"loss_changes":[2.4289185E2,2.7612251E1,4.2796432E1,9.586092E0,9.586426E0,3.7405502E1,6.2334127E0,8.903481E0,0E0,5.4777412E0,5.024414E-1,1.7328735E1,2.6309875E1,0E0,1.599642E0,0E0,7.353609E0,5.0374956E0,2.6244545E0,1.6897888E0,3.2654266E0,1.4531498E1,1.9527307E0,0E0,2.703833E1,0E0,0E0,0E0,0E0,0E0,0E0,0E0,0E0,0E0,0E0,0E0,0E0,0E0,0E0,0E0,0E0,0E0,0E0],"parents":[2147483647,0,0,1,1,2,2,3,3,4,4,5,5,6,6,7,7,9,9,10,10,11,11,12,12,14,14,16,16,17,17,18,18,19,19,20,20,21,21,22,22,24,24],"right_children":[2,4,6,8,10,12,14,16,-1,18,20,22,24,-1,26,-1,28,30,32,34,36,38,40,-1,42,-1,-1,-1,-1,-1,-1,-1,-1,-1,-1,-1,-1,-1,-1,-1,-1,-1,-1],"split_conditions":[6.9166666E-1,4.3513188E-1,1E0,6.716667E-1,6.124745E-1,8.775E-1,7.4916667E-1,4.575E-1,-3.2225847E-2,4.075E-1,3.3166668E-1,8.5375E-1,1.2E-1,-4.180744E-2,8.25E-1,-1.2335806E-2,5.4875E-1,3.3916667E-1,7.2E-1,8.7333333E-1,4.0666667E-1,1E0,8.0375E-1,-1.599772E-2,1E0,1.2430741E-2,-1.4429693E-2,6.813525E-2,9.651217E-3,-2.0436315E-2,2.0444699E-2,-3.3585932E-2,-1.5084944E-2,-4.8317216E-2,-2.4376286E-2,-2.4696816E-2,-4.497913E-2,3.1917457E-2,-2.7638031E-2,-2.9325116E-2,-8.616842E-5,7.422488E-2,-8.117798E-3],"split_indices":[5,7,1,23,7,5,21,15,0,32,5,4,32,0,12,0,33,30,33,23,14,10,31,0,10,0,0,0,0,0,0,0,0,0,0,0,0,0,0,0,0,0,0],"split_type":[0,0,0,0,0,0,0,0,0,0,0,0,0,0,0,0,0,0,0,0,0,0,0,0,0,0,0,0,0,0,0,0,0,0,0,0,0,0,0,0,0,0,0],"sum_hessian":[7.010051E2,3.6897412E2,3.32031E2,4.4235634E1,3.2473846E2,2.951426E2,3.6888412E1,3.3991703E1,1.0243933E1,1.3649487E2,1.8824359E2,1.7884596E2,1.16296646E2,1.676448E1,2.0123932E1,1.225958E1,2.1732124E1,2.9206598E1,1.0728828E2,9.149458E1,9.674901E1,1.553786E2,2.3467358E1,1.0338085E1,1.0595856E2,1.0021342E1,1.0102589E1,1.0340132E1,1.1391993E1,1.7561033E1,1.1645565E1,7.692985E1,3.0358433E1,7.878188E1,1.2712704E1,4.0230427E1,5.6518585E1,1.4520355E2,1.0175049E1,1.3440046E1,1.0027312E1,9.516431E1,1.0794254E1],"tree_param":{"num_deleted":"0","num_feature":"36","num_nodes":"43","size_leaf_vector":"1"}},{"base_weights":[1.4022406E-2,-5.780531E-1,6.213585E-1,-7.584965E-1,-2.283711E-1,7.243163E-1,-2.5791085E-1,-8.936228E-1,-6.1758584E-1,1.9941443E-1,-4.597759E-1,4.4535044E-1,1.1369681E0,2.9538644E-2,-6.0133326E-1,-9.2034197E-1,-2.7368724E-2,-2.830723E-1,-7.6955503E-1,4.7879922E-1,-3.2111045E-2,7.386276E-2,-6.6357005E-1,6.5010524E-1,-1.1528059E-2,3.4583125E-1,1.4328978E0,-3.9844107E-2,-1.6784422E-2,-4.7544293E-2,-3.2399498E-2,-2.7802557E-2,3.966897E-3,-1.6785E-2,-4.2159226E-2,4.3050207E-2,-1.5478146E-2,3.0890921E-2,-2.7480716E-2,-2.6438162E-2,-4.720109E-2,1.610147E-2,9.349985E-2,-2.7795319E-2,8.871696E-3,4.192673E-2,-2.3014657E-2,9.513739E-2,2.7340654E-2],"categories":[],"categories_nodes":[],"categories_segments":[],"categories_sizes":[],"default_left":[0,0,0,0,0,0,0,0,0,0,0,0,0,0,0,0,0,0,0,0,0,0,0,0,0,0,0,0,0,0,0,0,0,0,0,0,0,0,0,0,0,0,0,0,0,0,0,0,0],"id":12,"left_children":[1,3,5,7,9,11,13,15,17,19,21,23,25,-1,27,29,-1,31,33,35,-1,37,39,41,43,45,47,-1,-1,-1,-1,-1,-1,-1,-1,-1,-1,-1,-1,-1,-1,-1,-1,-1,-1,-1,-1,-1,-1],"loss_changes":[2.5389453E2,2.2282356E1,3.1792175E1,3.774643E0,1.2322152E1,3.530127E1,1.1191822E1,4.3598938E-1,5.711941E0,1.0596196E1,8.858463E0,1.7677116E1,2.8645935E1,0E0,1.0242128E0,1.16500854E-1,0E0,3.9374564E0,2.181572E0,1.0435331E1,0E0,8.146864E0,1.5638142E0,5.1257504E1,6.2131867E0,1.4524357E1,3.648796E1,0E0,0E0,0E0,0E0,0E0,0E0,0E0,0E0,0E0,0E0,0E0,0E0,0E0,0E0,0E0,0E0,0E0,0E0,0E0,0E0,0E0,0E0],"parents":[2147483647,0,0,1,1,2,2,3,3,4,4,5,5,6,6,7,7,8,8,9,9,10,10,11,11,12,12,14,14,15,15,17,17,18,18,19,19,21,21,22,22,23,23,24,24,25,25,26,26],"right_children":[2,4,6,8,10,12,14,16,18,20,22,24,26,-1,28,30,-1,32,34,36,-1,38,40,42,44,46,48,-1,-1,-1,-1,-1,-1,-1,-1,-1,-1,-1,-1,-1,-1,-1,-1,-1,-1,-1,-1,-1,-1],"split_conditions":[6.8833333E-1,5.491667E-1,1E0,3.85E-1,4.825E-1,8.775E-1,2.67213E-1,1E0,4.075E-1,7.6125E-1,4.2735562E-1,6.7E-1,3.625E-1,2.9538644E-2,9.0166664E-1,1E0,-2.7368724E-2,5.5375E-1,4.1666666E-1,9E0,-3.2111045E-2,4.2493954E-1,6.25E-1,5.65E-1,4.3375E-1,2.9E-1,6.6125E-1,-3.9844107E-2,-1.6784422E-2,-4.7544293E-2,-3.2399498E-2,-2.7802557E-2,3.966897E-3,-1.6785E-2,-4.2159226E-2,4.3050207E-2,-1.5478146E-2,3.0890921E-2,-2.7480716E-2,-2.6438162E-2,-4.720109E-2,1.610147E-2,9.349985E-2,-2.7795319E-2,8.871696E-3,4.192673E-2,-2.3014657E-2,9.513739E-2,2.7340654E-2],"split_indices":[5,5,1,5,32,5,25,28,32,15,34,6,6,0,5,19,0,6,14,18,0,7,30,4,22,6,6,0,0,0,0,0,0,0,0,0,0,0,0,0,0,0,0,0,0,0,0,0,0],"split_type":[0,0,0,0,0,0,0,0,0,0,0,0,0,0,0,0,0,0,0,0,0,0,0,0,0,0,0,0,0,0,0,0,0,0,0,0,0,0,0,0,0,0,0,0,0,0,0,0,0],"sum_hessian":[7.040581E2,3.564491E2,3.4760898E2,2.3416159E2,1.22287506E2,3.1143192E2,3.6177063E1,1.16445114E2,1.1771648E2,4.2825123E1,7.946239E1,1.8720018E2,1.2423174E2,1.0130527E1,2.6046535E1,1.06295685E2,1.014943E1,3.78725E1,7.984397E1,3.2564957E1,1.0260166E1,2.2000511E1,5.7461876E1,1.2912668E2,5.8073505E1,3.4501675E1,8.973007E1,1.36339445E1,1.2412591E1,9.300659E1,1.3289097E1,2.1454163E1,1.6418339E1,1.2587969E1,6.7256004E1,2.195546E1,1.0609497E1,1.1840059E1,1.0160452E1,4.099735E1,1.6464527E1,1.028203E2,2.6306381E1,1.4599962E1,4.347354E1,2.1465687E1,1.3035986E1,5.781383E1,3.1916239E1],"tree_param":{"num_deleted":"0","num_feature":"36","num_nodes":"49","size_leaf_vector":"1"}},{"base_weights":[7.050451E-3,5.8620137E-1,-5.2182233E-1,3.1258497E-1,9.6407324E-1,-6.375559E-1,1.71911E-1,-2.3357933E-2,3.7439972E-1,1.0832063E0,-1.5311154E-2,-4.4916523E-1,-7.8321016E-1,-2.6825804E-2,4.9799836E-1,-1.9865642E-1,4.6212485E-1,1.3699687E-1,1.3121237E0,-3.5681784E-1,-4.3845646E-2,-8.862318E-1,-6.782631E-1,6.570464E-2,-9.554404E-3,-2.295024E-2,7.827765E-3,-7.4956315E-3,2.850855E-2,3.416267E-2,-1.698135E-2,7.548441E-2,-9.030666E-3,-2.3330731E-2,1.3577861E-2,-4.7420762E-2,-2.3687078E-2,-3.8126606E-2,-8.10554E-3],"categories":[],"categories_nodes":[],"categories_segments":[],"categories_sizes":[],"default_left":[0,0,0,0,0,0,0,0,0,0,0,0,0,0,0,0,0,0,0,0,0,0,0,0,0,0,0,0,0,0,0,0,0,0,0,0,0,0,0],"id":13,"left_children":[1,3,5,7,9,11,13,-1,15,17,-1,19,21,-1,23,25,27,29,31,33,-1,35,37,-1,-1,-1,-1,-1,-1,-1,-1,-1,-1,-1,-1,-1,-1,-1,-1],"loss_changes":[2.1542648E2,3.4287903E1,2.9664124E1,9.631563E0,2.1655182E1,8.17717E0,1.25555725E1,0E0,9.299656E0,2.7540268E1,0E0,5.099106E0,1.147316E0,0E0,2.120095E1,2.3951235E0,1.063155E1,7.1039505E0,3.0894394E1,8.227292E0,0E0,1.5929642E0,3.786316E0,0E0,0E0,0E0,0E0,0E0,0E0,0E0,0E0,0E0,0E0,0E0,0E0,0E0,0E0,0E0,0E0],"parents":[2147483647,0,0,1,1,2,2,3,3,4,4,5,5,6,6,8,8,9,9,11,11,12,12,14,14,15,15,16,16,17,17,18,18,19,19,21,21,22,22],"right_children":[2,4,6,8,10,12,14,-1,16,18,-1,20,22,-1,24,26,28,30,32,34,-1,36,38,-1,-1,-1,-1,-1,-1,-1,-1,-1,-1,-1,-1,-1,-1,-1,-1],"split_conditions":[4.4003728E-1,8.775E-1,7.2E-1,1.85E-1,1E0,6.124745E-1,1.575E-1,-2.3357933E-2,6.433333E-1,4.775E-1,-1.5311154E-2,8.325E-1,3.3166668E-1,-2.6825804E-2,8E-1,5.257858E-1,2.6875E-1,3.4753597E-1,9.85E-1,7.2E-1,-4.3845646E-2,8.7333333E-1,8.1757647E-1,6.570464E-2,-9.554404E-3,-2.295024E-2,7.827765E-3,-7.4956315E-3,2.850855E-2,3.416267E-2,-1.698135E-2,7.548441E-2,-9.030666E-3,-2.3330731E-2,1.3577861E-2,-4.7420762E-2,-2.3687078E-2,-3.8126606E-2,-8.10554E-3],"split_indices":[7,5,5,14,10,7,6,0,5,32,0,33,5,0,6,34,6,25,5,33,0,23,25,0,0,0,0,0,0,0,0,0,0,0,0,0,0,0,0],"split_type":[0,0,0,0,0,0,0,0,0,0,0,0,0,0,0,0,0,0,0,0,0,0,0,0,0,0,0,0,0,0,0,0,0,0,0,0,0,0,0],"sum_hessian":[7.0130536E2,3.3477982E2,3.665255E2,1.9539006E2,1.3938977E2,3.1431445E2,5.2211056E1,1.3751445E1,1.8163861E2,1.2764477E2,1.1744996E1,1.3913116E2,1.751833E2,1.6157276E1,3.6053776E1,2.3795076E1,1.5784354E2,2.5261967E1,1.02382805E2,1.16128E2,2.3003162E1,8.4165E1,9.10183E1,1.6156973E1,1.9896805E1,1.3724894E1,1.0070183E1,2.3486883E1,1.3435666E2,1.1666883E1,1.3595083E1,9.046531E1,1.1917491E1,9.920956E1,1.6918442E1,7.179948E1,1.2365526E1,7.766701E1,1.3351293E1],"tree_param":{"num_deleted":"0","num_feature":"36","num_nodes":"39","size_leaf_vector":"1"}},{"base_weights":[-3.066385E-2,-4.8088008E-1,5.551131E-1,-7.540436E-1,-1.8418774E-1,8.715885E-3,7.3935634E-1,-4.440107E-2,-6.3469565E-1,-3.594222E-2,-5.622996E-1,-4.654887E-1,2.1545362E-1,9.5536846E-1,-8.500655E-2,-8.1501734E-1,-3.9420927E-1,4.007311E-1,-2.1199799E-1,-7.198637E-1,-1.2660624E-2,-3.7049793E-2,-9.56387E-3,-2.8703088E-2,4.6498972E-1,8.3160484E-1,1.0849702E-1,2.2817988E-2,-4.8358694E-1,-1.8702438E-2,-4.4536803E-2,1.806358E-2,-3.0270783E-2,-1.0767923E-2,4.26326E-2,-1.710858E-2,2.1283586E-2,-1.2192534E-2,-4.5971576E-2,3.9370053E-2,-1.8905077E-2,-9.009228E-3,4.7299113E-2,-7.412512E-3,-3.9823655E-2],"categories":[],"categories_nodes":[],"categories_segments":[],"categories_sizes":[],"default_left":[0,0,0,0,0,0,0,0,0,0,0,0,0,0,0,0,0,0,0,0,0,0,0,0,0,0,0,0,0,0,0,0,0,0,0,0,0,0,0,0,0,0,0,0,0],"id":14,"left_children":[1,3,5,7,9,11,13,-1,15,17,19,21,23,25,27,29,31,33,35,37,-1,-1,-1,-1,39,41,-1,-1,43,-1,-1,-1,-1,-1,-1,-1,-1,-1,-1,-1,-1,-1,-1,-1,-1],"loss_changes":[1.8629355E2,3.2143913E1,3.0816292E1,2.601883E0,1.0737982E1,7.7753863E0,4.101368E1,0E0,4.485676E0,1.082122E1,2.3550243E0,1.5793633E0,1.1195698E1,2.5242722E1,1.0677249E1,1.669529E0,8.36001E0,1.1489975E1,8.481053E0,2.991457E0,0E0,0E0,0E0,0E0,1.1983808E1,1.9550156E1,0E0,0E0,2.777238E0,0E0,0E0,0E0,0E0,0E0,0E0,0E0,0E0,0E0,0E0,0E0,0E0,0E0,0E0,0E0,0E0],"parents":[2147483647,0,0,1,1,2,2,3,3,4,4,5,5,6,6,8,8,9,9,10,10,11,11,12,12,13,13,14,14,15,15,16,16,17,17,18,18,19,19,24,24,25,25,28,28],"right_children":[2,4,6,8,10,12,14,-1,16,18,20,22,24,26,28,30,32,34,36,38,-1,-1,-1,-1,40,42,-1,-1,44,-1,-1,-1,-1,-1,-1,-1,-1,-1,-1,-1,-1,-1,-1,-1,-1],"split_conditions":[7.4666667E-1,5.35E-1,3.3E-1,4.6875E-1,6.1462784E-1,1.5375E-1,7.525E-1,-4.440107E-2,4E-1,4.9833333E-1,7.0320296E-1,4.6712124E-1,5.225E-1,9.575E-1,4.4704664E-1,8.75E-2,4.1E-1,4.6333334E-1,1E0,4.1333774E-1,-1.2660624E-2,-3.7049793E-2,-9.56387E-3,-2.8703088E-2,8.475E-1,1.9083333E-1,1.0849702E-1,2.2817988E-2,7.45E-1,-1.8702438E-2,-4.4536803E-2,1.806358E-2,-3.0270783E-2,-1.0767923E-2,4.26326E-2,-1.710858E-2,2.1283586E-2,-1.2192534E-2,-4.5971576E-2,3.9370053E-2,-1.8905077E-2,-9.009228E-3,4.7299113E-2,-7.412512E-3,-3.9823655E-2],"split_indices":[5,5,6,6,16,6,6,0,5,32,34,25,30,3,34,3,3,21,35,7,0,0,0,0,32,32,0,0,33,0,0,0,0,0,0,0,0,0,0,0,0,0,0,0,0],"split_type":[0,0,0,0,0,0,0,0,0,0,0,0,0,0,0,0,0,0,0,0,0,0,0,0,0,0,0,0,0,0,0,0,0,0,0,0,0,0,0,0,0,0,0,0,0],"sum_hessian":[7.044058E2,3.9848676E2,3.0591904E2,2.064919E2,1.9199486E2,7.7543594E1,2.2837544E2,9.385429E1,1.1263762E2,1.3889723E2,5.3097622E1,2.3015806E1,5.4527786E1,1.8092825E2,4.744719E1,6.2768005E1,4.9869614E1,3.937953E1,9.95177E1,3.4074726E1,1.9022894E1,1.0449731E1,1.2566074E1,1.268669E1,4.1841095E1,1.658004E2,1.512786E1,1.9951918E1,2.7495272E1,1.0262459E1,5.2505547E1,1.0637063E1,3.9232548E1,1.6791029E1,2.2588501E1,8.316139E1,1.635631E1,1.0870109E1,2.3204618E1,3.0400234E1,1.1440861E1,1.6692032E1,1.4910837E2,1.4137155E1,1.3358117E1],"tree_param":{"num_deleted":"0","num_feature":"36","num_nodes":"45","size_leaf_vector":"1"}},{"base_weights":[1.1419288E-3,-5.153101E-1,4.5666236E-1,1.692703E-1,-6.164173E-1,5.5382395E-1,-3.947794E-1,-1.1633996E-1,3.3215795E-2,-4.9022597E-1,-8.382588E-1,6.32959E-1,-4.2722237E-1,1.7402673E-2,-7.178092E-1,1.9226424E-2,-3.8195528E-2,-1.9606514E-1,-5.987908E-1,-2.5668208E-2,-8.803258E-1,3.9694142E-1,9.655361E-1,-2.9105053E-3,-3.384736E-2,-4.135056E-2,-2.4305968E-2,2.06793E-2,-1.7862586E-2,-3.313891E-2,-1.2083152E-2,-4.621511E-2,-2.8821444E-2,2.2770625E-2,-2.776332E-2,8.727169E-2,3.486785E-2],"categories":[],"categories_nodes":[],"categories_segments":[],"categories_sizes":[],"default_left":[0,0,0,0,0,0,0,0,0,0,0,0,0,0,0,0,0,0,0,0,0,0,0,0,0,0,0,0,0,0,0,0,0,0,0,0,0],"id":15,"left_children":[1,3,5,7,9,11,13,15,-1,17,19,21,23,-1,25,-1,-1,27,29,-1,31,33,35,-1,-1,-1,-1,-1,-1,-1,-1,-1,-1,-1,-1,-1,-1],"loss_changes":[1.6586955E2,2.3014038E1,3.123639E1,6.2355843E0,7.523506E0,2.6445068E1,9.612079E0,9.444987E0,0E0,5.7553406E0,8.1359863E-1,2.3989128E1,2.2506514E0,0E0,1.6255474E-1,0E0,0E0,5.250003E0,2.8435822E0,0E0,5.11055E-1,1.0515444E1,2.5463081E1,0E0,0E0,0E0,0E0,0E0,0E0,0E0,0E0,0E0,0E0,0E0,0E0,0E0,0E0],"parents":[2147483647,0,0,1,1,2,2,3,3,4,4,5,5,6,6,7,7,9,9,10,10,11,11,12,12,14,14,17,17,18,18,20,20,21,21,22,22],"right_children":[2,4,6,8,10,12,14,16,-1,18,20,22,24,-1,26,-1,-1,28,30,-1,32,34,36,-1,-1,-1,-1,-1,-1,-1,-1,-1,-1,-1,-1,-1,-1],"split_conditions":[6.8833333E-1,4.3513188E-1,1E0,5.4948664E-1,7.110282E-1,1E0,2.67213E-1,4.4237363E-1,3.3215795E-2,4.075E-1,1.0666667E-1,8.775E-1,4.4125E-1,1.7402673E-2,7.5E-1,1.9226424E-2,-3.8195528E-2,2.5E-1,1E0,-2.5668208E-2,4.05E-1,8.85E-1,1E0,-2.9105053E-3,-3.384736E-2,-4.135056E-2,-2.4305968E-2,2.06793E-2,-1.7862586E-2,-3.313891E-2,-1.2083152E-2,-4.621511E-2,-2.8821444E-2,2.2770625E-2,-2.776332E-2,8.727169E-2,3.486785E-2],"split_indices":[5,7,1,34,7,10,25,34,0,32,12,5,24,0,12,0,0,33,35,0,5,30,0,0,0,0,0,0,0,0,0,0,0,0,0,0,0],"split_type":[0,0,0,0,0,0,0,0,0,0,0,0,0,0,0,0,0,0,0,0,0,0,0,0,0,0,0,0,0,0,0,0,0,0,0,0,0],"sum_hessian":[7.030891E2,3.2934232E2,3.7374677E2,4.2167805E1,2.871745E2,3.3588455E2,3.7862213E1,2.7097332E1,1.5070474E1,1.8538275E2,1.0179175E2,3.112358E2,2.4648754E1,1.1357559E1,2.6504652E1,1.5421347E1,1.1675985E1,5.097932E1,1.3440344E2,1.3455099E1,8.833665E1,1.8350404E2,1.27731766E2,1.0607641E1,1.4041112E1,1.5974386E1,1.0530266E1,1.0202903E1,4.077642E1,1.1301792E2,2.1385513E1,7.5098694E1,1.323796E1,1.7347824E2,1.0025813E1,3.1178762E1,9.6553E1],"tree_param":{"num_deleted":"0","num_feature":"36","num_nodes":"37","size_leaf_vector":"1"}},{"base_weights":[5.5504967E-3,-4.3723005E-1,5.1809335E-1,-7.400669E-2,-6.6158986E-1,6.176943E-1,-3.1044862E-1,9.281507E-2,-4.9940115E-1,-5.2220434E-1,-8.4264594E-1,-1.5776192E-1,7.4165404E-1,8.6892275E-3,-3.3488747E-2,-9.272028E-2,6.536321E-1,-1.619877E-3,-3.5990454E-2,-1.804519E-1,-6.360412E-1,-2.5558013E-2,-8.871049E-1,1.4716101E-2,-3.2333666E-1,9.23325E-1,-4.1760534E-2,-1.285259E-2,2.127602E-2,5.4463394E-2,-1.0606241E-3,-2.1280741E-2,1.15308715E-2,-4.6597887E-3,-3.4721233E-2,-4.6709947E-2,-2.893286E-2,-0E0,-2.9485462E-2,8.4396586E-2,3.4815E-2,3.363061E-2,-1.3316323E-2],"categories":[],"categories_nodes":[],"categories_segments":[],"categories_sizes":[],"default_left":[0,0,0,0,0,0,0,0,0,0,0,0,0,0,0,0,0,0,0,0,0,0,0,0,0,0,0,0,0,0,0,0,0,0,0,0,0,0,0,0,0,0,0],"id":16,"left_children":[1,3,5,7,9,11,13,15,17,19,21,23,25,-1,-1,27,29,-1,-1,31,33,-1,35,-1,37,39,41,-1,-1,-1,-1,-1,-1,-1,-1,-1,-1,-1,-1,-1,-1,-1,-1],"loss_changes":[1.5984384E2,3.0662628E1,2.7169083E1,1.0415283E1,5.309288E0,2.8237617E1,6.360075E0,1.1064708E1,4.1548796E0,5.0446854E0,8.7319946E-1,3.1632059E0,3.5990158E1,0E0,0E0,6.888837E0,7.8953104E0,0E0,0E0,3.6728752E0,3.0398254E0,0E0,5.59021E-1,0E0,2.6394114E0,3.4118637E1,7.8849897E0,0E0,0E0,0E0,0E0,0E0,0E0,0E0,0E0,0E0,0E0,0E0,0E0,0E0,0E0,0E0,0E0],"parents":[2147483647,0,0,1,1,2,2,3,3,4,4,5,5,6,6,7,7,8,8,9,9,10,10,11,11,12,12,15,15,16,16,19,19,20,20,22,22,24,24,25,25,26,26],"right_children":[2,4,6,8,10,12,14,16,18,20,22,24,26,-1,-1,28,30,-1,-1,32,34,-1,36,-1,38,40,42,-1,-1,-1,-1,-1,-1,-1,-1,-1,-1,-1,-1,-1,-1,-1,-1],"split_conditions":[7.425E-1,5.2369547E-1,1E0,6.725E-1,7.110282E-1,2.4625E-1,3.1752953E-1,6.9375E-1,3.425E-1,4.0666667E-1,1.0666667E-1,3.7216637E-1,7.525E-1,8.6892275E-3,-3.3488747E-2,6.091667E-1,5.708333E-1,-1.619877E-3,-3.5990454E-2,3.8333333E-1,4.47552E-1,-2.5558013E-2,4.05E-1,1.4716101E-2,2.475E-1,1E0,3.5490537E-1,-1.285259E-2,2.127602E-2,5.4463394E-2,-1.0606241E-3,-2.1280741E-2,1.15308715E-2,-4.6597887E-3,-3.4721233E-2,-4.6709947E-2,-2.893286E-2,-0E0,-2.9485462E-2,8.4396586E-2,3.4815E-2,3.363061E-2,-1.3316323E-2],"split_indices":[5,7,1,32,7,6,25,22,13,23,12,25,6,0,0,32,32,0,0,12,25,0,5,0,31,0,25,0,0,0,0,0,0,0,0,0,0,0,0,0,0,0,0],"split_type":[0,0,0,0,0,0,0,0,0,0,0,0,0,0,0,0,0,0,0,0,0,0,0,0,0,0,0,0,0,0,0,0,0,0,0,0,0,0,0,0,0,0,0],"sum_hessian":[7.022978E2,3.7676562E2,3.2553214E2,1.4454027E2,2.3222536E2,2.9093353E2,3.459862E1,1.04217354E2,4.032291E1,1.3371886E2,9.850651E1,3.9948414E1,2.509851E2,1.4839187E1,1.9759434E1,7.880321E1,2.5414143E1,1.3442158E1,2.6880754E1,3.427741E1,9.9441444E1,1.3393237E1,8.511327E1,1.0338559E1,2.9609854E1,2.0369748E2,4.728763E1,6.0360233E1,1.8442976E1,1.5161162E1,1.025298E1,2.1601871E1,1.2675536E1,1.0074883E1,8.936656E1,7.1798164E1,1.33151045E1,1.3817763E1,1.579209E1,4.5060596E1,1.5863689E2,1.0726094E1,3.6561535E1],"tree_param":{"num_deleted":"0","num_feature":"36","num_nodes":"43","size_leaf_vector":"1"}},{"base_weights":[-1.4550472E-2,3.2155314E-1,-4.7471535E-1,5.309817E-1,8.994269E-2,-2.5739247E-1,-7.77323E-1,1.1290337E0,3.923642E-1,3.5481247E-1,-2.6036686E-1,1.7061273E-2,-3.1740296E-1,-2.2259919E-2,-8.190926E-1,2.0936139E-2,1.6462524E0,-1.5224892E-2,4.83154E-1,-5.9575967E-2,6.939574E-1,-4.8216745E-2,-2.2143003E-2,-4.3659633E-1,-0E0,-8.824887E-1,-6.561674E-1,1.0698799E-1,4.9660467E-2,4.4989283E-3,3.212346E-2,-3.2211438E-2,1.0807329E-2,6.267082E-2,1.7559912E-2,2.9352058E-2,-1.1747892E-2,-8.216732E-3,-3.0793348E-2,-2.87842E-2,9.976017E-3,-2.7092377E-2,-4.6268348E-2,-6.279108E-3,-4.56808E-2],"categories":[],"categories_nodes":[],"categories_segments":[],"categories_sizes":[],"default_left":[0,0,0,0,0,0,0,0,0,0,0,0,0,0,0,0,0,0,0,0,0,0,0,0,0,0,0,0,0,0,0,0,0,0,0,0,0,0,0,0,0,0,0,0,0],"id":17,"left_children":[1,3,5,7,9,11,13,15,17,19,21,-1,23,-1,25,-1,27,-1,29,31,33,-1,35,37,39,41,43,-1,-1,-1,-1,-1,-1,-1,-1,-1,-1,-1,-1,-1,-1,-1,-1,-1,-1],"loss_changes":[1.0903401E2,1.9644192E1,1.9270378E1,1.7098808E1,1.8177992E1,6.3896027E0,1.2252655E0,1.3613506E1,1.123324E1,1.5777788E1,1.4016115E1,0E0,6.019619E0,0E0,3.8715363E-1,0E0,4.7903595E0,0E0,9.596203E0,8.400312E0,1.1200344E1,0E0,8.414166E0,5.480545E0,5.2658224E0,4.4330978E-1,4.523699E0,0E0,0E0,0E0,0E0,0E0,0E0,0E0,0E0,0E0,0E0,0E0,0E0,0E0,0E0,0E0,0E0,0E0,0E0],"parents":[2147483647,0,0,1,1,2,2,3,3,4,4,5,5,6,6,7,7,8,8,9,9,10,10,12,12,14,14,16,16,18,18,19,19,20,20,22,22,23,23,24,24,25,25,26,26],"right_children":[2,4,6,8,10,12,14,16,18,20,22,-1,24,-1,26,-1,28,-1,30,32,34,-1,36,38,40,42,44,-1,-1,-1,-1,-1,-1,-1,-1,-1,-1,-1,-1,-1,-1,-1,-1,-1,-1],"split_conditions":[4.725595E-1,4.3996626E-1,6.6249645E-1,1.483544E-1,4E0,4.1E-1,1.175E-1,9E0,2.2153035E-1,5.5331385E-1,8E0,1.7061273E-2,5.941667E-1,-2.2259919E-2,3.225E-1,2.0936139E-2,9.025E-1,-1.5224892E-2,7.4583334E-1,6.8333334E-1,6.775E-1,-4.8216745E-2,4.875E-1,4.4416666E-1,1.275E-1,2.5468153E-1,3.5916665E-1,1.0698799E-1,4.9660467E-2,4.4989283E-3,3.212346E-2,-3.2211438E-2,1.0807329E-2,6.267082E-2,1.7559912E-2,2.9352058E-2,-1.1747892E-2,-8.216732E-3,-3.0793348E-2,-2.87842E-2,9.976017E-3,-2.7092377E-2,-4.6268348E-2,-6.279108E-3,-4.56808E-2],"split_indices":[7,34,7,7,0,3,22,0,34,34,0,0,12,0,3,0,12,0,3,3,23,0,12,30,33,25,12,0,0,0,0,0,0,0,0,0,0,0,0,0,0,0,0,0,0],"split_type":[0,0,0,0,0,0,0,0,0,0,0,0,0,0,0,0,0,0,0,0,0,0,0,0,0,0,0,0,0,0,0,0,0,0,0,0,0,0,0,0,0,0,0,0,0],"sum_hessian":[7.028916E2,4.0625073E2,2.966409E2,2.1243594E2,1.9381477E2,1.7391902E2,1.22721886E2,3.8493416E1,1.7394252E2,1.105217E2,8.3293076E1,1.5267718E1,1.586513E2,1.5279741E1,1.0744215E2,1.7063095E1,2.143032E1,1.9651445E1,1.5429108E2,4.998112E1,6.0540577E1,2.018303E1,6.3110046E1,1.1495873E2,4.3692566E1,7.372467E1,3.3717472E1,1.08222065E1,1.0608114E1,4.512332E1,1.0916776E2,1.5705257E1,3.4275864E1,2.1879612E1,3.8660965E1,1.5762219E1,4.7347828E1,4.6624195E1,6.833454E1,1.0820414E1,3.287215E1,1.0027942E1,6.369673E1,1.1628367E1,2.2089106E1],"tree_param":{"num_deleted":"0","num_feature":"36","num_nodes":"45","size_leaf_vector":"1"}},{"base_weights":[-2.8479941E-2,-4.4952157E-1,4.0431544E-1,-1.6806628E-1,-7.0809245E-1,-1.3021906E-1,5.761787E-1,-9.29632E-2,-4.1414496E-2,-8.8879323E-1,-5.9201807E-1,3.945123E-1,-3.2144797E-1,6.7878556E-1,-2.0910144E-1,-3.7703123E-2,-1.5562376E-2,-4.8444763E-2,-1.8579334E-2,-2.9927117E-1,-7.864866E-1,-1.0793051E-2,4.9897935E-2,-1.1074327E-1,-6.2543714E-1,8.4551036E-1,6.198566E-2,1.8638104E-2,-2.6217801E-2,-1.0556547E-2,1.4485913E-2,-3.3012997E-2,1.8629156E-3,-2.9925302E-2,-4.515415E-2,-1.7853675E-2,1.4570196E-2,-4.0759403E-2,-1.5137336E-2,7.635563E-2,3.1946685E-2,2.733629E-2,-1.5059083E-2],"categories":[],"categories_nodes":[],"categories_segments":[],"categories_sizes":[],"default_left":[0,0,0,0,0,0,0,0,0,0,0,0,0,0,0,0,0,0,0,0,0,0,0,0,0,0,0,0,0,0,0,0,0,0,0,0,0,0,0,0,0,0,0],"id":18,"left_children":[1,3,5,7,9,11,13,15,-1,17,19,21,23,25,27,-1,29,-1,-1,31,33,-1,-1,35,37,39,41,-1,-1,-1,-1,-1,-1,-1,-1,-1,-1,-1,-1,-1,-1,-1,-1],"loss_changes":[1.2850926E2,2.581363E1,3.205834E1,8.393673E0,3.2238617E0,8.674712E0,2.1412735E1,7.909858E0,0E0,2.420765E0,6.2879105E0,8.795172E0,3.9037561E0,2.3849731E1,5.9139166E0,0E0,8.476727E0,0E0,0E0,5.95651E0,8.255081E-1,0E0,0E0,3.9465976E0,1.1999826E0,2.4639343E1,9.14145E0,0E0,0E0,0E0,0E0,0E0,0E0,0E0,0E0,0E0,0E0,0E0,0E0,0E0,0E0,0E0,0E0],"parents":[2147483647,0,0,1,1,2,2,3,3,4,4,5,5,6,6,7,7,9,9,10,10,11,11,12,12,13,13,14,14,16,16,19,19,20,20,23,23,24,24,25,25,26,26],"right_children":[2,4,6,8,10,12,14,16,-1,18,20,22,24,26,28,-1,30,-1,-1,32,34,-1,-1,36,38,40,42,-1,-1,-1,-1,-1,-1,-1,-1,-1,-1,-1,-1,-1,-1,-1,-1],"split_conditions":[7.341667E-1,5.654116E-1,3.3E-1,8.6625E-1,3.3166668E-1,3.5014284E-1,1E0,1.2625E-1,-4.1414496E-2,8.7333333E-1,4.1E-1,2.8028384E-1,2.9625E-1,7.4875E-1,2.0278144E-1,-3.7703123E-2,6.016667E-1,-4.8444763E-2,-1.8579334E-2,4.925E-1,4.4416666E-1,-1.0793051E-2,4.9897935E-2,8.691667E-1,7E-1,1E0,4.3754464E-1,1.8638104E-2,-2.6217801E-2,-1.0556547E-2,1.4485913E-2,-3.3012997E-2,1.8629156E-3,-2.9925302E-2,-4.515415E-2,-1.7853675E-2,1.4570196E-2,-4.0759403E-2,-1.5137336E-2,7.635563E-2,3.1946685E-2,2.733629E-2,-1.5059083E-2],"split_indices":[5,7,6,22,5,34,1,22,0,23,12,7,15,6,7,0,12,0,0,6,30,0,0,5,32,0,34,0,0,0,0,0,0,0,0,0,0,0,0,0,0,0,0],"split_type":[0,0,0,0,0,0,0,0,0,0,0,0,0,0,0,0,0,0,0,0,0,0,0,0,0,0,0,0,0,0,0,0,0,0,0,0,0,0,0,0,0,0,0],"sum_hessian":[7.032013E2,3.5653824E2,3.4666306E2,1.7168991E2,1.8484833E2,8.42589E1,2.6240414E2,1.5531453E2,1.637538E1,6.935701E1,1.1549132E2,2.2081472E1,6.2177433E1,2.3231252E2,3.0091633E1,1.5226554E1,1.4008798E2,5.913227E1,1.0224738E1,4.731617E1,6.817515E1,1.1214655E1,1.08668165E1,3.772339E1,2.4454042E1,1.8245964E2,4.9852882E1,1.0398872E1,1.969276E1,8.577492E1,5.431306E1,2.2507736E1,2.4808434E1,2.8774586E1,3.9400562E1,2.3617521E1,1.4105868E1,1.4242777E1,1.0211266E1,4.083791E1,1.4162173E2,2.1253944E1,2.8598938E1],"tree_param":{"num_deleted":"0","num_feature":"36","num_nodes":"43","size_leaf_vector":"1"}},{"base_weights":[-4.1921828E-2,3.3807132E-1,-4.748793E-1,3.9795128E-1,-4.7440803E-1,-7.004254E-1,-2.1534021E-1,4.4019115E-1,-4.3494757E-2,-1.1649457E-2,-3.735101E-2,-8.683872E-1,-5.889393E-1,-3.0250397E-1,1.8872647E-2,1.63974E0,3.5690764E-1,-4.747085E-2,-1.8077757E-2,-2.794458E-1,-7.884036E-1,-2.7556267E-2,-4.74304E-1,1.2404591E-1,3.334218E-2,-1.5083275E-2,2.0751962E-2,1.1909541E-2,-2.2204725E-2,-2.7005685E-2,-4.3686476E-2,1.1591169E-2,-2.6076091E-2,-9.512523E-3,-3.882247E-2],"categories":[],"categories_nodes":[],"categories_segments":[],"categories_sizes":[],"default_left":[0,0,0,0,0,0,0,0,0,0,0,0,0,0,0,0,0,0,0,0,0,0,0,0,0,0,0,0,0,0,0,0,0,0,0],"id":19,"left_children":[1,3,5,7,9,11,13,15,-1,-1,-1,17,19,21,-1,23,25,-1,-1,27,29,31,33,-1,-1,-1,-1,-1,-1,-1,-1,-1,-1,-1,-1],"loss_changes":[1.15321625E2,1.8338184E1,1.8939758E1,1.8989971E1,1.4364147E0,2.6137009E0,8.064506E0,3.295833E1,0E0,0E0,0E0,2.2863197E0,6.3680573E0,6.3122587E0,0E0,1.5684765E1,1.2279789E1,0E0,0E0,3.8976574E0,7.680893E-1,6.964788E0,6.860386E0,0E0,0E0,0E0,0E0,0E0,0E0,0E0,0E0,0E0,0E0,0E0,0E0],"parents":[2147483647,0,0,1,1,2,2,3,3,4,4,5,5,6,6,7,7,11,11,12,12,13,13,15,15,16,16,19,19,20,20,21,21,22,22],"right_children":[2,4,6,8,10,12,14,16,-1,-1,-1,18,20,22,-1,24,26,-1,-1,28,30,32,34,-1,-1,-1,-1,-1,-1,-1,-1,-1,-1,-1,-1],"split_conditions":[4.3513188E-1,1E0,5.35E-1,1E0,5.3375E-1,3.3166668E-1,8.591667E-1,1.13715656E-1,-4.3494757E-2,-1.1649457E-2,-3.735101E-2,8.7333333E-1,4.075E-1,4.9833333E-1,1.8872647E-2,2.971742E-1,1.75E-1,-4.747085E-2,-1.8077757E-2,6.8193215E-1,0E0,7.45E-1,5.2369547E-1,1.2404591E-1,3.334218E-2,-1.5083275E-2,2.0751962E-2,1.1909541E-2,-2.2204725E-2,-2.7005685E-2,-4.3686476E-2,1.1591169E-2,-2.6076091E-2,-9.512523E-3,-3.882247E-2],"split_indices":[7,10,5,5,15,5,5,7,0,0,0,23,21,32,0,34,30,0,0,25,11,15,16,0,0,0,0,0,0,0,0,0,0,0,0],"split_type":[0,0,0,0,0,0,0,0,0,0,0,0,0,0,0,0,0,0,0,0,0,0,0,0,0,0,0,0,0,0,0,0,0,0,0],"sum_hessian":[6.9889545E2,3.722082E2,3.2668723E2,3.472491E2,2.495908E1,1.7367511E2,1.5301213E2,3.3676117E2,1.0487941E1,1.4414984E1,1.0544096E1,6.6221466E1,1.0745364E2,1.3397147E2,1.9040653E1,2.057182E1,3.1618936E2,5.617064E1,1.0050827E1,4.32493E1,6.4204346E1,5.2189762E1,8.178171E1,1.0146346E1,1.0425473E1,2.5166649E1,2.910227E2,1.0182541E1,3.3066757E1,1.8595446E1,4.56089E1,3.4435856E1,1.7753906E1,4.3163433E1,3.8618275E1],"tree_param":{"num_deleted":"0","num_feature":"36","num_nodes":"35","size_leaf_vector":"1"}},{"base_weights":[-1.1639683E-2,-4.9126154E-1,3.3865994E-1,-2.2076783E-1,-6.8737364E-1,-4.3101716E-1,3.9846742E-1,-5.3229445E-1,-8.971411E-3,-5.441077E-1,-8.2543E-1,-7.3525435E-3,-3.391125E-2,5.511861E-1,2.8601576E-2,-6.724357E-1,-8.331002E-3,-1.3413098E-1,3.0186364E-2,-1.258518E-1,-7.4593055E-1,-2.2773793E-2,-8.682324E-1,6.172887E-1,-1.3744774E-2,-1.0640056E-1,4.838126E-1,-1.388925E-2,-4.0549632E-2,3.2089844E-3,-3.3202626E-2,-3.2551322E-2,1.710263E-2,-1.0004471E-2,-4.2839147E-2,-4.6176653E-2,-2.4585731E-2,3.3995494E-2,-1.9048706E-2,-4.2830158E-2,1.2205819E-3,-9.524186E-3,5.1282894E-2],"categories":[],"categories_nodes":[],"categories_segments":[],"categories_sizes":[],"default_left":[0,0,0,0,0,0,0,0,0,0,0,0,0,0,0,0,0,0,0,0,0,0,0,0,0,0,0,0,0,0,0,0,0,0,0,0,0,0,0,0,0,0,0],"id":20,"left_children":[1,3,5,7,9,11,13,15,17,19,21,-1,-1,23,25,27,-1,29,-1,31,33,-1,35,37,-1,39,41,-1,-1,-1,-1,-1,-1,-1,-1,-1,-1,-1,-1,-1,-1,-1,-1],"loss_changes":[1.1766213E2,1.5441849E1,1.8791908E1,8.251699E0,2.7904358E0,1.8907228E0,2.1167114E1,2.405713E0,5.876503E0,7.1684837E0,8.1256485E-1,0E0,0E0,1.4723824E1,6.9192305E0,1.6439533E0,0E0,6.8512497E0,0E0,7.5523863E0,3.2543182E0,0E0,9.560776E-1,1.5705818E1,0E0,8.579937E0,9.694737E0,0E0,0E0,0E0,0E0,0E0,0E0,0E0,0E0,0E0,0E0,0E0,0E0,0E0,0E0,0E0,0E0],"parents":[2147483647,0,0,1,1,2,2,3,3,4,4,5,5,6,6,7,7,8,8,9,9,10,10,13,13,14,14,15,15,17,17,19,19,20,20,22,22,23,23,25,25,26,26],"right_children":[2,4,6,8,10,12,14,16,18,20,22,-1,-1,24,26,28,-1,30,-1,32,34,-1,36,38,-1,40,42,-1,-1,-1,-1,-1,-1,-1,-1,-1,-1,-1,-1,-1,-1,-1,-1],"split_conditions":[6.8833333E-1,5.654116E-1,1.4625E-1,4.5375E-1,7.110282E-1,1.825E-1,6.6125E-1,1E1,1E0,4.1E-1,2.67213E-1,-7.3525435E-3,-3.391125E-2,1E0,1E0,4.2E-1,-8.331002E-3,6.333333E-1,3.0186364E-2,4.925E-1,3.2333332E-1,-2.2773793E-2,8.8375E-1,9.85E-1,-1.3744774E-2,2.7833334E-1,8.1083333E-1,-1.388925E-2,-4.0549632E-2,3.2089844E-3,-3.3202626E-2,-3.2551322E-2,1.710263E-2,-1.0004471E-2,-4.2839147E-2,-4.6176653E-2,-2.4585731E-2,3.3995494E-2,-1.9048706E-2,-4.2830158E-2,1.2205819E-3,-9.524186E-3,5.1282894E-2],"split_indices":[5,7,6,6,7,13,6,9,35,3,25,0,0,10,8,30,0,21,0,6,30,0,6,5,0,12,3,0,0,0,0,0,0,0,0,0,0,0,0,0,0,0,0],"split_type":[0,0,0,0,0,0,0,0,0,0,0,0,0,0,0,0,0,0,0,0,0,0,0,0,0,0,0,0,0,0,0,0,0,0,0,0,0,0,0,0,0,0,0],"sum_hessian":[6.982414E2,2.946697E2,4.0357166E2,1.24955956E2,1.6971376E2,2.8530235E1,3.750414E2,4.976797E1,7.518799E1,8.606578E1,8.364798E1,1.4208442E1,1.4321794E1,2.6490204E2,1.101394E2,3.517509E1,1.4592876E1,6.3218307E1,1.1969682E1,2.8702349E1,5.7363434E1,1.0123678E1,7.35243E1,2.4562134E2,1.9280697E1,8.536827E1,2.4771124E1,1.0108813E1,2.506628E1,4.6505062E1,1.6713247E1,1.343985E1,1.52625E1,1.0308942E1,4.7054493E1,6.26101E1,1.0914202E1,2.3151729E2,1.4104036E1,1.1965089E1,7.340318E1,1.1243328E1,1.3527796E1],"tree_param":{"num_deleted":"0","num_feature":"36","num_nodes":"43","size_leaf_vector":"1"}},{"base_weights":[-2.0740727E-2,-3.908214E-1,3.4571004E-1,-6.417487E-1,-1.6265903E-1,4.2378944E-1,-3.4833393E-1,-8.742645E-1,-4.946411E-1,1.1482755E-1,-3.1787208E-1,4.9329644E-1,-4.6125382E-1,-3.5990436E-2,-0E0,-4.7035616E-2,-2.86969E-2,-1.02938995E-1,-7.371849E-1,-8.320171E-2,4.955638E-2,-1.3470131E-1,-6.3373E-1,-3.4588835E-1,5.682714E-1,-3.4906786E-2,-7.695818E-3,-2.0188415E-2,1.7107008E-2,-2.0842602E-2,-4.1023858E-2,2.1561705E-2,-1.3735612E-2,-2.0781538E-2,5.151113E-3,-1.6717102E-2,-3.9262556E-2,-3.6711175E-2,7.6515763E-3,-1.9581513E-2,3.2029733E-2],"categories":[],"categories_nodes":[],"categories_segments":[],"categories_sizes":[],"default_left":[0,0,0,0,0,0,0,0,0,0,0,0,0,0,0,0,0,0,0,0,0,0,0,0,0,0,0,0,0,0,0,0,0,0,0,0,0,0,0,0,0],"id":21,"left_children":[1,3,5,7,9,11,13,15,17,19,21,23,25,-1,-1,-1,-1,27,29,31,-1,33,35,37,39,-1,-1,-1,-1,-1,-1,-1,-1,-1,-1,-1,-1,-1,-1,-1,-1],"loss_changes":[9.519287E1,1.9814903E1,1.9261177E1,5.1023636E0,8.003622E0,1.976221E1,4.649384E0,5.596428E-1,9.732677E0,1.1746052E1,6.7123537E0,1.877752E1,1.5204725E0,0E0,0E0,0E0,0E0,5.652589E0,1.2415161E0,5.543677E0,0E0,5.1949196E0,1.5826588E0,4.956845E0,1.9107758E1,0E0,0E0,0E0,0E0,0E0,0E0,0E0,0E0,0E0,0E0,0E0,0E0,0E0,0E0,0E0,0E0],"parents":[2147483647,0,0,1,1,2,2,3,3,4,4,5,5,6,6,7,7,8,8,9,9,10,10,11,11,12,12,17,17,18,18,19,19,21,21,22,22,23,23,24,24],"right_children":[2,4,6,8,10,12,14,16,18,20,22,24,26,-1,-1,-1,-1,28,30,32,-1,34,36,38,40,-1,-1,-1,-1,-1,-1,-1,-1,-1,-1,-1,-1,-1,-1,-1,-1],"split_conditions":[7.4666667E-1,5.35E-1,1E0,3.3166668E-1,4.9833333E-1,1E0,9.1833335E-1,7.9083335E-1,4.1E-1,4.6166667E-1,5.2369547E-1,1.6666667E-1,5.125E-1,-3.5990436E-2,-0E0,-4.7035616E-2,-2.86969E-2,4E-1,5.178362E-1,2.85E-1,4.955638E-2,4.7625E-1,3.7166667E-1,8.5083336E-1,1.5375E-1,-3.4906786E-2,-7.695818E-3,-2.0188415E-2,1.7107008E-2,-2.0842602E-2,-4.1023858E-2,2.1561705E-2,-1.3735612E-2,-2.0781538E-2,5.151113E-3,-1.6717102E-2,-3.9262556E-2,-3.6711175E-2,7.6515763E-3,-1.9581513E-2,3.2029733E-2],"split_indices":[5,5,1,5,32,10,5,21,12,32,16,32,6,0,0,0,0,3,25,15,0,31,12,12,6,0,0,0,0,0,0,0,0,0,0,0,0,0,0,0,0],"split_type":[0,0,0,0,0,0,0,0,0,0,0,0,0,0,0,0,0,0,0,0,0,0,0,0,0,0,0,0,0,0,0,0,0,0,0,0,0,0,0,0,0],"sum_hessian":[6.998982E2,3.483271E2,3.5157108E2,1.6481577E2,1.8351132E2,3.164987E2,3.5072376E1,6.168879E1,1.0312698E2,6.56893E1,1.1782203E2,2.9396753E2,2.253116E1,1.6421062E1,1.8651316E1,4.8494106E1,1.3194684E1,4.0139465E1,6.2987514E1,5.422605E1,1.1463251E1,7.567817E1,4.2143852E1,2.3704063E1,2.702635E2,1.1822202E1,1.0708959E1,2.414043E1,1.5999038E1,1.4485017E1,4.85025E1,1.422932E1,3.999673E1,3.453673E1,4.114144E1,1.5461087E1,2.6682766E1,1.3176736E1,1.05273285E1,1.8529902E1,2.5173358E2],"tree_param":{"num_deleted":"0","num_feature":"36","num_nodes":"41","size_leaf_vector":"1"}},{"base_weights":[-1.301674E-2,-5.919639E-1,2.3328869E-1,-3.323633E-1,-7.576783E-1,2.9972345E-1,-4.85192E-1,-2.8456284E-2,-6.5484065E-1,-7.8574044E-1,-2.1179426E-2,1.17940806E-1,5.463328E-1,2.237722E-3,-8.139966E-1,-3.0365635E-2,1.9928826E-1,-8.2567495E-1,-1.0924216E-2,-4.704778E-2,-6.556999E-1,1.9819076E-1,-4.6716294E-1,-1.6567755E-2,6.21356E-1,-2.7831977E-2,-4.6875935E-2,-1.5148411E-2,2.8779352E-2,-4.7261566E-2,-2.7097737E-2,-2.2660801E-2,-4.3549195E-2,3.2657783E-3,3.5725344E-2,-3.615732E-2,2.8375203E-3,4.9639612E-2,1.577329E-2],"categories":[],"categories_nodes":[],"categories_segments":[],"categories_sizes":[],"default_left":[0,0,0,0,0,0,0,0,0,0,0,0,0,0,0,0,0,0,0,0,0,0,0,0,0,0,0,0,0,0,0,0,0,0,0,0,0,0,0],"id":22,"left_children":[1,3,5,7,9,11,13,15,17,19,-1,21,23,-1,25,-1,27,29,-1,-1,31,33,35,-1,37,-1,-1,-1,-1,-1,-1,-1,-1,-1,-1,-1,-1,-1,-1],"loss_changes":[9.967779E1,8.615952E0,2.3521605E1,8.078581E0,7.307892E-1,2.0014847E1,7.38622E0,5.975567E0,2.7133331E0,1.546814E0,0E0,1.2283464E1,1.2757862E1,0E0,1.5288734E-1,0E0,6.3019714E0,3.0164528E-1,0E0,0E0,2.362299E0,1.5632192E1,4.336463E0,0E0,1.9514175E1,0E0,0E0,0E0,0E0,0E0,0E0,0E0,0E0,0E0,0E0,0E0,0E0,0E0,0E0],"parents":[2147483647,0,0,1,1,2,2,3,3,4,4,5,5,6,6,7,7,8,8,9,9,11,11,12,12,14,14,16,16,17,17,20,20,21,21,22,22,24,24],"right_children":[2,4,6,8,10,12,14,16,18,20,-1,22,24,-1,26,-1,28,30,-1,-1,32,34,36,-1,38,-1,-1,-1,-1,-1,-1,-1,-1,-1,-1,-1,-1,-1,-1],"split_conditions":[5.975E-1,6.124745E-1,1E0,5.0333333E-1,8.7333333E-1,8.591667E-1,3.1752953E-1,1E0,6.95E-1,3.3166668E-1,-2.1179426E-2,8.5375E-1,1.3166666E-1,2.237722E-3,3.5065812E-1,-3.0365635E-2,3.7916666E-1,5.3E-1,-1.0924216E-2,-4.704778E-2,5.425E-1,7.0125E-1,7.008333E-1,-1.6567755E-2,8.025E-1,-2.7831977E-2,-4.6875935E-2,-1.5148411E-2,2.8779352E-2,-4.7261566E-2,-2.7097737E-2,-2.2660801E-2,-4.3549195E-2,3.2657783E-3,3.5725344E-2,-3.615732E-2,2.8375203E-3,4.9639612E-2,1.577329E-2],"split_indices":[5,7,1,32,23,5,25,27,33,5,0,24,32,0,7,0,30,24,0,0,31,22,30,0,32,0,0,0,0,0,0,0,0,0,0,0,0,0,0],"split_type":[0,0,0,0,0,0,0,0,0,0,0,0,0,0,0,0,0,0,0,0,0,0,0,0,0,0,0,0,0,0,0,0,0,0,0,0,0,0,0],"sum_hessian":[6.967934E2,2.0766772E2,4.8912564E2,8.2319244E1,1.2534849E2,4.4838724E2,4.0738388E1,4.3099773E1,3.921947E1,1.1411233E2,1.1236157E1,2.5920425E2,1.89183E2,1.5812523E1,2.4925867E1,1.1822662E1,3.1277111E1,2.7379122E1,1.1840348E1,4.8827454E1,6.5284874E1,2.286728E2,3.0531458E1,1.452359E1,1.7465941E2,1.013197E1,1.4793897E1,1.3366114E1,1.7910997E1,1.737393E1,1.0005192E1,3.5482113E1,2.980276E1,1.8291847E2,4.5754326E1,2.0382957E1,1.0148499E1,7.771687E1,9.694253E1],"tree_param":{"num_deleted":"0","num_feature":"36","num_nodes":"39","size_leaf_vector":"1"}},{"base_weights":[-7.464359E-3,-5.761131E-1,2.2591782E-1,-3.831399E-1,-7.7185184E-1,2.897486E-1,-4.942321E-1,6.7795336E-2,-5.4835176E-1,-2.1107867E-2,-8.102772E-1,-1.9967575E-1,3.8913977E-1,-1.4909695E-1,-4.4683713E-2,-1.9235846E-2,2.5426542E-2,-3.552712E-1,-8.113409E-1,-6.6292465E-1,-4.5910217E-2,2.5346419E-2,-3.3843327E-1,5.670721E-1,4.4037852E-2,-1.9348713E-2,6.291491E-3,1.888015E-2,-3.0165378E-2,-2.2934042E-2,-4.7668334E-2,-4.1638136E-2,-9.739487E-3,-2.564216E-3,-3.3817664E-2,5.3366154E-2,2.0166742E-2,1.0155154E-2,-2.0892514E-2],"categories":[],"categories_nodes":[],"categories_segments":[],"categories_sizes":[],"default_left":[0,0,0,0,0,0,0,0,0,0,0,0,0,0,0,0,0,0,0,0,0,0,0,0,0,0,0,0,0,0,0,0,0,0,0,0,0,0,0],"id":23,"left_children":[1,3,5,7,9,11,13,15,17,-1,19,21,23,25,-1,-1,-1,27,29,31,-1,-1,33,35,37,-1,-1,-1,-1,-1,-1,-1,-1,-1,-1,-1,-1,-1,-1],"loss_changes":[9.271091E1,7.2688217E0,2.2877493E1,7.88004E0,8.74321E-1,2.2252735E1,5.3521595E0,5.948343E0,3.4971924E0,0E0,6.403198E-1,7.7409406E0,2.3192234E1,1.5846041E0,0E0,0E0,0E0,8.668765E0,1.0009995E0,3.0263348E0,0E0,0E0,6.2377095E0,1.9888016E1,9.632248E0,0E0,0E0,0E0,0E0,0E0,0E0,0E0,0E0,0E0,0E0,0E0,0E0,0E0,0E0],"parents":[2147483647,0,0,1,1,2,2,3,3,4,4,5,5,6,6,7,7,8,8,10,10,11,11,12,12,13,13,17,17,18,18,19,19,22,22,23,23,24,24],"right_children":[2,4,6,8,10,12,14,16,18,-1,20,22,24,26,-1,-1,-1,28,30,32,-1,-1,34,36,38,-1,-1,-1,-1,-1,-1,-1,-1,-1,-1,-1,-1,-1,-1],"split_conditions":[5.975E-1,6.552528E-1,1E0,4.075E-1,1.4E-1,2.6125E-1,3.2158488E-1,3.3916667E-1,5.798707E-1,-2.1107867E-2,3.5916665E-1,3.457894E-1,6.6375E-1,5.05E-1,-4.4683713E-2,-1.9235846E-2,2.5426542E-2,5.0333333E-1,3.275E-1,3.225E-1,-4.5910217E-2,2.5346419E-2,2.4E-1,1E0,8.4375E-1,-1.9348713E-2,6.291491E-3,1.888015E-2,-3.0165378E-2,-2.2934042E-2,-4.7668334E-2,-4.1638136E-2,-9.739487E-3,-2.564216E-3,-3.3817664E-2,5.3366154E-2,2.0166742E-2,1.0155154E-2,-2.0892514E-2],"split_indices":[5,7,1,32,32,6,7,32,34,0,12,34,6,6,0,0,0,32,15,3,0,0,13,0,31,0,0,0,0,0,0,0,0,0,0,0,0,0,0],"split_type":[0,0,0,0,0,0,0,0,0,0,0,0,0,0,0,0,0,0,0,0,0,0,0,0,0,0,0,0,0,0,0,0,0,0,0,0,0,0,0],"sum_hessian":[6.9634015E2,2.0232468E2,4.9401544E2,1.03628555E2,9.869611E1,4.5446985E2,3.9545616E1,2.7782455E1,7.58461E1,1.1215655E1,8.748046E1,7.637367E1,3.7809616E2,2.2085989E1,1.745963E1,1.3658846E1,1.412361E1,4.5310974E1,3.0535122E1,4.0396336E1,4.7084126E1,1.1982151E1,6.439152E1,2.488551E2,1.2924106E2,1.1817344E1,1.0268645E1,1.12234535E1,3.408752E1,1.0183191E1,2.035193E1,2.891393E1,1.1482404E1,3.559349E1,2.8798027E1,5.9855392E1,1.8899971E2,9.671209E1,3.2528973E1],"tree_param":{"num_deleted":"0","num_feature":"36","num_nodes":"39","size_leaf_vector":"1"}},{"base_weights":[-2.9192874E-2,-5.8084923E-1,1.8955842E-1,-3.6014542E-1,-7.736703E-1,-5.1245475E-1,2.477286E-1,-6.374048E-1,-1.43187E-1,-1.9094614E-2,-8.192634E-1,-2.425191E-4,-6.886794E-1,3.8756707E-1,-7.5140975E-2,-4.327823E-2,-4.8202917E-1,1.1342907E-1,-3.346313E-2,-4.6807274E-2,-6.8573225E-1,-4.2673822E-2,-2.4833215E-2,4.60312E-1,-3.2360047E-1,-3.094227E-2,1.5326254E-2,-3.7456106E-2,-1.20164445E-2,3.320756E-2,-2.331561E-2,-2.0085998E-2,-4.1692253E-2,4.4359203E-2,1.5831849E-2,1.1081188E-2,-3.631086E-2,4.6259522E-2,-3.8206202E-3],"categories":[],"categories_nodes":[],"categories_segments":[],"categories_sizes":[],"default_left":[0,0,0,0,0,0,0,0,0,0,0,0,0,0,0,0,0,0,0,0,0,0,0,0,0,0,0,0,0,0,0,0,0,0,0,0,0,0,0],"id":24,"left_children":[1,3,5,7,9,11,13,15,17,-1,19,-1,21,23,25,-1,27,29,-1,-1,31,-1,-1,33,35,-1,37,-1,-1,-1,-1,-1,-1,-1,-1,-1,-1,-1,-1],"loss_changes":[8.437718E1,8.057938E0,2.0535385E1,5.5271225E0,1.4400826E0,3.3700094E0,2.0961224E1,9.0431213E-1,7.504944E0,0E0,6.446724E-1,0E0,3.402462E-1,1.6893322E1,6.981923E0,0E0,1.4611611E0,1.2282649E1,0E0,0E0,1.5381622E0,0E0,0E0,1.7625633E1,6.900115E0,0E0,1.0280207E1,0E0,0E0,0E0,0E0,0E0,0E0,0E0,0E0,0E0,0E0,0E0,0E0],"parents":[2147483647,0,0,1,1,2,2,3,3,4,4,5,5,6,6,7,7,8,8,10,10,12,12,13,13,14,14,16,16,17,17,20,20,23,23,24,24,26,26],"right_children":[2,4,6,8,10,12,14,16,18,-1,20,-1,22,24,26,-1,28,30,-1,-1,32,-1,-1,34,36,-1,38,-1,-1,-1,-1,-1,-1,-1,-1,-1,-1,-1,-1],"split_conditions":[5.975E-1,6.381697E-1,1.5E-1,4.6875E-1,1.2916666E-1,4.6583334E-1,6.6125E-1,3.0875E-1,7.425E-1,-1.9094614E-2,3.3166668E-1,-2.425191E-4,7.5E-2,1E0,3.0083334E-1,-4.327823E-2,4.7833332E-1,4.7583333E-1,-3.346313E-2,-4.6807274E-2,3.5916665E-1,-4.2673822E-2,-2.4833215E-2,1E0,2.9805386E-1,-3.094227E-2,2.75E-1,-3.7456106E-2,-1.20164445E-2,3.320756E-2,-2.331561E-2,-2.0085998E-2,-4.1692253E-2,4.4359203E-2,1.5831849E-2,1.1081188E-2,-3.631086E-2,4.6259522E-2,-3.8206202E-3],"split_indices":[5,7,6,6,30,32,6,33,6,0,5,0,6,1,32,0,14,30,0,0,12,0,0,0,25,0,33,0,0,0,0,0,0,0,0,0,0,0,0],"split_type":[0,0,0,0,0,0,0,0,0,0,0,0,0,0,0,0,0,0,0,0,0,0,0,0,0,0,0,0,0,0,0,0,0,0,0,0,0,0,0],"sum_hessian":[6.9697034E2,1.9755911E2,4.994112E2,9.369817E1,1.0386094E2,3.7486423E1,4.6192477E2,4.0079826E1,5.3618347E1,1.2032854E1,9.182809E1,1.0071388E1,2.7415037E1,3.2239932E2,1.3952547E2,1.412448E1,2.5955347E1,3.6438297E1,1.7180052E1,4.5362198E1,4.646589E1,1.2619075E1,1.4795962E1,2.929291E2,2.947021E1,1.9228397E1,1.20297066E2,1.1136139E1,1.4819208E1,1.8700626E1,1.773767E1,1.7430199E1,2.9035688E1,7.228692E1,2.2064218E2,1.2603581E1,1.6866629E1,1.0285952E1,1.10011116E2],"tree_param":{"num_deleted":"0","num_feature":"36","num_nodes":"39","size_leaf_vector":"1"}},{"base_weights":[-1.6166009E-2,-4.3133214E-1,2.4884176E-1,-6.501536E-1,-1.702796E-1,5.6360126E-2,2.0731151E-1,-8.0401313E-1,-5.183881E-1,-5.547828E-1,5.5612605E-2,2.5143757E-1,-5.613754E-1,-1.8452896E-2,-4.3768164E-2,-1.5138379E-1,-7.1880186E-1,-4.2466474E-1,-4.5555707E-2,4.0170088E-1,-5.3352493E-1,3.084007E-1,-3.4024924E-1,-1.4211595E-2,-3.7842393E-2,-2.2273881E-2,1.2277658E-2,-1.7063063E-2,-4.3335676E-2,-3.828214E-2,-1.1083722E-2,4.158551E-2,-1.084344E-2,-1.376306E-2,-4.2116757E-2,-1.4175137E-2,1.8367006E-2,3.369759E-3,-3.247861E-2],"categories":[],"categories_nodes":[],"categories_segments":[],"categories_sizes":[],"default_left":[0,0,0,0,0,0,0,0,0,0,0,0,0,0,0,0,0,0,0,0,0,0,0,0,0,0,0,0,0,0,0,0,0,0,0,0,0,0,0],"id":25,"left_children":[1,3,5,7,9,-1,11,13,15,17,19,21,23,-1,-1,25,27,29,-1,31,33,35,37,-1,-1,-1,-1,-1,-1,-1,-1,-1,-1,-1,-1,-1,-1,-1,-1],"loss_changes":[7.6746956E1,1.5336342E1,1.5156958E1,2.4377098E0,1.098348E1,0E0,1.3938608E1,1.5945015E0,5.8740826E0,1.6451721E0,1.6475294E1,1.3124077E1,8.898773E-1,0E0,0E0,3.7004728E0,2.5393887E0,2.2436118E0,0E0,1.379605E1,2.0378094E0,1.2431564E1,4.420894E0,0E0,0E0,0E0,0E0,0E0,0E0,0E0,0E0,0E0,0E0,0E0,0E0,0E0,0E0,0E0,0E0],"parents":[2147483647,0,0,1,1,2,2,3,3,4,4,6,6,7,7,8,8,9,9,10,10,11,11,12,12,15,15,16,16,17,17,19,19,20,20,21,21,22,22],"right_children":[2,4,6,8,10,-1,12,14,16,18,20,22,24,-1,-1,26,28,30,-1,32,34,36,38,-1,-1,-1,-1,-1,-1,-1,-1,-1,-1,-1,-1,-1,-1,-1,-1],"split_conditions":[6.9166666E-1,5.35E-1,8.653937E-2,3.6583334E-1,3.975E-1,5.6360126E-2,1E0,1.525E-1,4.1E-1,3.425E-1,7.4875E-1,1E0,3.579465E-1,-1.8452896E-2,-4.3768164E-2,3.8416666E-1,5.191535E-1,1.625E-1,-4.5555707E-2,6.05E-1,8.2E-1,1.225E-1,3.1752953E-1,-1.4211595E-2,-3.7842393E-2,-2.2273881E-2,1.2277658E-2,-1.7063063E-2,-4.3335676E-2,-3.828214E-2,-1.1083722E-2,4.158551E-2,-1.084344E-2,-1.376306E-2,-4.2116757E-2,-1.4175137E-2,1.8367006E-2,3.369759E-3,-3.247861E-2],"split_indices":[5,5,7,5,6,0,10,30,12,4,6,1,16,0,0,23,16,13,0,31,13,31,25,0,0,0,0,0,0,0,0,0,0,0,0,0,0,0,0],"split_type":[0,0,0,0,0,0,0,0,0,0,0,0,0,0,0,0,0,0,0,0,0,0,0,0,0,0,0,0,0,0,0,0,0,0,0,0,0,0,0],"sum_hessian":[6.95417E2,2.7084924E2,4.2456778E2,1.4632336E2,1.2452587E2,1.7879004E1,4.0668875E2,6.479867E1,8.1524704E1,4.570895E1,7.8816925E1,3.853698E2,2.1318962E1,1.0198983E1,5.4599686E1,2.9590998E1,5.1933704E1,3.529355E1,1.04154005E1,4.9957394E1,2.885953E1,3.5211832E2,3.3251488E1,1.0044042E1,1.127492E1,1.7071917E1,1.251908E1,1.5740297E1,3.6193405E1,1.1952157E1,2.334139E1,2.9362583E1,2.0594809E1,1.6922289E1,1.1937241E1,3.1388645E1,3.2072968E2,1.4543723E1,1.8707764E1],"tree_param":{"num_deleted":"0","num_feature":"36","num_nodes":"39","size_leaf_vector":"1"}},{"base_weights":[-1.5847377E-2,1.5434475E-1,-2.7531165E-1,-2.1472035E-1,2.2173412E-1,-4.4645575E-1,6.6535786E-2,1.9634439E-2,-3.987987E-2,6.1136108E-2,1.8609829E-1,-3.4751812E-1,-7.664673E-1,3.655996E-1,-5.121842E-1,-2.3113968E-2,2.7325004E-1,2.5517914E-1,-3.1421724E-1,-5.692902E-1,-1.12711154E-1,-2.0639645E-2,-4.814953E-2,-2.0164412E-2,5.993056E-1,-6.967203E-1,-4.695498E-3,-3.8469832E-3,3.857782E-2,-1.6883684E-2,1.635608E-2,-2.8451083E-2,4.40105E-3,-1.8424347E-2,-3.8864087E-2,-2.117477E-2,1.3678873E-2,4.486428E-2,-1.4648504E-2,-4.6024483E-2,-1.9344768E-2],"categories":[],"categories_nodes":[],"categories_segments":[],"categories_sizes":[],"default_left":[0,0,0,0,0,0,0,0,0,0,0,0,0,0,0,0,0,0,0,0,0,0,0,0,0,0,0,0,0,0,0,0,0,0,0,0,0,0,0,0,0],"id":26,"left_children":[1,3,5,7,9,11,13,15,-1,-1,17,19,21,23,25,-1,27,29,31,33,35,-1,-1,-1,37,39,-1,-1,-1,-1,-1,-1,-1,-1,-1,-1,-1,-1,-1,-1,-1],"loss_changes":[3.0642645E1,1.0462106E1,1.6154999E1,8.962716E0,1.2287035E1,5.4339943E0,1.6166653E1,5.871707E0,0E0,0E0,1.1958917E1,7.2766647E0,2.4036503E0,1.133475E1,2.3090782E0,0E0,5.6544714E0,1.3027258E1,4.4019213E0,2.635559E0,8.603531E0,0E0,0E0,0E0,1.3022121E1,1.0199909E0,0E0,0E0,0E0,0E0,0E0,0E0,0E0,0E0,0E0,0E0,0E0,0E0,0E0,0E0,0E0],"parents":[2147483647,0,0,1,1,2,2,3,3,4,4,5,5,6,6,7,7,10,10,11,11,12,12,13,13,14,14,16,16,17,17,18,18,19,19,20,20,24,24,25,25],"right_children":[2,4,6,8,10,12,14,16,-1,-1,18,20,22,24,26,-1,28,30,32,34,36,-1,-1,-1,38,40,-1,-1,-1,-1,-1,-1,-1,-1,-1,-1,-1,-1,-1,-1,-1],"split_conditions":[5.281322E-1,2.725E-1,6.45E-1,3.35E-1,2.9E-1,7.775E-1,4E0,1.5375E-1,-3.987987E-2,6.1136108E-2,8.5375E-1,3.9833334E-1,3.6416668E-1,3.1E-1,3.1166667E-1,-2.3113968E-2,8.2416666E-1,3.0875E-1,5.1695776E-1,4E0,4.925E-1,-2.0639645E-2,-4.814953E-2,-2.0164412E-2,7.3875E-1,7.5333333E-1,-4.695498E-3,-3.8469832E-3,3.857782E-2,-1.6883684E-2,1.635608E-2,-2.8451083E-2,4.40105E-3,-1.8424347E-2,-3.8864087E-2,-2.117477E-2,1.3678873E-2,4.486428E-2,-1.4648504E-2,-4.6024483E-2,-1.9344768E-2],"split_indices":[16,6,23,13,6,15,18,31,0,0,31,23,21,6,14,0,14,15,34,0,6,0,0,0,6,30,0,0,0,0,0,0,0,0,0,0,0,0,0,0,0],"split_type":[0,0,0,0,0,0,0,0,0,0,0,0,0,0,0,0,0,0,0,0,0,0,0,0,0,0,0,0,0,0,0,0,0,0,0,0,0,0,0,0,0],"sum_hessian":[6.916835E2,4.1771115E2,2.7397232E2,6.3928684E1,3.5378247E2,1.8256078E2,9.141155E1,4.6162918E1,1.776577E1,1.0920305E1,3.4286215E2,1.4127986E2,4.1280903E1,6.0624058E1,3.0787497E1,1.5497643E1,3.0665274E1,3.0187125E2,4.0990906E1,7.1705025E1,6.9574844E1,1.6034191E1,2.5246712E1,1.3862667E1,4.6761387E1,2.0734835E1,1.0052663E1,1.8387909E1,1.2277365E1,3.2117607E1,2.6975363E2,2.4992786E1,1.5998118E1,3.813776E1,3.3567265E1,3.8645546E1,3.0929295E1,3.5134502E1,1.1626885E1,1.0707581E1,1.0027253E1],"tree_param":{"num_deleted":"0","num_feature":"36","num_nodes":"41","size_leaf_vector":"1"}},{"base_weights":[1.5999863E-2,-5.858753E-1,1.6897346E-1,-8.018154E-1,-4.60746E-1,-4.4650668E-1,2.2010382E-1,-4.6195026E-2,-1.6072864E-2,-7.405286E-2,-7.136523E-1,-6.331175E-1,5.013038E-3,3.0975863E-1,-2.4082027E-1,-3.271836E-1,1.6363038E-2,-2.3512797E-2,-8.1456834E-1,-1.8968506E-2,-4.36944E-2,3.4083393E-1,-4.3698963E-2,-3.5374068E-2,-6.069296E-1,-0E0,-3.0382244E-2,-4.4522453E-2,-2.7344093E-2,1.1197922E-2,3.5707623E-2,-1.13375345E-2,3.399651E-2,-1.2393332E-2,-3.9747532E-2],"categories":[],"categories_nodes":[],"categories_segments":[],"categories_sizes":[],"default_left":[0,0,0,0,0,0,0,0,0,0,0,0,0,0,0,0,0,0,0,0,0,0,0,0,0,0,0,0,0,0,0,0,0,0,0],"id":27,"left_children":[1,3,5,7,9,11,13,-1,-1,15,17,19,-1,21,23,25,-1,-1,27,-1,-1,29,-1,31,33,-1,-1,-1,-1,-1,-1,-1,-1,-1,-1],"loss_changes":[6.428379E1,3.3265648E0,1.760796E1,2.5255508E0,8.8857765E0,4.4952097E0,2.1371866E1,0E0,0E0,3.9399908E0,8.510437E-1,1.5144396E0,0E0,1.6133087E1,6.253156E0,2.206624E0,0E0,0E0,1.3219452E-1,0E0,0E0,1.8145004E1,0E0,7.6679955E0,1.7278042E0,0E0,0E0,0E0,0E0,0E0,0E0,0E0,0E0,0E0,0E0],"parents":[2147483647,0,0,1,1,2,2,3,3,4,4,5,5,6,6,9,9,10,10,11,11,13,13,14,14,15,15,18,18,21,21,23,23,24,24],"right_children":[2,4,6,8,10,12,14,-1,-1,16,18,20,-1,22,24,26,-1,-1,28,-1,-1,30,-1,32,34,-1,-1,-1,-1,-1,-1,-1,-1,-1,-1],"split_conditions":[5.35E-1,3.3166668E-1,1.5E-1,8.2416666E-1,4.1E-1,6.8666667E-1,7.7E-1,-4.6195026E-2,-1.6072864E-2,3.9916667E-1,5.191535E-1,2.775E-1,5.013038E-3,1E0,5.5753505E-1,4.8E-1,1.6363038E-2,-2.3512797E-2,7.3875E-1,-1.8968506E-2,-4.36944E-2,9.1333336E-1,-4.3698963E-2,5.0437E-1,2.35E-1,-0E0,-3.0382244E-2,-4.4522453E-2,-2.7344093E-2,1.1197922E-2,3.5707623E-2,-1.13375345E-2,3.399651E-2,-1.2393332E-2,-3.9747532E-2],"split_indices":[5,5,6,23,12,34,6,0,0,14,16,31,0,5,16,33,0,0,6,0,0,5,0,16,13,0,0,0,0,0,0,0,0,0,0],"split_type":[0,0,0,0,0,0,0,0,0,0,0,0,0,0,0,0,0,0,0,0,0,0,0,0,0,0,0,0,0,0,0,0,0,0,0],"sum_hessian":[6.965755E2,1.4045828E2,5.5611725E2,4.9253197E1,9.120509E1,4.1912178E1,5.142051E2,3.8369804E1,1.0883391E1,3.6731274E1,5.4473816E1,3.126608E1,1.0646097E1,4.3092944E2,8.327563E1,2.2790157E1,1.3941117E1,1.7915276E1,3.655854E1,1.667905E1,1.4587029E1,4.206823E2,1.0247132E1,5.4219517E1,2.9056107E1,1.0916584E1,1.1873574E1,2.638047E1,1.0178071E1,3.2180273E2,9.887958E1,4.3424324E1,1.0795193E1,1.0965494E1,1.8090612E1],"tree_param":{"num_deleted":"0","num_feature":"36","num_nodes":"35","size_leaf_vector":"1"}},{"base_weights":[-1.7396633E-2,1.8255676E-1,-4.2967537E-1,3.4898216E-1,1.1348681E-2,-2.37735E-1,-7.372042E-1,4.1253844E-1,-1.9568475E-2,-4.3953545E-2,4.645788E-1,2.505046E-2,-3.1199196E-1,-7.861378E-1,-2.051296E-2,-3.4212407E-2,5.2006954E-1,1.4264853E-1,-2.6516956E-1,4.3955974E-2,4.022687E-3,-2.2222978E-1,-6.5693617E-1,-2.3398502E-2,-8.5152346E-1,3.7737127E-2,-1.5680194E-2,1.799727E-2,5.0331045E-2,1.5379791E-2,-2.6235541E-2,-1.7487485E-2,1.1910995E-2,-1.727883E-2,8.677545E-3,-4.122249E-2,-2.4132432E-2,-4.6906758E-2,-2.3295162E-2],"categories":[],"categories_nodes":[],"categories_segments":[],"categories_sizes":[],"default_left":[0,0,0,0,0,0,0,0,0,0,0,0,0,0,0,0,0,0,0,0,0,0,0,0,0,0,0,0,0,0,0,0,0,0,0,0,0,0,0],"id":28,"left_children":[1,3,5,7,9,11,13,15,-1,17,19,-1,21,23,-1,25,27,29,31,-1,-1,33,35,-1,37,-1,-1,-1,-1,-1,-1,-1,-1,-1,-1,-1,-1,-1,-1],"loss_changes":[5.746057E1,1.3325575E1,1.3167759E1,1.1340334E1,5.891154E0,7.920169E0,9.469414E-1,1.0604496E1,0E0,8.635096E0,3.9053016E0,0E0,3.7805882E0,1.0124741E0,0E0,9.740261E0,1.3294609E1,1.2602598E1,4.171438E0,0E0,0E0,5.184729E0,2.3136044E-1,0E0,1.4278564E0,0E0,0E0,0E0,0E0,0E0,0E0,0E0,0E0,0E0,0E0,0E0,0E0,0E0,0E0],"parents":[2147483647,0,0,1,1,2,2,3,3,4,4,5,5,6,6,7,7,9,9,10,10,12,12,13,13,15,15,16,16,17,17,18,18,21,21,22,22,24,24],"right_children":[2,4,6,8,10,12,14,16,-1,18,20,-1,22,24,-1,26,28,30,32,-1,-1,34,36,-1,38,-1,-1,-1,-1,-1,-1,-1,-1,-1,-1,-1,-1,-1,-1],"split_conditions":[4.8068962E-1,2.861866E-1,6.6249645E-1,1E0,8.258333E-1,4.075E-1,8.8375E-1,3.55E-1,-1.9568475E-2,6.566667E-1,3.5370362E-1,2.505046E-2,8.4375E-1,7.031897E-1,-2.051296E-2,2.825E-1,9.241667E-1,7.52637E-1,8.8E-1,4.3955974E-2,4.022687E-3,7.1E-1,9.075E-1,-2.3398502E-2,8.2416666E-1,3.7737127E-2,-1.5680194E-2,1.799727E-2,5.0331045E-2,1.5379791E-2,-2.6235541E-2,-1.7487485E-2,1.1910995E-2,-1.727883E-2,8.677545E-3,-4.122249E-2,-2.4132432E-2,-4.6906758E-2,-2.3295162E-2],"split_indices":[7,7,7,10,30,3,6,6,0,21,34,0,22,7,0,15,3,25,3,0,0,33,24,0,23,0,0,0,0,0,0,0,0,0,0,0,0,0,0],"split_type":[0,0,0,0,0,0,0,0,0,0,0,0,0,0,0,0,0,0,0,0,0,0,0,0,0,0,0,0,0,0,0,0,0,0,0,0,0,0,0],"sum_hessian":[6.947767E2,4.6807632E2,2.2670035E2,2.3653069E2,2.3154565E2,1.4087387E2,8.5826485E1,2.1836295E2,1.8167742E1,2.0697354E2,2.4572111E1,1.2219065E1,1.286548E2,7.31655E1,1.2660988E1,4.231444E1,1.760485E2,1.1221776E2,9.475578E1,1.1073179E1,1.3498932E1,1.0362373E2,2.5031061E1,1.412405E1,5.9041447E1,1.05274315E1,3.178701E1,1.3392053E2,4.2127964E1,9.053074E1,2.168702E1,8.155644E1,1.31993475E1,7.929166E1,2.4332083E1,1.0568836E1,1.4462226E1,4.683093E1,1.2210515E1],"tree_param":{"num_deleted":"0","num_feature":"36","num_nodes":"39","size_leaf_vector":"1"}},{"base_weights":[-4.07571E-3,-5.0891E-1,1.6820261E-1,-7.855556E-1,-4.0704614E-1,-4.2871302E-1,2.2195469E-1,-4.582108E-2,-1.4885157E-2,-6.266628E-1,-2.1391214E-1,-8.871258E-2,-3.6885213E-2,2.7329823E-1,-3.667478E-1,-4.7950754E-1,-8.0617595E-1,2.5384137E-1,-4.364359E-1,-3.282175E-2,2.5230069E-2,4.464771E-1,3.4297787E-2,-3.802706E-2,-6.681548E-2,-1.410794E-2,-4.1699264E-2,-4.657528E-2,-2.8073514E-2,3.9760076E-2,-9.706656E-3,-6.478613E-3,-3.256709E-2,2.691488E-2,-7.4362718E-3,-4.6577066E-2,1.1811396E-2,2.14065E-2,-2.4118137E-2],"categories":[],"categories_nodes":[],"categories_segments":[],"categories_sizes":[],"default_left":[0,0,0,0,0,0,0,0,0,0,0,0,0,0,0,0,0,0,0,0,0,0,0,0,0,0,0,0,0,0,0,0,0,0,0,0,0,0,0],"id":29,"left_children":[1,3,5,7,9,11,13,-1,-1,15,17,19,-1,21,23,25,27,29,31,-1,-1,33,35,-1,37,-1,-1,-1,-1,-1,-1,-1,-1,-1,-1,-1,-1,-1,-1],"loss_changes":[6.0793556E1,4.5740585E0,1.67824E1,2.576704E0,5.3959427E0,4.390954E0,1.4554865E1,0E0,0E0,1.1008186E0,7.64262E0,7.7101297E0,0E0,1.8184101E1,4.4323335E0,2.19876E0,1.18413925E-1,5.976143E0,3.0971403E0,0E0,0E0,1.4072189E1,3.6535465E1,0E0,4.9803405E0,0E0,0E0,0E0,0E0,0E0,0E0,0E0,0E0,0E0,0E0,0E0,0E0,0E0,0E0],"parents":[2147483647,0,0,1,1,2,2,3,3,4,4,5,5,6,6,9,9,10,10,11,11,13,13,14,14,15,15,16,16,17,17,18,18,21,21,22,22,24,24],"right_children":[2,4,6,8,10,12,14,-1,-1,16,18,20,-1,22,24,26,28,30,32,-1,-1,34,36,-1,38,-1,-1,-1,-1,-1,-1,-1,-1,-1,-1,-1,-1,-1,-1],"split_conditions":[5.975E-1,3.3166668E-1,1.7125E-1,8.2416666E-1,4.925E-1,1.825E-1,1E0,-4.582108E-2,-1.4885157E-2,4.9333334E-1,4.0583333E-1,8.25E-2,-3.6885213E-2,4E0,7.4916667E-1,5.575E-1,5.4E-1,7.112959E-1,5.281322E-1,-3.282175E-2,2.5230069E-2,8.175E-1,9E0,-3.802706E-2,8.183333E-1,-1.410794E-2,-4.1699264E-2,-4.657528E-2,-2.8073514E-2,3.9760076E-2,-9.706656E-3,-6.478613E-3,-3.256709E-2,2.691488E-2,-7.4362718E-3,-4.6577066E-2,1.1811396E-2,2.14065E-2,-2.4118137E-2],"split_indices":[5,5,6,23,6,13,1,0,0,32,12,13,0,0,21,33,14,16,16,0,0,6,0,0,32,0,0,0,0,0,0,0,0,0,0,0,0,0,0],"split_type":[0,0,0,0,0,0,0,0,0,0,0,0,0,0,0,0,0,0,0,0,0,0,0,0,0,0,0,0,0,0,0,0,0,0,0,0,0,0,0],"sum_hessian":[6.966255E2,1.7689352E2,5.1973193E2,4.5534847E1,1.3135867E2,4.2205425E1,4.7752652E2,3.5049408E1,1.0485439E1,6.0172634E1,7.1186035E1,2.0861301E1,2.1344126E1,4.3986908E2,3.765745E1,3.539002E1,2.4782618E1,2.2757908E1,4.8428127E1,1.0692327E1,1.0168975E1,2.5431029E2,1.8555879E2,1.5473087E1,2.2184366E1,2.4068453E1,1.1321564E1,1.4262549E1,1.0520069E1,1.00549755E1,1.2702932E1,2.0798393E1,2.7629734E1,2.2055013E2,3.3760155E1,3.137632E1,1.5418246E2,1.0001254E1,1.2183111E1],"tree_param":{"num_deleted":"0","num_feature":"36","num_nodes":"39","size_leaf_vector":"1"}},{"base_weights":[1.50269605E-2,1.24569856E-1,-5.833824E-1,-3.5327134E-1,1.698132E-1,-7.6987785E-1,-3.9957735E-1,-6.382398E-2,-3.8108617E-2,2.3686463E-1,-2.5896367E-1,-2.2202933E-2,-8.7003016E-1,-4.217031E-2,-6.81253E-1,-1.991588E-2,2.0040521E-2,1.6842857E-1,6.0207707E-1,1.3282795E-1,-4.4342297E-1,-3.0283406E-2,-4.8054744E-2,2.051843E-2,-2.0151947E-2,-2.4562424E-2,-4.296013E-2,-8.656312E-3,1.2487627E-2,8.743849E-3,4.7488492E-2,-2.1316223E-2,3.1356726E-2,-4.615487E-2,-1.3717905E-2],"categories":[],"categories_nodes":[],"categories_segments":[],"categories_sizes":[],"default_left":[0,0,0,0,0,0,0,0,0,0,0,0,0,0,0,0,0,0,0,0,0,0,0,0,0,0,0,0,0,0,0,0,0,0,0],"id":30,"left_children":[1,3,5,7,9,11,13,15,-1,17,19,-1,21,23,25,-1,-1,27,29,31,33,-1,-1,-1,-1,-1,-1,-1,-1,-1,-1,-1,-1,-1,-1],"loss_changes":[4.550241E1,1.2739867E1,3.2562332E0,5.897331E0,1.5510134E1,1.177454E0,5.579734E0,4.986517E0,0E0,1.1455402E1,5.36221E0,0E0,1.8707275E-1,4.4258747E0,5.0235176E-1,0E0,0E0,1.0984671E1,1.0540573E1,6.9065614E0,3.682148E0,0E0,0E0,0E0,0E0,0E0,0E0,0E0,0E0,0E0,0E0,0E0,0E0,0E0,0E0],"parents":[2147483647,0,0,1,1,2,2,3,3,4,4,5,5,6,6,7,7,9,9,10,10,12,12,13,13,14,14,17,17,18,18,19,19,20,20],"right_children":[2,4,6,8,10,12,14,16,-1,18,20,-1,22,24,26,-1,-1,28,30,32,34,-1,-1,-1,-1,-1,-1,-1,-1,-1,-1,-1,-1,-1,-1],"split_conditions":[6.124745E-1,1.225E-1,3.225E-1,4.4003728E-1,8.4375E-1,1.0166667E-1,4.0583333E-1,3.3433107E-1,-3.8108617E-2,7.3375E-1,5.0875E-1,-2.2202933E-2,0E0,3.475E-1,5.6875E-1,-1.991588E-2,2.0040521E-2,3.7583333E-1,7.05E-1,9.1375E-1,5.991667E-1,-3.0283406E-2,-4.8054744E-2,2.051843E-2,-2.0151947E-2,-2.4562424E-2,-4.296013E-2,-8.656312E-3,1.2487627E-2,8.743849E-3,4.7488492E-2,-2.1316223E-2,3.1356726E-2,-4.615487E-2,-1.3717905E-2],"split_indices":[7,31,3,7,31,3,12,7,0,22,15,0,2,21,31,0,0,30,31,31,12,0,0,0,0,0,0,0,0,0,0,0,0,0,0],"split_type":[0,0,0,0,0,0,0,0,0,0,0,0,0,0,0,0,0,0,0,0,0,0,0,0,0,0,0,0,0,0,0,0,0,0,0],"sum_hessian":[6.927389E2,5.8636053E2,1.06378334E2,4.9936253E1,5.364243E2,5.0949978E1,5.5428356E1,3.0059078E1,1.9877172E1,4.6447174E2,7.195253E1,1.3491441E1,3.7458538E1,2.5093254E1,3.0335102E1,1.7685274E1,1.2373803E1,3.9263254E2,7.1839226E1,2.294824E1,4.900429E1,1.1838964E1,2.5619574E1,1.0948839E1,1.4144416E1,1.6761099E1,1.3574002E1,7.5053734E1,3.175788E2,3.3037533E1,3.8801693E1,1.0737435E1,1.2210805E1,1.1454327E1,3.7549965E1],"tree_param":{"num_deleted":"0","num_feature":"36","num_nodes":"35","size_leaf_vector":"1"}},{"base_weights":[-2.1597943E-3,1.0495774E-1,-6.038583E-1,-4.2388788E-1,1.4982332E-1,-8.2981193E-1,-3.696199E-1,-2.942926E-3,-6.519918E-1,1.9878095E-1,-3.3397114E-1,-4.626773E-2,-2.3780446E-2,1.1019142E-2,-6.484215E-1,-4.446075E-2,-1.2280659E-2,2.4389017E-1,-4.0719604E-1,-0E0,-7.734934E-1,-4.0628422E-2,-9.473243E-3,2.5232399E-2,7.768205E-3,5.479634E-3,-3.4798417E-2,-2.357366E-2,2.2478621E-2,-2.7253447E-2,-4.563439E-2],"categories":[],"categories_nodes":[],"categories_segments":[],"categories_sizes":[],"default_left":[0,0,0,0,0,0,0,0,0,0,0,0,0,0,0,0,0,0,0,0,0,0,0,0,0,0,0,0,0,0,0],"id":31,"left_children":[1,3,5,7,9,11,13,-1,15,17,19,-1,-1,-1,21,-1,-1,23,25,27,29,-1,-1,-1,-1,-1,-1,-1,-1,-1,-1],"loss_changes":[4.4937344E1,1.4060432E1,5.151226E0,3.7465277E0,1.297946E1,1.2006111E0,9.029867E0,0E0,2.389801E0,1.3652765E1,7.419868E0,0E0,0E0,0E0,2.5243273E0,0E0,0E0,1.0538992E1,5.300604E0,6.475059E0,4.9443245E-2,0E0,0E0,0E0,0E0,0E0,0E0,0E0,0E0,0E0,0E0],"parents":[2147483647,0,0,1,1,2,2,3,3,4,4,5,5,6,6,8,8,9,9,10,10,14,14,17,17,18,18,19,19,20,20],"right_children":[2,4,6,8,10,12,14,-1,16,18,20,-1,-1,-1,22,-1,-1,24,26,28,30,-1,-1,-1,-1,-1,-1,-1,-1,-1,-1],"split_conditions":[6.124745E-1,1.7125E-1,3.3166668E-1,2.2125E-1,8.4125E-1,8.2416666E-1,3.4833333E-1,-2.942926E-3,6.164832E-1,1E0,5.241615E-1,-4.626773E-2,-2.3780446E-2,1.1019142E-2,5.6333333E-1,-4.446075E-2,-1.2280659E-2,1E0,2.67213E-1,7.7125E-1,4.15E-1,-4.0628422E-2,-9.473243E-3,2.5232399E-2,7.768205E-3,5.479634E-3,-3.4798417E-2,-2.357366E-2,2.2478621E-2,-2.7253447E-2,-4.563439E-2],"split_indices":[7,6,3,33,6,23,30,0,34,1,25,0,0,0,30,0,0,0,25,13,21,0,0,0,0,0,0,0,0,0,0],"split_type":[0,0,0,0,0,0,0,0,0,0,0,0,0,0,0,0,0,0,0,0,0,0,0,0,0,0,0,0,0,0,0],"sum_hessian":[6.9445953E2,5.900713E2,1.0438822E2,4.531004E1,5.447612E2,5.1622265E1,5.2765957E1,1.8077488E1,2.7232552E1,4.9542273E2,4.933853E1,3.9163494E1,1.2458772E1,1.6884874E1,3.588108E1,1.6289404E1,1.0943148E1,4.6180807E2,3.3614662E1,2.8552414E1,2.0786118E1,2.5700783E1,1.0180298E1,1.15567696E2,3.4624036E2,1.2148256E1,2.1466404E1,1.3869753E1,1.4682662E1,1.0003767E1,1.0782351E1],"tree_param":{"num_deleted":"0","num_feature":"36","num_nodes":"31","size_leaf_vector":"1"}},{"base_weights":[-3.7754368E-2,-5.202408E-1,1.1036549E-1,-7.187906E-1,-3.5074642E-1,1.5325634E-1,-4.4122452E-1,-8.4400105E-1,-5.099786E-1,-2.3877099E-1,-4.6301942E-2,2.9280686E-1,-4.4968124E-2,1.496194E-2,-3.761613E-2,-4.5598604E-2,-2.8336933E-2,-1.7480226E-3,-3.7479017E-2,-6.376429E-1,-4.5655664E-2,-2.1187982E-2,3.4676394E-1,-4.79452E-2,1.2112096E-1,-1.9505948E-2,-4.5153793E-2,-1.1347267E-2,3.0376911E-2,2.7812555E-2,8.274307E-3,1.2787091E-2,-3.0531108E-2],"categories":[],"categories_nodes":[],"categories_segments":[],"categories_sizes":[],"default_left":[0,0,0,0,0,0,0,0,0,0,0,0,0,0,0,0,0,0,0,0,0,0,0,0,0,0,0,0,0,0,0,0,0],"id":32,"left_children":[1,3,5,7,9,11,13,15,17,19,-1,21,23,-1,-1,-1,-1,-1,-1,25,27,-1,29,-1,31,-1,-1,-1,-1,-1,-1,-1,-1],"loss_changes":[4.974844E1,5.1437836E0,1.2630198E1,1.3710136E0,5.4882793E0,1.3723408E1,9.136516E0,1.7361641E-1,3.3775482E0,5.848816E0,0E0,1.1381321E1,3.131297E1,0E0,0E0,0E0,0E0,0E0,0E0,1.1567192E0,6.406649E0,0E0,1.0130268E1,0E0,1.7284945E1,0E0,0E0,0E0,0E0,0E0,0E0,0E0,0E0],"parents":[2147483647,0,0,1,1,2,2,3,3,4,4,5,5,6,6,7,7,8,8,9,9,11,11,12,12,19,19,20,20,22,22,24,24],"right_children":[2,4,6,8,10,12,14,16,18,20,-1,22,24,-1,-1,-1,-1,-1,-1,26,28,-1,30,-1,32,-1,-1,-1,-1,-1,-1,-1,-1],"split_conditions":[5.908333E-1,4.85E-1,1E0,5.425E-1,8.4875E-1,4E0,2.0278144E-1,7.8979826E-1,5.9819126E-1,3.6333334E-1,-4.6301942E-2,1.5E-1,7E0,1.496194E-2,-3.761613E-2,-4.5598604E-2,-2.8336933E-2,-1.7480226E-3,-3.7479017E-2,5.375E-1,7.05E-1,-2.1187982E-2,5E0,-4.79452E-2,1E0,-1.9505948E-2,-4.5153793E-2,-1.1347267E-2,3.0376911E-2,2.7812555E-2,8.274307E-3,1.2787091E-2,-3.0531108E-2],"split_indices":[5,6,1,31,31,0,7,34,7,5,0,6,0,0,0,0,0,0,0,24,31,0,9,0,10,0,0,0,0,0,0,0,0],"split_type":[0,0,0,0,0,0,0,0,0,0,0,0,0,0,0,0,0,0,0,0,0,0,0,0,0,0,0,0,0,0,0,0,0],"sum_hessian":[6.9373816E2,1.6251706E2,5.312211E2,7.307935E1,8.94377E1,4.9373264E2,3.7488495E1,4.3484066E1,2.9595291E1,7.6195755E1,1.3241945E1,2.897648E2,2.0396783E2,1.1006925E1,2.648157E1,3.279459E1,1.0689477E1,1.0447014E1,1.9148277E1,2.3936396E1,5.225936E1,1.9681496E1,2.700833E2,3.0725231E1,1.7324261E2,1.385898E1,1.0077415E1,4.153676E1,1.0722601E1,1.2407749E2,1.460058E2,1.4698798E2,2.6254631E1],"tree_param":{"num_deleted":"0","num_feature":"36","num_nodes":"33","size_leaf_vector":"1"}},{"base_weights":[-8.115827E-3,-3.4588566E-1,1.7201863E-1,-2.6601967E-1,-4.242353E-2,-1.8650126E-1,2.382913E-1,-4.6924102E-1,-4.571292E-2,-5.638221E-1,4.007737E-2,6.5537035E-2,2.0310608E-1,-2.9163757E-1,-6.554829E-1,-4.754881E-1,1.8442948E-1,-1.2733367E-2,-4.3028533E-2,-1.6093869E-2,2.9714277E-1,6.5059654E-2,1.6820894E-1,-3.193085E-2,8.407964E-3,-1.7532175E-2,-3.8051926E-2,-1.016511E-2,-4.0438946E-2,2.4049276E-2,-1.9758008E-2,4.208175E-2,-4.0099896E-3,1.1464156E-2,-1.8315312E-2],"categories":[],"categories_nodes":[],"categories_segments":[],"categories_sizes":[],"default_left":[0,0,0,0,0,0,0,0,0,0,0,0,0,0,0,0,0,0,0,0,0,0,0,0,0,0,0,0,0,0,0,0,0,0,0],"id":33,"left_children":[1,3,5,7,-1,9,11,13,15,17,19,-1,21,23,25,27,29,-1,-1,-1,31,-1,33,-1,-1,-1,-1,-1,-1,-1,-1,-1,-1,-1,-1],"loss_changes":[4.2173122E1,9.343191E0,1.0782128E1,9.316763E0,0E0,6.1275787E0,1.3993414E1,3.3112679E0,1.020334E1,2.1274633E0,4.280458E0,0E0,1.385282E1,9.366644E0,1.2954559E0,2.999731E0,1.1711639E1,0E0,0E0,0E0,5.690114E0,0E0,1.1850491E1,0E0,0E0,0E0,0E0,0E0,0E0,0E0,0E0,0E0,0E0,0E0,0E0],"parents":[2147483647,0,0,1,1,2,2,3,3,5,5,6,6,7,7,8,8,9,9,10,10,12,12,13,13,14,14,15,15,16,16,20,20,22,22],"right_children":[2,4,6,8,-1,10,12,14,16,18,20,-1,22,24,26,28,30,-1,-1,-1,32,-1,34,-1,-1,-1,-1,-1,-1,-1,-1,-1,-1,-1,-1],"split_conditions":[6.8833333E-1,6.725E-1,2.725E-1,5.366667E-1,-4.242353E-2,6.333333E-1,2.8625E-1,4.1E-1,3.975E-1,1.85E-1,1.7125E-1,6.5537035E-2,6.041667E-1,3.5166666E-1,0E0,3.4E-1,7.4875E-1,-1.2733367E-2,-4.3028533E-2,-1.6093869E-2,2.2E-1,6.5059654E-2,8.5375E-1,-3.193085E-2,8.407964E-3,-1.7532175E-2,-3.8051926E-2,-1.016511E-2,-4.0438946E-2,2.4049276E-2,-1.9758008E-2,4.208175E-2,-4.0099896E-3,1.1464156E-2,-1.8315312E-2],"split_indices":[5,12,6,5,0,21,6,12,6,4,6,0,3,14,11,15,6,0,0,0,4,0,4,0,0,0,0,0,0,0,0,0,0,0,0],"split_type":[0,0,0,0,0,0,0,0,0,0,0,0,0,0,0,0,0,0,0,0,0,0,0,0,0,0,0,0,0,0,0,0,0,0,0],"sum_hessian":[6.9087177E2,2.4016806E2,4.507037E2,2.0872737E2,3.1440681E1,6.979666E1,3.8090704E2,1.0774991E2,1.0097747E2,2.579434E1,4.400232E1,1.0858039E1,3.70049E2,5.6742306E1,5.10076E1,3.4995056E1,6.5982414E1,1.3708208E1,1.2086131E1,1.8006947E1,2.5995373E1,1.0191982E1,3.5985703E2,3.2240803E1,2.4501505E1,1.4474683E1,3.6532917E1,2.0314777E1,1.4680278E1,4.38755E1,2.2106915E1,1.02457285E1,1.5749645E1,3.236362E2,3.6220833E1],"tree_param":{"num_deleted":"0","num_feature":"36","num_nodes":"35","size_leaf_vector":"1"}},{"base_weights":[-1.1644109E-2,-2.9680914E-1,1.836427E-1,-5.191294E-1,-1.3062991E-1,2.153202E-1,-4.4365834E-2,-3.1078318E-1,-6.9174653E-1,-1.0057822E-2,-3.8592555E-2,2.5906315E-1,-3.3778146E-1,-6.549514E-1,1.2814976E-1,-1.3561982E-2,-7.885777E-1,6.931877E-2,-3.581098E-2,1.796597E-1,6.321131E-1,-4.0674277E-2,8.696455E-3,-2.0148197E-2,-3.803254E-2,-7.303299E-3,2.4897043E-2,-4.3023225E-2,-2.925891E-2,-1.0653638E-2,1.3718419E-2,1.6000059E-2,-5.3506475E-3,6.298376E-2,1.0417472E-2],"categories":[],"categories_nodes":[],"categories_segments":[],"categories_sizes":[],"default_left":[0,0,0,0,0,0,0,0,0,0,0,0,0,0,0,0,0,0,0,0,0,0,0,0,0,0,0,0,0,0,0,0,0,0,0],"id":34,"left_children":[1,3,5,7,9,11,-1,13,15,17,-1,19,21,23,25,-1,27,29,-1,31,33,-1,-1,-1,-1,-1,-1,-1,-1,-1,-1,-1,-1,-1,-1],"loss_changes":[3.8611904E1,1.0283192E1,1.4075143E1,4.0005226E0,1.2510738E1,9.765009E0,0E0,8.664618E0,2.3084812E0,7.865708E0,0E0,1.0815863E1,7.41218E0,4.2765617E-1,2.6956038E0,0E0,1.0858917E-1,7.308302E0,0E0,1.2450846E1,1.6774422E1,0E0,0E0,0E0,0E0,0E0,0E0,0E0,0E0,0E0,0E0,0E0,0E0,0E0,0E0],"parents":[2147483647,0,0,1,1,2,2,3,3,4,4,5,5,7,7,8,8,9,9,11,11,12,12,13,13,14,14,16,16,17,17,19,19,20,20],"right_children":[2,4,6,8,10,12,-1,14,16,18,-1,20,22,24,26,-1,28,30,-1,32,34,-1,-1,-1,-1,-1,-1,-1,-1,-1,-1,-1,-1,-1,-1],"split_conditions":[7.266667E-1,5.35E-1,1E0,4.1E-1,7.1E-1,1E0,-4.4365834E-2,3.5166666E-1,3.9666668E-1,8.6625E-1,-3.8592555E-2,9.3416667E-1,9.1833335E-1,0E0,4.3583333E-1,-1.3561982E-2,5.625E-1,4.5375E-1,-3.581098E-2,8.066667E-1,3.1663513E-1,-4.0674277E-2,8.696455E-3,-2.0148197E-2,-3.803254E-2,-7.303299E-3,2.4897043E-2,-4.3023225E-2,-2.925891E-2,-1.0653638E-2,1.3718419E-2,1.6000059E-2,-5.3506475E-3,6.298376E-2,1.0417472E-2],"split_indices":[5,5,5,12,30,1,0,14,32,33,0,5,5,20,5,0,21,6,0,32,34,0,0,0,0,0,0,0,0,0,0,0,0,0,0],"split_type":[0,0,0,0,0,0,0,0,0,0,0,0,0,0,0,0,0,0,0,0,0,0,0,0,0,0,0,0,0,0,0,0,0,0,0],"sum_hessian":[6.911673E2,2.809321E2,4.1023523E2,1.1900177E2,1.6193033E2,3.993163E2,1.0918903E1,5.5451904E1,6.3549862E1,1.3728716E2,2.4643167E1,3.7071048E2,2.8605835E1,3.0932976E1,2.4518929E1,1.279952E1,5.0750343E1,1.2409805E2,1.31891E1,3.0709512E2,6.361536E1,1.4620132E1,1.3985702E1,1.0842608E1,2.0090366E1,1.4270977E1,1.0247952E1,3.4747566E1,1.6002779E1,5.198214E1,7.211591E1,2.0632208E2,1.0077303E2,2.4751575E1,3.886379E1],"tree_param":{"num_deleted":"0","num_feature":"36","num_nodes":"35","size_leaf_vector":"1"}},{"base_weights":[1.8218009E-2,-3.3886415E-1,1.9897388E-1,-2.114511E-1,-6.2394285E-1,2.3583665E-1,-3.934773E-1,-9.8785385E-2,-6.438884E-1,-6.877007E-1,-1.1911987E-2,2.8088525E-1,-2.9207903E-1,-3.4101852E-4,-3.0566702E-2,-2.114171E-1,5.5033416E-2,-4.6041873E-1,-4.5814782E-2,-4.6356387E-2,-4.6388268E-1,3.2185706E-1,-3.3438304E-1,4.7872425E-3,-3.1570118E-2,6.2958696E-3,-2.2333397E-2,-3.752694E-2,-4.4284435E-3,-1.0929587E-3,-3.9452355E-2,2.2864805E-3,2.0970201E-2,-3.1609397E-2,5.207853E-3],"categories":[],"categories_nodes":[],"categories_segments":[],"categories_sizes":[],"default_left":[0,0,0,0,0,0,0,0,0,0,0,0,0,0,0,0,0,0,0,0,0,0,0,0,0,0,0,0,0,0,0,0,0,0,0],"id":35,"left_children":[1,3,5,7,9,11,13,15,17,19,-1,21,23,-1,-1,25,-1,27,-1,-1,29,31,33,-1,-1,-1,-1,-1,-1,-1,-1,-1,-1,-1,-1],"loss_changes":[4.4981956E1,8.288515E0,1.0187819E1,7.83094E0,1.5034008E0,1.0464716E1,2.2365427E0,1.7857555E1,1.1117878E0,2.681385E0,0E0,1.0264996E1,4.673211E0,0E0,0E0,9.673128E0,0E0,2.245864E0,0E0,0E0,4.7264524E0,1.0128914E1,3.4486592E0,0E0,0E0,0E0,0E0,0E0,0E0,0E0,0E0,0E0,0E0,0E0,0E0],"parents":[2147483647,0,0,1,1,2,2,3,3,4,4,5,5,6,6,7,7,8,8,9,9,11,11,12,12,15,15,17,17,20,20,21,21,22,22],"right_children":[2,4,6,8,10,12,14,16,18,20,-1,22,24,-1,-1,26,-1,28,-1,-1,30,32,34,-1,-1,-1,-1,-1,-1,-1,-1,-1,-1,-1,-1],"split_conditions":[6.8833333E-1,6.552528E-1,1E0,7.6375E-1,8.2416666E-1,1E0,6.066667E-1,7.1125E-1,6.016667E-1,3.3166668E-1,-1.1911987E-2,8.8934755E-1,3.1752953E-1,-3.4101852E-4,-3.0566702E-2,4.7E-1,5.5033416E-2,5.183333E-1,-4.5814782E-2,-4.6356387E-2,3.475E-1,3.4E-1,8.808333E-1,4.7872425E-3,-3.1570118E-2,6.2958696E-3,-2.2333397E-2,-3.752694E-2,-4.4284435E-3,-1.0929587E-3,-3.9452355E-2,2.2864805E-3,2.0970201E-2,-3.1609397E-2,5.207853E-3],"split_indices":[5,7,10,31,23,1,21,31,21,5,0,34,25,0,0,32,0,32,0,0,21,6,23,0,0,0,0,0,0,0,0,0,0,0,0],"split_type":[0,0,0,0,0,0,0,0,0,0,0,0,0,0,0,0,0,0,0,0,0,0,0,0,0,0,0,0,0,0,0,0,0,0,0],"sum_hessian":[6.9508386E2,2.3312294E2,4.6196094E2,1.6256062E2,7.056232E1,4.3562662E2,2.6334309E1,1.3011945E2,3.2441177E1,5.9658367E1,1.090395E1,4.019817E2,3.3644928E1,1.0027537E1,1.630677E1,1.19779015E2,1.0340438E1,2.1211946E1,1.1229231E1,2.709E1,3.2568367E1,3.774838E2,2.4497896E1,1.5897862E1,1.7747065E1,4.922838E1,7.055063E1,1.1192307E1,1.0019639E1,1.4386433E1,1.8181936E1,9.919243E1,2.7829138E2,1.4462871E1,1.0035026E1],"tree_param":{"num_deleted":"0","num_feature":"36","num_nodes":"35","size_leaf_vector":"1"}},{"base_weights":[-6.106856E-3,-4.4041932E-1,1.1348739E-1,-6.670257E-1,-2.4726589E-1,-1.24031216E-1,1.9050246E-1,-5.4779136E-1,-4.2159945E-2,-1.2433233E-1,-4.5802724E-2,-2.305539E-3,-4.3455946E-1,3.2194683E-1,-4.1728817E-2,-4.2357292E-2,-2.8568655E-1,-6.2822413E-1,8.98778E-2,-2.6350921E-2,1.20066114E-1,-5.2432665E-3,-6.52358E-1,-2.8148392E-2,3.7289667E-1,8.0973E-2,-4.4820324E-1,-2.753565E-2,4.5865533E-4,-1.8013967E-2,-4.1048113E-2,-1.9404223E-2,1.7144276E-2,1.1347281E-2,-2.1504475E-2,-4.604518E-2,-1.7187035E-2,9.413044E-3,3.0072352E-2,-1.0159062E-3,4.8796874E-2,-3.557144E-2,-9.32503E-3],"categories":[],"categories_nodes":[],"categories_segments":[],"categories_sizes":[],"default_left":[0,0,0,0,0,0,0,0,0,0,0,0,0,0,0,0,0,0,0,0,0,0,0,0,0,0,0,0,0,0,0,0,0,0,0,0,0,0,0,0,0,0,0],"id":36,"left_children":[1,3,5,7,9,11,13,15,-1,17,-1,19,21,23,25,-1,27,29,31,-1,33,-1,35,-1,37,39,41,-1,-1,-1,-1,-1,-1,-1,-1,-1,-1,-1,-1,-1,-1,-1,-1],"loss_changes":[3.6326214E1,6.3547745E0,1.0049744E1,8.415928E-1,6.636268E0,5.035665E0,1.2689159E1,3.1087446E0,0E0,7.8501744E0,0E0,6.3831453E0,2.5566878E0,1.2137371E1,7.5724277E0,0E0,2.0305107E0,