{"learner":{"attributes":{"best_iteration":"110","best_score":"0.9334910321286343","scikit_learn":"{\"_estimator_type\": \"classifier\"}"},"feature_names":["a0_type_id","a0_result_id","a0_bodypart_id","a0_start_x_norm","a0_start_y_norm","a0_end_x_norm","a0_end_y_norm","a0_dist_to_goal","a0_under_pressure","a1_type_id","a1_result_id","a1_bodypart_id","a1_start_x_norm","a1_start_y_norm","a1_end_x_norm","a1_end_y_norm","a1_dist_to_goal","a1_under_pressure","a2_type_id","a2_result_id","a2_bodypart_id","a2_start_x_norm","a2_start_y_norm","a2_end_x_norm","a2_end_y_norm","a2_dist_to_goal","a2_under_pressure","a3_type_id","a3_result_id","a3_bodypart_id","a3_start_x_norm","a3_start_y_norm","a3_end_x_norm","a3_end_y_norm","a3_dist_to_goal","a3_under_pressure"],"feature_types":["int","int","int","float","float","float","float","float","int","int","int","int","float","float","float","float","float","int","int","int","int","float","float","float","float","float","int","int","int","int","float","float","float","float","float","int"],"gradient_booster":{"model":{"cats":{"enc":[],"feature_segments":[],"sorted_idx":[]},"gbtree_model_param":{"num_parallel_tree":"1","num_trees":"141"},"iteration_indptr":[0,1,2,3,4,5,6,7,8,9,10,11,12,13,14,15,16,17,18,19,20,21,22,23,24,25,26,27,28,29,30,31,32,33,34,35,36,37,38,39,40,41,42,43,44,45,46,47,48,49,50,51,52,53,54,55,56,57,58,59,60,61,62,63,64,65,66,67,68,69,70,71,72,73,74,75,76,77,78,79,80,81,82,83,84,85,86,87,88,89,90,91,92,93,94,95,96,97,98,99,100,101,102,103,104,105,106,107,108,109,110,111,112,113,114,115,116,117,118,119,120,121,122,123,124,125,126,127,128,129,130,131,132,133,134,135,136,137,138,139,140,141],"tree_info":[0,0,0,0,0,0,0,0,0,0,0,0,0,0,0,0,0,0,0,0,0,0,0,0,0,0,0,0,0,0,0,0,0,0,0,0,0,0,0,0,0,0,0,0,0,0,0,0,0,0,0,0,0,0,0,0,0,0,0,0,0,0,0,0,0,0,0,0,0,0,0,0,0,0,0,0,0,0,0,0,0,0,0,0,0,0,0,0,0,0,0,0,0,0,0,0,0,0,0,0,0,0,0,0,0,0,0,0,0,0,0,0,0,0,0,0,0,0,0,0,0,0,0,0,0,0,0,0,0,0,0,0,0,0,0,0,0,0,0,0,0],"trees":[{"base_weights":[3.547619E-2,3.6173568E0,-4.9536476E-1,1.8791804E-2,3.4456468E-1,4.2609386E-2,-6.84004E-1,-4.640599E-1,-8.720151E-1,-1.4394867E-1,-7.7759033E-1,-4.6647932E-2,-2.3883129E-2,-2.6757915E-2,1.3637769E-2,-4.7541175E-2,-1.8216232E-2],"categories":[],"categories_nodes":[],"categories_segments":[],"categories_sizes":[],"default_left":[0,0,0,0,0,0,0,0,0,0,0,0,0,0,0,0,0],"id":0,"left_children":[1,3,5,-1,-1,-1,7,9,11,13,15,-1,-1,-1,-1,-1,-1],"loss_changes":[3.2812378E2,2.3308682E2,3.874363E1,0E0,0E0,0E0,4.935219E0,6.1574306E0,1.0951347E0,5.510724E0,1.786953E0,0E0,0E0,0E0,0E0,0E0,0E0],"parents":[2147483647,0,0,1,1,2,2,6,6,7,7,8,8,9,9,10,10],"right_children":[2,4,6,-1,-1,-1,8,10,12,14,16,-1,-1,-1,-1,-1,-1],"split_conditions":[2.3166667E-1,3.9416668E-1,3.4583333E-1,1.8791804E-2,3.4456468E-1,4.2609386E-2,5.975E-1,5.1625E-1,8.7083334E-1,4.7416666E-1,5.25E-1,-4.6647932E-2,-2.3883129E-2,-2.6757915E-2,1.3637769E-2,-4.7541175E-2,-1.8216232E-2],"split_indices":[5,12,5,0,0,0,5,6,3,32,12,0,0,0,0,0,0],"split_type":[0,0,0,0,0,0,0,0,0,0,0,0,0,0,0,0,0],"sum_hessian":[1.7046214E2,2.1275879E1,1.4918626E2,1.1266385E1,1.0009495E1,1.7822542E1,1.3136372E2,6.2384083E1,6.8979645E1,3.1747894E1,3.0636189E1,5.834378E1,1.0635866E1,1.6352022E1,1.5395872E1,2.0500175E1,1.0136013E1],"tree_param":{"num_deleted":"0","num_feature":"36","num_nodes":"17","size_leaf_vector":"1"}},{"base_weights":[-6.4618126E-2,2.6089463E0,-5.114769E-1,4.1419705E-3,2.6196212E-1,6.7014784E-1,-7.056131E-1,5.784614E-2,6.4890333E-3,-4.9952328E-1,-8.7130624E-1,-7.4200505E-1,-1.4865501E-1,-2.6960164E-2,-4.5821145E-2,-2.2609027E-2,-4.1866694E-2,-3.0974615E-2,1.590059E-2],"categories":[],"categories_nodes":[],"categories_segments":[],"categories_sizes":[],"default_left":[0,0,0,0,0,0,0,0,0,0,0,0,0,0,0,0,0,0,0],"id":1,"left_children":[1,3,5,-1,-1,7,9,-1,-1,11,13,15,17,-1,-1,-1,-1,-1,-1],"loss_changes":[2.0770056E2,1.6443489E2,3.466015E1,0E0,0E0,5.368107E0,3.8172913E0,0E0,0E0,4.897109E0,4.0382004E-1,4.5952225E-1,5.91785E0,0E0,0E0,0E0,0E0,0E0,0E0],"parents":[2147483647,0,0,1,1,2,2,5,5,6,6,9,9,10,10,11,11,12,12],"right_children":[2,4,6,-1,-1,8,10,-1,-1,12,14,16,18,-1,-1,-1,-1,-1,-1],"split_conditions":[2.225E-1,7.7E-1,3.4583333E-1,4.1419705E-3,2.6196212E-1,7.6873964E-1,5.8916664E-1,5.784614E-2,6.4890333E-3,4E0,3.2083333E-1,3.0125E-1,4.7416666E-1,-2.6960164E-2,-4.5821145E-2,-2.2609027E-2,-4.1866694E-2,-3.0974615E-2,1.590059E-2],"split_indices":[5,14,5,0,0,7,5,0,0,0,23,31,32,0,0,0,0,0,0],"split_type":[0,0,0,0,0,0,0,0,0,0,0,0,0,0,0,0,0,0,0],"sum_hessian":[1.7190944E2,2.3893282E1,1.4801616E2,1.2733593E1,1.1159689E1,2.0468153E1,1.2754801E2,1.007043E1,1.0397723E1,5.8902782E1,6.8645226E1,3.4003506E1,2.4899279E1,1.0024298E1,5.8620926E1,1.0097335E1,2.390617E1,1.2337911E1,1.2561369E1],"tree_param":{"num_deleted":"0","num_feature":"36","num_nodes":"19","size_leaf_vector":"1"}},{"base_weights":[5.4271026E-3,1.9635937E0,-6.8197715E-1,2.672715E-1,8.041283E-1,-7.9462385E-1,-1.2221694E-1,-6.148996E-2,1.10119365E-1,-8.34862E-1,-1.849688E-2,2.9457081E-2,-4.1316237E-2,2.6593624E-2,-2.9561086E-2,-7.177421E-1,-4.771959E-2,-4.6464256E-3,-4.3006994E-2],"categories":[],"categories_nodes":[],"categories_segments":[],"categories_sizes":[],"default_left":[0,0,0,0,0,0,0,0,0,0,0,0,0,0,0,0,0,0,0],"id":2,"left_children":[1,3,5,-1,7,9,11,13,-1,15,-1,-1,-1,-1,-1,17,-1,-1,-1],"loss_changes":[2.3378313E2,1.7208661E2,7.910652E0,0E0,4.248723E1,1.3923264E0,1.1955218E1,7.3710613E0,0E0,4.9681854E-1,0E0,0E0,0E0,0E0,0E0,4.5516853E0,0E0,0E0,0E0],"parents":[2147483647,0,0,1,1,2,2,4,4,5,5,6,6,7,7,9,9,15,15],"right_children":[2,4,6,-1,8,10,12,14,-1,16,-1,-1,-1,-1,-1,18,-1,-1,-1],"split_conditions":[3.225E-1,3.5490537E-1,1E0,2.672715E-1,7.083333E-1,8.0498934E-1,5.975E-1,4.725E-1,1.10119365E-1,6.191667E-1,-1.849688E-2,2.9457081E-2,-4.1316237E-2,2.6593624E-2,-2.9561086E-2,5.068455E-1,-4.771959E-2,-4.6464256E-3,-4.3006994E-2],"split_indices":[5,25,17,0,14,16,5,24,0,5,0,0,0,0,0,25,0,0,0],"split_type":[0,0,0,0,0,0,0,0,0,0,0,0,0,0,0,0,0,0,0],"sum_hessian":[1.7159052E2,4.4140137E1,1.2745038E2,1.0325895E1,3.3814243E1,1.0560092E2,2.1849457E1,2.1431303E1,1.238294E1,9.5364075E1,1.0236852E1,1.0879339E1,1.0970117E1,1.0017593E1,1.141371E1,5.212818E1,4.323589E1,1.0112289E1,4.2015892E1],"tree_param":{"num_deleted":"0","num_feature":"36","num_nodes":"19","size_leaf_vector":"1"}},{"base_weights":[4.586988E-2,2.2217643E0,-4.7318283E-1,-3.03188E-2,3.8089325E0,2.6960662E-1,-7.1745366E-1,2.820705E-1,7.9236515E-2,-2.2958806E-1,6.604158E-2,-5.335342E-1,-4.5101218E-2,1.7454738E-2,-3.2749694E-2,-6.462148E-1,-1.6507757E-3,-3.918486E-2,-1.9768875E-2],"categories":[],"categories_nodes":[],"categories_segments":[],"categories_sizes":[],"default_left":[0,0,0,0,0,0,0,0,0,0,0,0,0,0,0,0,0,0,0],"id":3,"left_children":[1,3,5,-1,7,9,11,-1,-1,13,-1,15,-1,-1,-1,17,-1,-1,-1],"loss_changes":[1.9615526E2,1.5279959E2,2.5665442E1,0E0,7.832889E1,1.893996E1,2.9678192E0,0E0,0E0,6.346186E0,0E0,3.0538177E0,0E0,0E0,0E0,1.1334686E0,0E0,0E0,0E0],"parents":[2147483647,0,0,1,1,2,2,4,4,5,5,6,6,9,9,11,11,15,15],"right_children":[2,4,6,-1,8,10,12,-1,-1,14,-1,16,-1,-1,-1,18,-1,-1,-1],"split_conditions":[2.3166667E-1,4E0,4.1666666E-1,-3.03188E-2,4.3306342E-1,4.8916668E-1,5.5583334E-1,2.820705E-1,7.9236515E-2,4.1625E-1,6.604158E-2,1E0,-4.5101218E-2,1.7454738E-2,-3.2749694E-2,5.2666664E-1,-1.6507757E-3,-3.918486E-2,-1.9768875E-2],"split_indices":[5,0,5,0,25,14,12,0,0,31,0,17,0,0,0,32,0,0,0],"split_type":[0,0,0,0,0,0,0,0,0,0,0,0,0,0,0,0,0,0,0],"sum_hessian":[1.7159465E2,3.2454796E1,1.3913986E2,1.1865991E1,2.0588804E1,3.4306385E1,1.0483347E2,1.0421446E1,1.0167359E1,2.372607E1,1.0580315E1,5.4729538E1,5.010394E1,1.0028517E1,1.3697554E1,4.4271843E1,1.0457695E1,2.6967907E1,1.7303936E1],"tree_param":{"num_deleted":"0","num_feature":"36","num_nodes":"19","size_leaf_vector":"1"}},{"base_weights":[3.1321578E-2,1.4731789E0,-6.845346E-1,-4.7994962E-1,2.6929924E0,-8.137613E-1,-7.4324876E-2,-4.0992055E-2,-6.3058673E-3,3.4327018E-1,3.938919E-1,-8.497956E-1,-2.253459E-2,3.2538947E-2,-4.0735684E-2,-1.0477769E-2,5.5892687E-2,-8.936767E-1,-2.521109E-2,-4.891881E-2,-3.6081832E-2],"categories":[],"categories_nodes":[],"categories_segments":[],"categories_sizes":[],"default_left":[0,0,0,0,0,0,0,0,0,0,0,0,0,0,0,0,0,0,0,0,0],"id":4,"left_children":[1,3,5,7,9,11,13,-1,-1,-1,15,17,-1,-1,-1,-1,-1,19,-1,-1,-1],"loss_changes":[1.8071437E2,1.3993619E2,9.071194E0,2.5865688E0,3.414034E2,7.462921E-1,1.21807E1,0E0,0E0,0E0,1.0920433E1,7.1656036E-1,0E0,0E0,0E0,0E0,0E0,2.1574783E-1,0E0,0E0,0E0],"parents":[2147483647,0,0,1,1,2,2,3,3,4,4,5,5,6,6,10,10,11,11,17,17],"right_children":[2,4,6,8,10,12,14,-1,-1,-1,16,18,-1,-1,-1,-1,-1,20,-1,-1,-1],"split_conditions":[3.4583333E-1,4E0,1E0,2.175E-1,6E0,7.941824E-1,5.975E-1,-4.0992055E-2,-6.3058673E-3,3.4327018E-1,7.6666665E-1,1E0,-2.253459E-2,3.2538947E-2,-4.0735684E-2,-1.0477769E-2,5.5892687E-2,6.3E-1,-2.521109E-2,-4.891881E-2,-3.6081832E-2],"split_indices":[5,0,17,5,0,16,5,0,0,0,23,8,0,0,0,0,0,33,0,0,0],"split_type":[0,0,0,0,0,0,0,0,0,0,0,0,0,0,0,0,0,0,0,0,0],"sum_hessian":[1.7302982E2,5.710079E1,1.1592902E2,2.215363E1,3.494716E1,9.5258316E1,2.0670708E1,1.0483511E1,1.1670119E1,1.1694445E1,2.3252714E1,8.518753E1,1.0070783E1,1.0436062E1,1.0234647E1,1.2994098E1,1.0258616E1,7.392506E1,1.1262478E1,4.6006676E1,2.7918379E1],"tree_param":{"num_deleted":"0","num_feature":"36","num_nodes":"21","size_leaf_vector":"1"}},{"base_weights":[-1.6540933E-2,1.0914314E0,-6.8961984E-1,-4.2327914E-1,2.0258949E0,-8.2097554E-1,-9.9762246E-2,-4.2167455E-2,-0E0,2.1383958E-1,3.3205777E-1,-6.4638025E-1,-8.8655293E-1,1.7434156E-2,-2.719673E-2,4.923032E-2,-1.8001188E-2,-8.73006E-3,-4.438078E-2,-3.0948812E-2,-4.6943333E-2],"categories":[],"categories_nodes":[],"categories_segments":[],"categories_sizes":[],"default_left":[0,0,0,0,0,0,0,0,0,0,0,0,0,0,0,0,0,0,0,0,0],"id":5,"left_children":[1,3,5,7,9,11,13,-1,-1,-1,15,17,19,-1,-1,-1,-1,-1,-1,-1,-1],"loss_changes":[1.308667E2,9.484292E1,8.290096E0,4.715985E0,1.5523557E2,2.9343414E-1,4.4265943E0,0E0,0E0,0E0,1.1537489E1,2.9740562E0,1.2591553E-1,0E0,0E0,0E0,0E0,0E0,0E0,0E0,0E0],"parents":[2147483647,0,0,1,1,2,2,3,3,4,4,5,5,6,6,10,10,11,11,12,12],"right_children":[2,4,6,8,10,12,14,-1,-1,-1,16,18,20,-1,-1,-1,-1,-1,-1,-1,-1],"split_conditions":[3.4583333E-1,4E0,1E0,2.0583333E-1,6E0,4.744253E-1,4.9875E-1,-4.2167455E-2,-0E0,2.1383958E-1,1E1,5.85E-1,3.0333334E-1,1.7434156E-2,-2.719673E-2,4.923032E-2,-1.8001188E-2,-8.73006E-3,-4.438078E-2,-3.0948812E-2,-4.6943333E-2],"split_indices":[3,0,17,3,0,34,4,0,0,0,0,14,30,0,0,0,0,0,0,0,0],"split_type":[0,0,0,0,0,0,0,0,0,0,0,0,0,0,0,0,0,0,0,0,0],"sum_hessian":[1.7352727E2,6.528683E1,1.0824043E2,2.5077574E1,4.0209255E1,8.806732E1,2.0173111E1,1.2199778E1,1.2877797E1,1.6585396E1,2.362386E1,2.7426867E1,6.0640457E1,1.0033216E1,1.0139894E1,1.20160265E1,1.1607833E1,1.0002835E1,1.742403E1,1.2328034E1,4.8312424E1],"tree_param":{"num_deleted":"0","num_feature":"36","num_nodes":"21","size_leaf_vector":"1"}},{"base_weights":[3.339753E-2,1.1200318E0,-6.2552375E-1,4.5711628E-1,1.5254092E-1,-7.418097E-1,-1.0752707E-1,-1.5344431E-2,9.4062823E-1,-1.4303746E-2,-8.155889E-1,2.950312E-2,-4.0630545E-2,9.318208E-2,5.707444E-4,-6.301274E-1,-4.4940136E-2,-1.5291437E-2,-4.071057E-2],"categories":[],"categories_nodes":[],"categories_segments":[],"categories_sizes":[],"default_left":[0,0,0,0,0,0,0,0,0,0,0,0,0,0,0,0,0,0,0],"id":6,"left_children":[1,3,5,7,-1,9,11,-1,13,-1,15,-1,-1,-1,-1,17,-1,-1,-1],"loss_changes":[1.2573983E2,8.3129776E1,6.4162827E0,1.903579E1,0E0,2.6455421E0,1.100647E1,0E0,2.6637426E1,0E0,4.5027542E-1,0E0,0E0,0E0,0E0,1.262084E0,0E0,0E0,0E0],"parents":[2147483647,0,0,1,1,2,2,3,3,5,5,6,6,8,8,10,10,15,15],"right_children":[2,4,6,8,-1,10,12,-1,14,-1,16,-1,-1,-1,-1,18,-1,-1,-1],"split_conditions":[3.4583333E-1,8.7333333E-1,1E0,4E0,1.5254092E-1,3.05E-1,5.8916664E-1,-1.5344431E-2,6E0,-1.4303746E-2,0E0,2.950312E-2,-4.0630545E-2,9.318208E-2,5.707444E-4,4.8317975E-1,-4.4940136E-2,-1.5291437E-2,-4.071057E-2],"split_indices":[5,14,17,0,0,21,5,0,0,0,20,0,0,0,0,25,0,0,0],"split_type":[0,0,0,0,0,0,0,0,0,0,0,0,0,0,0,0,0,0,0],"sum_hessian":[1.7356514E2,6.5311386E1,1.0825375E2,4.957788E1,1.5733506E1,8.7896576E1,2.0357182E1,1.927679E1,3.030109E1,1.3115403E1,7.478117E1,1.0243684E1,1.0113499E1,1.4642781E1,1.5658309E1,2.618837E1,4.8592804E1,1.064311E1,1.5545259E1],"tree_param":{"num_deleted":"0","num_feature":"36","num_nodes":"19","size_leaf_vector":"1"}},{"base_weights":[-3.9204124E-2,1.0194628E0,-6.1576885E-1,1.3401474E-1,4.592303E-1,-4.0693796E-1,-8.484222E-1,-1.3842379E-1,6.604045E-2,-1.1615069E-1,-7.0350444E-1,-3.1876046E-2,-4.702252E-2,2.607267E-2,-3.0015444E-2,-3.8372114E-1,2.1911036E-2,-1.3343989E-2,-4.496045E-2,-3.3102434E-2,-2.81822E-3],"categories":[],"categories_nodes":[],"categories_segments":[],"categories_sizes":[],"default_left":[0,0,0,0,0,0,0,0,0,0,0,0,0,0,0,0,0,0,0,0,0],"id":7,"left_children":[1,3,5,-1,7,9,11,13,-1,15,17,-1,-1,-1,-1,19,-1,-1,-1,-1,-1],"loss_changes":[1.0766179E2,5.629808E1,5.080223E0,0E0,2.4882406E1,5.2138853E0,2.6929474E-1,9.166597E0,0E0,5.035974E0,2.2499514E0,0E0,0E0,0E0,0E0,1.9694226E0,0E0,0E0,0E0,0E0,0E0],"parents":[2147483647,0,0,1,1,2,2,4,4,5,5,6,6,7,7,9,9,10,10,15,15],"right_children":[2,4,6,-1,8,10,12,14,-1,16,18,-1,-1,-1,-1,20,-1,-1,-1,-1,-1],"split_conditions":[3.05E-1,2.8646553E-1,6E-1,1.3401474E-1,7.9333335E-1,5.1625E-1,6.1833334E-1,3.95E-1,6.604045E-2,5.6125E-1,5.5959123E-1,-3.1876046E-2,-4.702252E-2,2.607267E-2,-3.0015444E-2,6.3075036E-1,2.1911036E-2,-1.3343989E-2,-4.496045E-2,-3.3102434E-2,-2.81822E-3],"split_indices":[5,25,5,0,14,6,14,22,0,13,16,0,0,0,0,16,0,0,0,0,0],"split_type":[0,0,0,0,0,0,0,0,0,0,0,0,0,0,0,0,0,0,0,0,0],"sum_hessian":[1.7441965E2,6.116645E1,1.132532E2,1.4428836E1,4.6737614E1,6.1357403E1,5.189579E1,2.8022455E1,1.8715158E1,3.1853489E1,2.9503914E1,1.8504055E1,3.3391735E1,1.1395985E1,1.662647E1,2.181336E1,1.0040128E1,1.0021099E1,1.9482815E1,1.1071871E1,1.0741488E1],"tree_param":{"num_deleted":"0","num_feature":"36","num_nodes":"21","size_leaf_vector":"1"}},{"base_weights":[-3.8270663E-2,6.835661E-1,-5.902225E-1,-4.9876034E-1,1.2717429E0,-7.2648907E-1,-1.2073781E-3,3.8634625E-3,-4.3547966E-2,2.7242055E0,-6.23035E-2,-1.377816E-2,-7.8640074E-1,1.9805852E-1,7.966283E-2,3.0172994E-2,-2.4295015E-2,-6.0634726E-1,-4.599942E-2,-4.248777E-2,-9.621887E-3],"categories":[],"categories_nodes":[],"categories_segments":[],"categories_sizes":[],"default_left":[0,0,0,0,0,0,0,0,0,0,0,0,0,0,0,0,0,0,0,0,0],"id":8,"left_children":[1,3,5,7,9,11,-1,-1,-1,13,15,-1,17,-1,-1,-1,-1,19,-1,-1,-1],"loss_changes":[7.019922E1,5.377464E1,7.613491E0,5.7232885E0,9.982443E1,1.847599E0,0E0,0E0,0E0,2.756839E1,8.087159E0,0E0,9.7766495E-1,0E0,0E0,0E0,0E0,3.0716057E0,0E0,0E0,0E0],"parents":[2147483647,0,0,1,1,2,2,3,3,4,4,5,5,9,9,10,10,12,12,17,17],"right_children":[2,4,6,8,10,12,-1,-1,-1,14,16,-1,18,-1,-1,-1,-1,20,-1,-1,-1],"split_conditions":[3.4583333E-1,4E0,1E0,4.0875E-1,6E0,3.05E-1,-1.2073781E-3,3.8634625E-3,-4.3547966E-2,3.7216637E-1,8.75E-2,-1.377816E-2,5.45E-1,1.9805852E-1,7.966283E-2,3.0172994E-2,-2.4295015E-2,5.2666664E-1,-4.599942E-2,-4.248777E-2,-9.621887E-3],"split_indices":[3,0,17,33,0,21,0,0,0,25,3,0,14,0,0,0,0,32,0,0,0],"split_type":[0,0,0,0,0,0,0,0,0,0,0,0,0,0,0,0,0,0,0,0,0],"sum_hessian":[1.742052E2,7.530391E1,9.890129E1,2.5010649E1,5.0293262E1,7.934192E1,1.955937E1,1.00227585E1,1.4987889E1,2.3614994E1,2.667827E1,1.0157798E1,6.918412E1,1.0041383E1,1.357361E1,1.0116917E1,1.6561354E1,3.2145267E1,3.7038857E1,1.9426508E1,1.271876E1],"tree_param":{"num_deleted":"0","num_feature":"36","num_nodes":"21","size_leaf_vector":"1"}},{"base_weights":[4.7209166E-2,8.405103E-1,-5.984109E-1,1.3937409E-1,1.4945898E0,-7.1622E-1,-5.976066E-3,5.339183E-1,-4.1190192E-2,2.1153252E0,2.1429325E-3,-8.6049604E-1,-5.7352704E-1,-1.5702244E-2,5.354329E-2,5.4205954E-2,1.3661356E-1,-4.796875E-2,-2.6937557E-2,-3.3933008E-1,-4.66226E-2,-2.19113E-3,-3.6616445E-2],"categories":[],"categories_nodes":[],"categories_segments":[],"categories_sizes":[],"default_left":[0,0,0,0,0,0,0,0,0,0,0,0,0,0,0,0,0,0,0,0,0,0,0],"id":9,"left_children":[1,3,5,7,9,11,-1,13,-1,15,-1,17,19,-1,-1,-1,-1,-1,-1,21,-1,-1,-1],"loss_changes":[9.014301E1,3.5854214E1,5.302189E0,1.5346073E1,3.636194E1,9.5785904E-1,0E0,1.34162245E1,0E0,1.4746269E1,0E0,4.8408127E-1,3.1115322E0,0E0,0E0,0E0,0E0,0E0,0E0,3.0647209E0,0E0,0E0,0E0],"parents":[2147483647,0,0,1,1,2,2,3,3,4,4,5,5,7,7,9,9,11,11,12,12,19,19],"right_children":[2,4,6,8,10,12,-1,14,-1,16,-1,18,20,-1,-1,-1,-1,-1,-1,22,-1,-1,-1],"split_conditions":[3.4583333E-1,7.4583334E-1,1E0,6.7125E-1,4E0,4.575E-1,-5.976066E-3,2.8916666E-1,-4.1190192E-2,4E-1,2.1429325E-3,6.505815E-1,7.4875E-1,-1.5702244E-2,5.354329E-2,5.4205954E-2,1.3661356E-1,-4.796875E-2,-2.6937557E-2,6.333333E-1,-4.66226E-2,-2.19113E-3,-3.6616445E-2],"split_indices":[3,14,17,22,9,15,0,21,0,13,0,16,6,0,0,0,0,0,0,3,0,0,0],"split_type":[0,0,0,0,0,0,0,0,0,0,0,0,0,0,0,0,0,0,0,0,0,0,0],"sum_hessian":[1.7397244E2,7.799261E1,9.597984E1,3.8301517E1,3.9691086E1,7.6464745E1,1.9515097E1,2.7561188E1,1.074033E1,2.7434551E1,1.2256535E1,3.517167E1,4.129308E1,1.0774567E1,1.6786621E1,1.1362239E1,1.6072313E1,2.5149967E1,1.0021702E1,2.6334166E1,1.4958913E1,1.5811211E1,1.0522956E1],"tree_param":{"num_deleted":"0","num_feature":"36","num_nodes":"23","size_leaf_vector":"1"}},{"base_weights":[-5.249414E-2,6.460739E-1,-5.899141E-1,2.3665805E-1,1.5373015E0,-7.236485E-1,-5.7951607E-2,6.148486E-1,-1.9048749E-2,1.0807009E-1,3.2616597E-2,-9.028555E-3,-7.984642E-1,2.653451E-2,-3.1882156E-2,5.2643914E-2,-1.6594572E-3,-4.7398187E-2,-5.81452E-1,-4.2976863E-3,-4.23447E-2],"categories":[],"categories_nodes":[],"categories_segments":[],"categories_sizes":[],"default_left":[0,0,0,0,0,0,0,0,0,0,0,0,0,0,0,0,0,0,0,0,0],"id":10,"left_children":[1,3,5,7,9,11,13,15,-1,-1,-1,-1,17,-1,-1,-1,-1,-1,19,-1,-1],"loss_changes":[6.629174E1,2.7459679E1,6.9825783E0,1.2834265E1,1.1507294E1,2.9898567E0,7.615324E0,9.753293E0,0E0,0E0,0E0,0E0,1.5493317E0,0E0,0E0,0E0,0E0,0E0,3.93641E0,0E0,0E0],"parents":[2147483647,0,0,1,1,2,2,3,3,4,4,5,5,6,6,7,7,12,12,18,18],"right_children":[2,4,6,8,10,12,14,16,-1,-1,-1,-1,18,-1,-1,-1,-1,-1,20,-1,-1],"split_conditions":[3.3583334E-1,8.7333333E-1,1E0,5.9625E-1,3.5490537E-1,3.2583332E-1,5.65E-1,6.4312565E-1,-1.9048749E-2,1.0807009E-1,3.2616597E-2,-9.028555E-3,5.6625E-1,2.653451E-2,-3.1882156E-2,5.2643914E-2,-1.6594572E-3,-4.7398187E-2,6.3125E-1,-4.2976863E-3,-4.23447E-2],"split_indices":[5,14,17,22,25,23,5,25,0,0,0,0,13,0,0,0,0,0,22,0,0],"split_type":[0,0,0,0,0,0,0,0,0,0,0,0,0,0,0,0,0,0,0,0,0],"sum_hessian":[1.745779E2,7.573941E1,9.883849E1,5.2842262E1,2.2897146E1,7.854428E1,2.0294212E1,3.287722E1,1.9965042E1,1.2515555E1,1.0381592E1,1.008545E1,6.845883E1,1.0025722E1,1.0268492E1,1.9336588E1,1.3540631E1,3.826739E1,3.019144E1,1.1125013E1,1.9066425E1],"tree_param":{"num_deleted":"0","num_feature":"36","num_nodes":"21","size_leaf_vector":"1"}},{"base_weights":[9.901512E-3,6.8997777E-1,-5.677938E-1,-3.692445E-1,1.0772327E0,-7.209353E-1,8.0360856E-4,3.8551819E-3,-3.745916E-2,2.056046E0,9.222012E-3,-1.7155424E-2,-7.80814E-1,1.4484991E-1,4.694749E-2,-2.086742E-2,3.5750803E-2,-4.8213776E-2,-6.013189E-1,-1.9019471E-2,-4.5999646E-2],"categories":[],"categories_nodes":[],"categories_segments":[],"categories_sizes":[],"default_left":[0,0,0,0,0,0,0,0,0,0,0,0,0,0,0,0,0,0,0,0,0],"id":11,"left_children":[1,3,5,7,9,11,-1,-1,-1,13,15,-1,17,-1,-1,-1,-1,-1,19,-1,-1],"loss_changes":[6.891822E1,3.354165E1,8.555157E0,3.9002364E0,6.1835876E1,1.3216705E0,0E0,0E0,0E0,2.5946793E1,9.192713E0,0E0,1.3686981E0,0E0,0E0,0E0,0E0,0E0,2.001359E0,0E0,0E0],"parents":[2147483647,0,0,1,1,2,2,3,3,4,4,5,5,9,9,10,10,12,12,18,18],"right_children":[2,4,6,8,10,12,-1,-1,-1,14,16,-1,18,-1,-1,-1,-1,-1,20,-1,-1],"split_conditions":[3.4583333E-1,4E0,1E0,4.5125E-1,6E0,2.9833335E-1,8.0360856E-4,3.8551819E-3,-3.745916E-2,5.6875E-1,7.866667E-1,-1.7155424E-2,4.575E-1,1.4484991E-1,4.694749E-2,-2.086742E-2,3.5750803E-2,-4.8213776E-2,6.1833334E-1,-1.9019471E-2,-4.5999646E-2],"split_indices":[5,0,17,31,0,21,0,0,0,4,30,0,15,0,0,0,0,0,14,0,0],"split_type":[0,0,0,0,0,0,0,0,0,0,0,0,0,0,0,0,0,0,0,0,0],"sum_hessian":[1.7339113E2,7.962889E1,9.376224E1,2.1261787E1,5.8367104E1,7.422924E1,1.9532995E1,1.0021957E1,1.123983E1,2.9923754E1,2.844335E1,1.1303802E1,6.292544E1,1.6111864E1,1.381189E1,1.789494E1,1.0548411E1,2.8681192E1,3.4244247E1,2.1704487E1,1.2539762E1],"tree_param":{"num_deleted":"0","num_feature":"36","num_nodes":"21","size_leaf_vector":"1"}},{"base_weights":[-6.0258813E-2,5.645847E-1,-7.1973836E-1,7.9701984E-1,-1.9759884E-2,-4.322435E-1,-8.00764E-1,1.005303E0,-2.2630384E-2,-0E0,-4.0708352E-2,-4.6429895E-2,-6.781299E-1,1.3291955E0,9.393463E-3,-5.219127E-1,-4.589428E-2,9.750612E-2,4.655586E-2,-3.5304766E-2,-1.3227442E-2],"categories":[],"categories_nodes":[],"categories_segments":[],"categories_sizes":[],"default_left":[0,0,0,0,0,0,0,0,0,0,0,0,0,0,0,0,0,0,0,0,0],"id":12,"left_children":[1,3,5,7,-1,9,11,13,-1,-1,-1,-1,15,17,-1,19,-1,-1,-1,-1,-1],"loss_changes":[7.244034E1,2.0483225E1,1.5233345E0,1.9523502E1,0E0,3.462087E0,2.3321152E-1,1.6276627E1,0E0,0E0,0E0,0E0,7.789116E-1,8.985504E0,0E0,9.123101E-1,0E0,0E0,0E0,0E0,0E0],"parents":[2147483647,0,0,1,1,2,2,3,3,5,5,6,6,7,7,12,12,13,13,15,15],"right_children":[2,4,6,8,-1,10,12,14,-1,-1,-1,-1,16,18,-1,20,-1,-1,-1,-1,-1],"split_conditions":[3.9E-1,7.275E-1,4.9333334E-1,8.5502934E-1,-1.9759884E-2,4.7375E-1,4.375E-1,6.7E-1,-2.2630384E-2,-0E0,-4.0708352E-2,-4.6429895E-2,7.4875E-1,3E0,9.393463E-3,5.3375E-1,-4.589428E-2,9.750612E-2,4.655586E-2,-3.5304766E-2,-1.3227442E-2],"split_indices":[5,6,5,25,0,6,24,24,0,0,0,0,6,27,0,4,0,0,0,0,0],"split_type":[0,0,0,0,0,0,0,0,0,0,0,0,0,0,0,0,0,0,0,0,0],"sum_hessian":[1.7377177E2,8.922508E1,8.454669E1,7.2050125E1,1.7174961E1,2.0253197E1,6.4293495E1,6.199292E1,1.0057204E1,1.0039928E1,1.0213269E1,2.786229E1,3.6431206E1,4.386419E1,1.8128733E1,2.423463E1,1.2196578E1,1.5514482E1,2.8349707E1,1.2882869E1,1.1351761E1],"tree_param":{"num_deleted":"0","num_feature":"36","num_nodes":"21","size_leaf_vector":"1"}},{"base_weights":[1.6426216E-3,6.187298E-1,-5.7986456E-1,-3.09575E-1,9.2409724E-1,-6.768806E-1,-1.01919295E-2,-3.685631E-2,7.881339E-3,1.5538169E0,1.8631981E-1,-8.756152E-3,-7.545054E-1,8.6928815E-1,1.401793E-1,3.8638677E-2,-1.21581955E-2,-4.4541452E-2,-6.1724335E-1,7.641581E-2,-8.0514414E-4,-1.0594578E-2,-4.087503E-2],"categories":[],"categories_nodes":[],"categories_segments":[],"categories_sizes":[],"default_left":[0,0,0,0,0,0,0,0,0,0,0,0,0,0,0,0,0,0,0,0,0,0,0],"id":13,"left_children":[1,3,5,7,9,11,-1,-1,-1,13,15,-1,17,19,-1,-1,-1,-1,21,-1,-1,-1,-1],"loss_changes":[6.3049515E1,2.453373E1,3.070774E0,4.5261908E0,2.9518307E1,2.547882E0,0E0,0E0,0E0,2.6802025E1,8.030393E0,0E0,4.441719E-1,1.4098705E1,0E0,0E0,0E0,0E0,2.4925127E0,0E0,0E0,0E0,0E0],"parents":[2147483647,0,0,1,1,2,2,3,3,4,4,5,5,9,9,10,10,12,12,13,13,18,18],"right_children":[2,4,6,8,10,12,-1,-1,-1,14,16,-1,18,20,-1,-1,-1,-1,22,-1,-1,-1,-1],"split_conditions":[3.425E-1,4E0,1E0,2.2666667E-1,6E0,3.3833334E-1,-1.01919295E-2,-3.685631E-2,7.881339E-3,8.7333333E-1,8.416667E-2,-8.756152E-3,4.575E-1,7.5333333E-1,1.401793E-1,3.8638677E-2,-1.21581955E-2,-4.4541452E-2,5.5E-1,7.641581E-2,-8.0514414E-4,-1.0594578E-2,-4.087503E-2],"split_indices":[5,0,17,5,0,23,0,0,0,14,5,0,15,12,0,0,0,0,6,0,0,0,0],"split_type":[0,0,0,0,0,0,0,0,0,0,0,0,0,0,0,0,0,0,0,0,0,0,0],"sum_hessian":[1.7369272E2,8.432072E1,8.937201E1,2.0787197E1,6.353352E1,7.019533E1,1.9176676E1,1.0664275E1,1.0122923E1,3.360706E1,2.9926462E1,1.0013503E1,6.0181828E1,2.2861069E1,1.0745989E1,1.2411825E1,1.7514637E1,2.7074196E1,3.310763E1,1.275435E1,1.0106719E1,1.1793399E1,2.1314232E1],"tree_param":{"num_deleted":"0","num_feature":"36","num_nodes":"23","size_leaf_vector":"1"}},{"base_weights":[-1.942944E-2,-6.978741E-1,4.5529E-1,-4.3031123E-2,-4.4081175E-1,9.862927E-1,-4.7658673E-1,3.5784903E-4,-4.0810637E-2,1.2576311E0,-1.6803257E-2,-2.3944683E-1,-4.5812868E-2,1.642222E0,-7.1694935E-3,5.713135E-3,-2.6276696E-2,1.1200457E-1,3.2810546E-2],"categories":[],"categories_nodes":[],"categories_segments":[],"categories_sizes":[],"default_left":[0,0,0,0,0,0,0,0,0,0,0,0,0,0,0,0,0,0,0],"id":14,"left_children":[1,3,5,-1,7,9,11,-1,-1,13,-1,15,-1,17,-1,-1,-1,-1,-1],"loss_changes":[5.6864525E1,2.5331612E0,5.1869076E1,0E0,5.212959E0,2.4374268E1,3.6554565E0,0E0,0E0,3.0262314E1,0E0,2.769013E0,0E0,2.3967827E1,0E0,0E0,0E0,0E0,0E0],"parents":[2147483647,0,0,1,1,2,2,4,4,5,5,6,6,9,9,11,11,13,13],"right_children":[2,4,6,-1,8,10,12,-1,-1,14,-1,16,-1,18,-1,-1,-1,-1,-1],"split_conditions":[4E0,6.356099E-1,1E1,-4.3031123E-2,4.425E-1,7.3125E-1,6.1833334E-1,3.5784903E-4,-4.0810637E-2,7.3875E-1,-1.6803257E-2,4.5375E-1,-4.5812868E-2,6E0,-7.1694935E-3,5.713135E-3,-2.6276696E-2,1.1200457E-1,3.2810546E-2],"split_indices":[0,34,0,0,6,4,14,0,0,15,0,24,0,0,0,0,0,0,0],"split_type":[0,0,0,0,0,0,0,0,0,0,0,0,0,0,0,0,0,0,0],"sum_hessian":[1.7449718E2,7.1727905E1,1.0276927E2,4.2245205E1,2.94827E1,6.549677E1,3.7272503E1,1.3767907E1,1.5714793E1,5.4448833E1,1.1047937E1,2.5364178E1,1.1908327E1,4.2642384E1,1.1806448E1,1.1453934E1,1.3910244E1,2.5691198E1,1.6951185E1],"tree_param":{"num_deleted":"0","num_feature":"36","num_nodes":"19","size_leaf_vector":"1"}},{"base_weights":[-1.4972184E-2,5.18555E-1,-5.5419374E-1,-2.5892634E-2,8.2837206E-1,-1.5864311E-1,-7.438288E-1,1.3948295E0,7.361014E-2,-3.2510146E-2,2.4115507E-2,-4.7702327E-2,-5.8571124E-1,1.2575278E-1,8.696254E-1,3.8305353E-2,-2.2158198E-2,-8.553544E-3,-7.588934E-1,2.1211419E-3,6.695639E-2,-4.6414297E-2,-2.2537507E-2],"categories":[],"categories_nodes":[],"categories_segments":[],"categories_sizes":[],"default_left":[0,0,0,0,0,0,0,0,0,0,0,0,0,0,0,0,0,0,0,0,0,0,0],"id":15,"left_children":[1,3,5,-1,7,9,11,13,15,-1,-1,-1,17,-1,19,-1,-1,-1,21,-1,-1,-1,-1],"loss_changes":[5.0528294E1,2.8780338E1,6.349518E0,0E0,2.8977066E1,9.7108345E0,1.2367706E0,2.0372795E1,1.126515E1,0E0,0E0,0E0,2.3863897E0,0E0,1.0713039E1,0E0,0E0,0E0,7.5744915E-1,0E0,0E0,0E0,0E0],"parents":[2147483647,0,0,1,1,2,2,4,4,5,5,6,6,7,7,8,8,12,12,14,14,18,18],"right_children":[2,4,6,-1,8,10,12,14,16,-1,-1,-1,18,-1,20,-1,-1,-1,22,-1,-1,-1,-1],"split_conditions":[3.3916667E-1,4E0,5.0333333E-1,-2.5892634E-2,6E0,4.825E-1,3.875E-1,2.8646553E-1,8.166666E-2,-3.2510146E-2,2.4115507E-2,-4.7702327E-2,5.95E-1,1.2575278E-1,3.2625E-1,3.8305353E-2,-2.2158198E-2,-8.553544E-3,4.985369E-1,2.1211419E-3,6.695639E-2,-4.6414297E-2,-2.2537507E-2],"split_indices":[5,0,5,0,0,32,24,25,3,0,0,0,24,0,24,0,0,0,7,0,0,0,0],"split_type":[0,0,0,0,0,0,0,0,0,0,0,0,0,0,0,0,0,0,0,0,0,0,0],"sum_hessian":[1.7362361E2,8.719867E1,8.642494E1,1.9838886E1,6.735978E1,2.8772875E1,5.7652065E1,3.7919914E1,2.9439865E1,1.636433E1,1.2408545E1,2.2316278E1,3.5335785E1,1.08335495E1,2.7086367E1,1.2457445E1,1.698242E1,1.1166262E1,2.4169523E1,1.0279161E1,1.6807205E1,1.4088018E1,1.0081505E1],"tree_param":{"num_deleted":"0","num_feature":"36","num_nodes":"23","size_leaf_vector":"1"}},{"base_weights":[-3.939872E-2,-6.340943E-1,3.3788574E-1,-2.972697E-1,-7.994328E-1,8.85652E-1,-2.9175657E-1,1.288288E-2,-3.5680078E-2,-4.2785123E-2,-2.6969716E-2,1.1571432E0,-1.82742E-2,1.5773583E-2,-4.8571864E-1,3.351855E-1,2.0283175E0,-2.891874E-1,-3.942866E-2,4.262958E-2,-1.6470846E-2,1.3277501E-1,6.429913E-2,5.9255357E-3,-3.1881325E-2],"categories":[],"categories_nodes":[],"categories_segments":[],"categories_sizes":[],"default_left":[0,0,0,0,0,0,0,0,0,0,0,0,0,0,0,0,0,0,0,0,0,0,0,0,0],"id":16,"left_children":[1,3,5,7,9,11,13,-1,-1,-1,-1,15,-1,-1,17,19,21,23,-1,-1,-1,-1,-1,-1,-1],"loss_changes":[3.9456837E1,3.4557152E0,3.7387444E1,5.837928E0,5.7582855E-2,2.0138554E1,6.1381807E0,0E0,0E0,0E0,0E0,3.3317528E1,0E0,0E0,1.9808359E0,9.224208E0,6.876953E0,3.7334464E0,0E0,0E0,0E0,0E0,0E0,0E0,0E0],"parents":[2147483647,0,0,1,1,2,2,3,3,4,4,5,5,6,6,11,11,14,14,15,15,16,16,17,17],"right_children":[2,4,6,8,10,12,14,-1,-1,-1,-1,16,-1,-1,18,20,22,24,-1,-1,-1,-1,-1,-1,-1],"split_conditions":[4E0,3.7833333E-1,7E0,4.125E-1,5E0,7.775E-1,9.916667E-2,1.288288E-2,-3.5680078E-2,-4.2785123E-2,-2.6969716E-2,4.525E-1,-1.82742E-2,1.5773583E-2,6.35E-1,4.4293234E-1,7.266667E-1,5.025E-1,-3.942866E-2,4.262958E-2,-1.6470846E-2,1.3277501E-1,6.429913E-2,5.9255357E-3,-3.1881325E-2],"split_indices":[0,12,0,31,27,15,5,0,0,0,0,13,0,0,6,25,32,23,0,0,0,0,0,0,0],"split_type":[0,0,0,0,0,0,0,0,0,0,0,0,0,0,0,0,0,0,0,0,0,0,0,0,0],"sum_hessian":[1.7376967E2,6.728923E1,1.06480446E2,2.3275524E1,4.4013702E1,5.681E1,4.967044E1,1.0037502E1,1.3238022E1,3.398456E1,1.0029146E1,4.680793E1,1.0002069E1,1.1748359E1,3.7922085E1,2.4855844E1,2.1952087E1,2.438379E1,1.3538295E1,1.3901138E1,1.0954705E1,1.0428952E1,1.1523135E1,1.1408238E1,1.297555E1],"tree_param":{"num_deleted":"0","num_feature":"36","num_nodes":"25","size_leaf_vector":"1"}},{"base_weights":[-2.1009503E-2,4.003694E-1,-5.250321E-1,5.9369695E-1,-3.0874211E-2,-3.3344856E-1,-4.430871E-2,-1.2089469E-2,8.306549E-1,-6.151396E-1,-9.052791E-3,1.3357769E0,1.3686687E-1,-1.7848967E-2,-3.644444E-2,-2.1313539E-2,2.143391E-2,3.8196974E-2,1.1985997E-1,-1.659291E-2,3.784136E-2],"categories":[],"categories_nodes":[],"categories_segments":[],"categories_sizes":[],"default_left":[0,0,0,0,0,0,0,0,0,0,0,0,0,0,0,0,0,0,0,0,0],"id":17,"left_children":[1,3,5,7,-1,9,-1,-1,11,13,15,17,19,-1,-1,-1,-1,-1,-1,-1,-1],"loss_changes":[3.7275166E1,1.9152523E1,5.116295E0,1.6262304E1,0E0,4.8703423E0,0E0,0E0,2.1849812E1,4.753275E-1,4.9851055E0,1.9962555E1,8.390347E0,0E0,0E0,0E0,0E0,0E0,0E0,0E0,0E0],"parents":[2147483647,0,0,1,1,2,2,3,3,5,5,8,8,9,9,10,10,11,11,12,12],"right_children":[2,4,6,8,-1,10,-1,-1,12,14,16,18,20,-1,-1,-1,-1,-1,-1,-1,-1],"split_conditions":[3.3916667E-1,7.3125E-1,6.225E-1,4E0,-3.0874211E-2,4E0,-4.430871E-2,-1.2089469E-2,6E0,3.6125E-1,4.875E-1,8.775E-1,7.866667E-1,-1.7848967E-2,-3.644444E-2,-2.1313539E-2,2.143391E-2,3.8196974E-2,1.1985997E-1,-1.659291E-2,3.784136E-2],"split_indices":[3,4,23,0,0,0,0,0,0,22,12,14,30,0,0,0,0,0,0,0,0],"split_type":[0,0,0,0,0,0,0,0,0,0,0,0,0,0,0,0,0,0,0,0,0],"sum_hessian":[1.7345949E2,9.447916E1,7.898033E1,7.983125E1,1.4647906E1,5.304207E1,2.5938261E1,1.7541067E1,6.2290188E1,2.7745E1,2.5297068E1,3.542734E1,2.6862844E1,1.0020451E1,1.772455E1,1.3082385E1,1.2214684E1,2.4202356E1,1.1224985E1,1.5470033E1,1.1392811E1],"tree_param":{"num_deleted":"0","num_feature":"36","num_nodes":"21","size_leaf_vector":"1"}},{"base_weights":[-5.1676687E-2,-6.7555624E-1,3.1174386E-1,-4.1730873E-2,-4.4968826E-1,6.5315986E-1,-4.3348753E-1,-4.8244353E-3,-4.2287406E-2,8.3926183E-1,-2.3799855E-2,-2.1581858E-1,-3.6036216E-2,3.660298E-1,1.4328538E0,6.3458043E-3,-2.7576763E-2,-0E0,4.7877897E-2,1.6919171E-2,1.061785E-1],"categories":[],"categories_nodes":[],"categories_segments":[],"categories_sizes":[],"default_left":[0,0,0,0,0,0,0,0,0,0,0,0,0,0,0,0,0,0,0,0,0],"id":18,"left_children":[1,3,5,-1,7,9,11,-1,-1,13,-1,15,-1,17,19,-1,-1,-1,-1,-1,-1],"loss_changes":[3.985585E1,1.8214989E0,2.8540655E1,0E0,3.9050527E0,1.6531944E1,1.9626083E0,0E0,0E0,1.7890984E1,0E0,2.6151376E0,0E0,8.268645E0,2.090366E1,0E0,0E0,0E0,0E0,0E0,0E0],"parents":[2147483647,0,0,1,1,2,2,4,4,5,5,6,6,9,9,11,11,13,13,14,14],"right_children":[2,4,6,-1,8,10,12,-1,-1,14,-1,16,-1,18,20,-1,-1,-1,-1,-1,-1],"split_conditions":[4E0,6.3075036E-1,1E1,-4.1730873E-2,5.3125E-1,7.9125E-1,5.45E-1,-4.8244353E-3,-4.2287406E-2,5.05E-1,-2.3799855E-2,6.813885E-1,-3.6036216E-2,8.2166666E-1,0E0,6.3458043E-3,-2.7576763E-2,-0E0,4.7877897E-2,1.6919171E-2,1.061785E-1],"split_indices":[0,16,0,0,6,15,3,0,0,15,0,34,0,32,29,0,0,0,0,0,0],"split_type":[0,0,0,0,0,0,0,0,0,0,0,0,0,0,0,0,0,0,0,0,0],"sum_hessian":[1.736957E2,6.3721706E1,1.0997399E2,3.5549255E1,2.8172453E1,7.5597786E1,3.4376198E1,1.5682855E1,1.2489597E1,6.5197556E1,1.0400235E1,2.0750732E1,1.3625467E1,3.7269844E1,2.792771E1,1.0428408E1,1.0322325E1,2.3660067E1,1.3609777E1,1.1438144E1,1.6489565E1],"tree_param":{"num_deleted":"0","num_feature":"36","num_nodes":"21","size_leaf_vector":"1"}},{"base_weights":[-6.1989184E-2,-5.6747204E-1,3.099951E-1,-1.9016598E-3,-6.6314584E-1,4.3620312E-1,-3.648996E-2,-4.774765E-1,-8.353173E-1,8.85008E-1,1.1545635E-1,-3.9492864E-2,-1.0279897E-2,-4.7395937E-2,-2.7001902E-2,6.765225E-2,4.699464E-1,-2.0333421E-1,3.606761E-2,4.108548E-2,2.9868283E-3,-3.280271E-2,4.7791065E-3],"categories":[],"categories_nodes":[],"categories_segments":[],"categories_sizes":[],"default_left":[0,0,0,0,0,0,0,0,0,0,0,0,0,0,0,0,0,0,0,0,0,0,0],"id":19,"left_children":[1,3,5,-1,7,9,-1,11,13,15,17,-1,-1,-1,-1,-1,19,21,-1,-1,-1,-1,-1],"loss_changes":[3.279525E1,3.6505642E0,1.346311E1,0E0,1.4650116E0,1.2787327E1,0E0,2.5104113E0,3.6234474E-1,6.4336567E0,1.0610481E1,0E0,0E0,0E0,0E0,0E0,2.9550304E0,4.98953E0,0E0,0E0,0E0,0E0,0E0],"parents":[2147483647,0,0,1,1,2,2,4,4,5,5,7,7,8,8,9,9,10,10,16,16,17,17],"right_children":[2,4,6,-1,8,10,-1,12,14,16,18,-1,-1,-1,-1,-1,20,22,-1,-1,-1,-1,-1],"split_conditions":[7.0573545E-1,4.1666666E-1,8.5375E-1,-1.9016598E-3,6.2166667E-1,4.5375E-1,-3.648996E-2,4.575E-1,7.4666667E-1,5.6875E-1,8.525E-1,-3.9492864E-2,-1.0279897E-2,-4.7395937E-2,-2.7001902E-2,6.765225E-2,1.6583334E-1,5.9583336E-1,3.606761E-2,4.108548E-2,2.9868283E-3,-3.280271E-2,4.7791065E-3],"split_indices":[7,5,15,0,3,6,0,15,32,24,23,0,0,0,0,0,3,32,0,0,0,0,0],"split_type":[0,0,0,0,0,0,0,0,0,0,0,0,0,0,0,0,0,0,0,0,0,0,0],"sum_hessian":[1.7234094E2,7.295161E1,9.9389336E1,1.1539142E1,6.141246E1,8.923486E1,1.0154472E1,3.16429E1,2.9769562E1,3.632964E1,5.2905228E1,1.3666958E1,1.7975943E1,1.9705996E1,1.0063565E1,1.5899762E1,2.0429878E1,3.4993073E1,1.7912153E1,1.0327186E1,1.0102692E1,1.35742035E1,2.1418869E1],"tree_param":{"num_deleted":"0","num_feature":"36","num_nodes":"23","size_leaf_vector":"1"}},{"base_weights":[-7.968703E-2,3.2764453E-1,-5.3759366E-1,1.9364911E-1,6.246915E-2,-3.924244E-1,-8.1370884E-1,4.5699623E-1,-4.1011855E-1,1.1755577E-2,-5.5416E-1,-4.6805404E-2,-2.7285973E-2,-7.417275E-3,7.1020305E-1,-3.351997E-2,-2.6411357E-4,-3.1459522E-1,-4.0323246E-2,6.2481046E-2,2.2292871E-2,-2.8840182E-2,1.5491982E-3],"categories":[],"categories_nodes":[],"categories_segments":[],"categories_sizes":[],"default_left":[0,0,0,0,0,0,0,0,0,0,0,0,0,0,0,0,0,0,0,0,0,0,0],"id":20,"left_children":[1,3,5,7,-1,9,11,13,15,-1,17,-1,-1,-1,19,-1,-1,21,-1,-1,-1,-1,-1],"loss_changes":[3.2530285E1,1.1007051E1,2.8510265E0,1.3201041E1,0E0,5.8438816E0,2.3063469E-1,8.983688E0,2.5905566E0,0E0,2.3501062E0,0E0,0E0,0E0,5.1012516E0,0E0,0E0,2.327965E0,0E0,0E0,0E0,0E0,0E0],"parents":[2147483647,0,0,1,1,2,2,3,3,5,5,6,6,7,7,8,8,10,10,14,14,17,17],"right_children":[2,4,6,8,-1,10,12,14,16,-1,18,-1,-1,-1,20,-1,-1,22,-1,-1,-1,-1,-1],"split_conditions":[3.025E-1,9.2833334E-1,6.225E-1,6E0,6.246915E-2,4.8842025E-1,4.8673818E-1,4E0,7.7416664E-1,1.1755577E-2,5.2375E-1,-4.6805404E-2,-2.7285973E-2,-7.417275E-3,6.975E-1,-3.351997E-2,-2.6411357E-4,4.5625E-1,-4.0323246E-2,6.2481046E-2,2.2292871E-2,-2.8840182E-2,1.5491982E-3],"split_indices":[3,23,23,0,0,16,7,0,30,0,6,0,0,0,21,0,0,13,0,0,0,0,0],"split_type":[0,0,0,0,0,0,0,0,0,0,0,0,0,0,0,0,0,0,0,0,0,0,0],"sum_hessian":[1.7234964E2,9.12469E1,8.110274E1,8.081693E1,1.04299755E1,5.498004E1,2.6122696E1,5.655701E1,2.4259918E1,1.1046709E1,4.3933334E1,1.5964828E1,1.0157868E1,1.66857E1,3.987131E1,1.4216642E1,1.0043276E1,2.3891485E1,2.004185E1,1.1762829E1,2.8108484E1,1.3368446E1,1.0523039E1],"tree_param":{"num_deleted":"0","num_feature":"36","num_nodes":"23","size_leaf_vector":"1"}},{"base_weights":[-1.1920632E-3,2.2922294E-1,-6.200358E-1,3.9369267E-1,-5.856759E-1,-1.709207E-2,-7.654946E-1,-2.602835E-2,5.1158047E-1,-9.211084E-3,-4.536928E-2,-4.4833772E-2,-2.2352682E-2,6.5264976E-1,-2.475323E-3,5.069955E-2,1.2734535E-2],"categories":[],"categories_nodes":[],"categories_segments":[],"categories_sizes":[],"default_left":[0,0,0,0,0,0,0,0,0,0,0,0,0,0,0,0,0],"id":21,"left_children":[1,3,5,7,9,-1,11,-1,13,-1,-1,-1,-1,15,-1,-1,-1],"loss_changes":[2.4941668E1,1.7252344E1,1.5497303E0,1.1743383E1,2.520093E0,0E0,7.2416687E-1,0E0,7.606718E0,0E0,0E0,0E0,0E0,1.055402E1,0E0,0E0,0E0],"parents":[2147483647,0,0,1,1,2,2,3,3,4,4,6,6,8,8,13,13],"right_children":[2,4,6,8,10,-1,12,-1,14,-1,-1,-1,-1,16,-1,-1,-1],"split_conditions":[5.208333E-1,7.325E-1,6.3416666E-1,1.75E-1,2.5416666E-1,-1.709207E-2,7.3833334E-1,-2.602835E-2,7.55E-1,-9.211084E-3,-4.536928E-2,-4.4833772E-2,-2.2352682E-2,4.8375E-1,-2.475323E-3,5.069955E-2,1.2734535E-2],"split_indices":[5,6,5,21,5,0,32,0,22,0,0,0,0,4,0,0,0],"split_type":[0,0,0,0,0,0,0,0,0,0,0,0,0,0,0,0,0],"sum_hessian":[1.7264687E2,1.2614654E2,4.6500324E1,1.0549438E2,2.0652164E1,1.735188E1,2.9148443E1,1.1562127E1,9.393225E1,1.0025295E1,1.0626869E1,1.9135689E1,1.0012754E1,7.507246E1,1.885979E1,3.8403427E1,3.666903E1],"tree_param":{"num_deleted":"0","num_feature":"36","num_nodes":"17","size_leaf_vector":"1"}},{"base_weights":[1.5936222E-2,3.495399E-1,-4.5144835E-1,4.8664215E-1,-3.0811695E-2,-6.088558E-1,3.6310162E-3,6.8633765E-1,-3.926067E-2,-4.6500605E-1,-4.22387E-2,8.335149E-2,4.4215998E-1,-2.8664013E-2,1.8951906E-2,-1.8876626E-3,-6.50205E-1,7.3169232E-3,3.99972E-2,-1.788096E-2,-4.0304486E-2],"categories":[],"categories_nodes":[],"categories_segments":[],"categories_sizes":[],"default_left":[0,0,0,0,0,0,0,0,0,0,0,0,0,0,0,0,0,0,0,0,0],"id":22,"left_children":[1,3,5,7,-1,9,-1,11,13,15,-1,-1,17,-1,-1,-1,19,-1,-1,-1,-1],"loss_changes":[2.7336296E1,1.3850679E1,6.11456E0,9.580542E0,0E0,1.3883018E0,0E0,1.4779509E1,5.971884E0,2.8730478E0,0E0,0E0,5.5066385E0,0E0,0E0,0E0,7.779169E-1,0E0,0E0,0E0,0E0],"parents":[2147483647,0,0,1,1,2,2,3,3,5,5,7,7,8,8,9,9,12,12,16,16],"right_children":[2,4,6,8,-1,10,-1,12,14,16,-1,-1,18,-1,-1,-1,20,-1,-1,-1,-1],"split_conditions":[3.4583333E-1,8.59542E-1,1E0,6.6E-1,-3.0811695E-2,6.1833334E-1,3.6310162E-3,3.9E-1,7.8333336E-1,5.215588E-1,-4.22387E-2,8.335149E-2,8.25E-1,-2.8664013E-2,1.8951906E-2,-1.8876626E-3,3.7625E-1,7.3169232E-3,3.99972E-2,-1.788096E-2,-4.0304486E-2],"split_indices":[5,25,17,24,0,23,0,4,14,7,0,0,21,0,0,0,22,0,0,0,0],"split_type":[0,0,0,0,0,0,0,0,0,0,0,0,0,0,0,0,0,0,0,0,0],"sum_hessian":[1.7337451E2,1.0143771E2,7.19368E1,8.935276E1,1.2084954E1,5.5343155E1,1.6593643E1,6.467825E1,2.4674505E1,3.6489086E1,1.8854069E1,1.1650326E1,5.302793E1,1.0780359E1,1.3894147E1,1.1561225E1,2.492786E1,2.995181E1,2.3076118E1,1.0032712E1,1.4895148E1],"tree_param":{"num_deleted":"0","num_feature":"36","num_nodes":"21","size_leaf_vector":"1"}},{"base_weights":[8.339539E-3,-5.8039784E-1,3.116016E-1,-7.2450435E-1,-8.393347E-3,7.783894E-1,-2.0072061E-1,-5.7632315E-1,-4.6657067E-2,1.0019019E0,-7.0612445E-3,3.3835843E-2,-4.1306925E-1,-1.4587871E-2,-3.991706E-2,3.833594E-1,1.6331018E0,2.0496135E-3,-5.840941E-1,4.177011E-2,-9.547529E-3,5.5405017E-2,1.07041396E-1,-3.8385674E-2,-2.201238E-2],"categories":[],"categories_nodes":[],"categories_segments":[],"categories_sizes":[],"default_left":[0,0,0,0,0,0,0,0,0,0,0,0,0,0,0,0,0,0,0,0,0,0,0,0,0],"id":23,"left_children":[1,3,5,7,-1,9,11,13,-1,15,-1,-1,17,-1,-1,19,21,-1,23,-1,-1,-1,-1,-1,-1],"loss_changes":[3.1327887E1,3.3321934E0,2.7955925E1,6.619282E-1,0E0,1.27672E1,1.0686775E1,1.4549074E0,0E0,1.8415989E1,0E0,0E0,3.634807E0,0E0,0E0,7.0468435E0,3.702423E0,0E0,4.2589188E-1,0E0,0E0,0E0,0E0,0E0,0E0],"parents":[2147483647,0,0,1,1,2,2,3,3,5,5,6,6,7,7,9,9,12,12,15,15,16,16,18,18],"right_children":[2,4,6,8,-1,10,12,14,-1,16,-1,-1,18,-1,-1,20,22,-1,24,-1,-1,-1,-1,-1,-1],"split_conditions":[4E0,7.5245017E-1,6E0,6E-1,-8.393347E-3,7.475E-1,2.6601514E-1,6.6017634E-1,-4.6657067E-2,4.525E-1,-7.0612445E-3,3.3835843E-2,2.8E-1,-1.4587871E-2,-3.991706E-2,4.7055817E-1,4.4704664E-1,2.0496135E-3,4.55E-1,4.177011E-2,-9.547529E-3,5.5405017E-2,1.07041396E-1,-3.8385674E-2,-2.201238E-2],"split_indices":[0,16,0,5,0,15,34,7,0,13,0,0,22,0,0,34,34,0,31,0,0,0,0,0,0],"split_type":[0,0,0,0,0,0,0,0,0,0,0,0,0,0,0,0,0,0,0,0,0,0,0,0,0],"sum_hessian":[1.7360298E2,5.8598763E1,1.1500422E2,4.268816E1,1.5910603E1,6.000669E1,5.4997528E1,2.7440557E1,1.5247602E1,4.8289238E1,1.1717451E1,1.019859E1,4.479894E1,1.3237839E1,1.4202719E1,2.528099E1,2.3008247E1,1.2305123E1,3.2493816E1,1.3989374E1,1.1291616E1,1.2973134E1,1.0035114E1,1.2063104E1,2.0430712E1],"tree_param":{"num_deleted":"0","num_feature":"36","num_nodes":"25","size_leaf_vector":"1"}},{"base_weights":[2.057196E-2,-5.332031E-1,2.961478E-1,-2.1518552E-1,-7.0242923E-1,5.5067784E-1,-3.8036683E-1,-3.248881E-2,1.261906E-2,-4.284184E-2,-2.2813313E-2,6.621551E-2,3.515935E-1,-6.0717664E-3,-3.794635E-2,8.5173434E-1,1.22378916E-1,-6.087422E-3,8.965033E-2,3.020576E-2,-3.3122872E-3],"categories":[],"categories_nodes":[],"categories_segments":[],"categories_sizes":[],"default_left":[0,0,0,0,0,0,0,0,0,0,0,0,0,0,0,0,0,0,0,0,0],"id":24,"left_children":[1,3,5,7,9,11,13,-1,-1,-1,-1,-1,15,-1,-1,17,19,-1,-1,-1,-1],"loss_changes":[2.6603008E1,2.8713818E0,2.0300074E1,4.6223817E0,8.8876915E-1,1.2492544E1,2.9911494E0,0E0,0E0,0E0,0E0,0E0,7.736471E0,0E0,0E0,2.004624E1,4.5270133E0,0E0,0E0,0E0,0E0],"parents":[2147483647,0,0,1,1,2,2,3,3,4,4,5,5,6,6,12,12,15,15,16,16],"right_children":[2,4,6,8,10,12,14,-1,-1,-1,-1,-1,16,-1,-1,18,20,-1,-1,-1,-1],"split_conditions":[4E0,3.45E-1,1E1,6.3561606E-1,5.825E-1,2.6018155E-1,5.55E-1,-3.248881E-2,1.261906E-2,-4.284184E-2,-2.2813313E-2,6.621551E-2,6.625E-1,-6.0717664E-3,-3.794635E-2,5.4E-1,2.7384353E-1,-6.087422E-3,8.965033E-2,3.020576E-2,-3.3122872E-3],"split_indices":[0,31,0,16,24,34,14,0,0,0,0,0,12,0,0,14,25,0,0,0,0],"split_type":[0,0,0,0,0,0,0,0,0,0,0,0,0,0,0,0,0,0,0,0,0],"sum_hessian":[1.7244423E2,5.6868366E1,1.1557586E2,2.0745316E1,3.612305E1,8.422216E1,3.1353699E1,1.0660679E1,1.0084638E1,2.0424578E1,1.5698473E1,1.59780245E1,6.824413E1,1.9559874E1,1.1793825E1,2.0456459E1,4.7787674E1,1.0431946E1,1.0024513E1,1.297576E1,3.4811916E1],"tree_param":{"num_deleted":"0","num_feature":"36","num_nodes":"21","size_leaf_vector":"1"}},{"base_weights":[6.83927E-2,3.4727538E-1,-4.865348E-1,-3.1087297E-1,5.20131E-1,-6.617126E-1,-6.7365053E-3,1.2072575E-2,-3.601719E-2,8.505211E-1,1.7020298E-2,-4.8567668E-1,-4.6162248E-2,9.8663025E-2,5.4958874E-1,3.2834765E-2,-2.829624E-1,-3.3778423E-3,-4.225133E-2,8.750468E-3,5.707689E-2,8.4604585E-4,-3.0443637E-2],"categories":[],"categories_nodes":[],"categories_segments":[],"categories_sizes":[],"default_left":[0,0,0,0,0,0,0,0,0,0,0,0,0,0,0,0,0,0,0,0,0,0,0],"id":25,"left_children":[1,3,5,7,9,11,-1,-1,-1,13,15,17,-1,-1,19,-1,21,-1,-1,-1,-1,-1,-1],"loss_changes":[2.708257E1,1.3436572E1,3.4360037E0,5.8168526E0,1.5318264E1,1.1879654E0,0E0,0E0,0E0,1.7534233E1,7.4979877E0,3.669755E0,0E0,0E0,9.758085E0,0E0,2.64975E0,0E0,0E0,0E0,0E0,0E0,0E0],"parents":[2147483647,0,0,1,1,2,2,3,3,4,4,5,5,9,9,10,10,11,11,14,14,16,16],"right_children":[2,4,6,8,10,12,-1,-1,-1,14,16,18,-1,-1,20,-1,22,-1,-1,-1,-1,-1,-1],"split_conditions":[4.1666666E-1,4E0,6.2831014E-1,3.9125E-1,6E0,6.225E-1,-6.7365053E-3,1.2072575E-2,-3.601719E-2,6.2166667E-1,5.4166667E-2,5.2158564E-1,-4.6162248E-2,9.8663025E-2,8.2416666E-1,3.2834765E-2,5.0125E-1,-3.3778423E-3,-4.225133E-2,8.750468E-3,5.707689E-2,8.4604585E-4,-3.0443637E-2],"split_indices":[5,0,16,33,0,23,0,0,0,12,3,16,0,0,23,0,4,0,0,0,0,0,0],"split_type":[0,0,0,0,0,0,0,0,0,0,0,0,0,0,0,0,0,0,0,0,0,0,0],"sum_hessian":[1.729958E2,1.1550324E2,5.7492554E1,2.3739199E1,9.1764046E1,3.760323E1,1.9889326E1,1.0177351E1,1.3561849E1,5.4853054E1,3.6910988E1,2.4411436E1,1.31917925E1,1.0349809E1,4.4503242E1,1.1510517E1,2.5400473E1,1.1960792E1,1.24506445E1,2.8152933E1,1.6350311E1,1.3562403E1,1.183807E1],"tree_param":{"num_deleted":"0","num_feature":"36","num_nodes":"23","size_leaf_vector":"1"}},{"base_weights":[-4.00151E-2,-4.9240842E-1,1.6634151E-1,-1.1683493E-2,-7.6915693E-1,5.061576E-1,-2.441394E-1,-3.1937625E-2,3.1220058E-2,-4.484405E-2,-2.758798E-2,6.6551155E-1,-1.5961524E-2,2.55331E-2,-4.8451096E-1,3.7841538E-1,8.7164976E-2,-2.2494945E-1,-3.937248E-2,-7.691376E-3,3.1271003E-2,5.102329E-3,-2.9100409E-2],"categories":[],"categories_nodes":[],"categories_segments":[],"categories_sizes":[],"default_left":[0,0,0,0,0,0,0,0,0,0,0,0,0,0,0,0,0,0,0,0,0,0,0],"id":26,"left_children":[1,3,5,7,9,11,13,-1,-1,-1,-1,15,-1,-1,17,19,-1,21,-1,-1,-1,-1,-1],"loss_changes":[1.6444847E1,7.2569294E0,1.6989735E1,8.90245E0,3.2894516E-1,8.994713E0,1.0263454E1,0E0,0E0,0E0,0E0,1.650895E1,0E0,0E0,3.0631075E0,6.152167E0,0E0,2.963729E0,0E0,0E0,0E0,0E0,0E0],"parents":[2147483647,0,0,1,1,2,2,3,3,4,4,5,5,6,6,11,11,14,14,15,15,17,17],"right_children":[2,4,6,8,10,12,14,-1,-1,-1,-1,16,-1,-1,18,20,-1,22,-1,-1,-1,-1,-1],"split_conditions":[4E0,3.45E-1,6E0,6.4029413E-1,5.825E-1,8.441667E-1,2.971742E-1,-3.1937625E-2,3.1220058E-2,-4.484405E-2,-2.758798E-2,8.2166666E-1,-1.5961524E-2,2.55331E-2,6E0,4.9333334E-1,8.7164976E-2,6.091667E-1,-3.937248E-2,-7.691376E-3,3.1271003E-2,5.102329E-3,-2.9100409E-2],"split_indices":[0,31,0,16,24,30,34,0,0,0,0,32,0,0,27,32,0,32,0,0,0,0,0],"split_type":[0,0,0,0,0,0,0,0,0,0,0,0,0,0,0,0,0,0,0,0,0,0,0],"sum_hessian":[1.7392844E2,5.4201492E1,1.1972694E2,2.0315714E1,3.388578E1,6.5507324E1,5.4219612E1,1.0307413E1,1.0008301E1,1.9086601E1,1.4799178E1,5.5170628E1,1.0336694E1,1.2723981E1,4.1495632E1,4.470595E1,1.0464679E1,2.3464027E1,1.8031605E1,1.4162067E1,3.0543882E1,1.2474217E1,1.0989809E1],"tree_param":{"num_deleted":"0","num_feature":"36","num_nodes":"23","size_leaf_vector":"1"}},{"base_weights":[-3.5877395E-2,-6.479013E-1,2.3664457E-1,-1.4493476E-2,-7.703954E-1,5.6536174E-1,-1.6762704E-1,-2.2380393E-2,-4.308507E-2,7.5975704E-1,-2.3396503E-2,1.6532851E-2,-3.2181317E-1,3.2545316E-1,1.1390543E0,-6.2310793E-2,-3.0232748E-2,-6.475719E-3,4.3091875E-2,3.1056702E-2,9.760285E-2,1.605253E-2,-2.1689784E-2],"categories":[],"categories_nodes":[],"categories_segments":[],"categories_sizes":[],"default_left":[0,0,0,0,0,0,0,0,0,0,0,0,0,0,0,0,0,0,0,0,0,0,0],"id":27,"left_children":[1,3,5,-1,7,9,11,-1,-1,13,-1,-1,15,17,19,21,-1,-1,-1,-1,-1,-1,-1],"loss_changes":[2.9236708E1,2.0401134E0,1.6227333E1,0E0,6.4585876E-1,1.3873949E1,4.3266754E0,0E0,0E0,8.869865E0,0E0,0E0,3.0237813E0,7.039551E0,1.1118309E1,3.500926E0,0E0,0E0,0E0,0E0,0E0,0E0,0E0],"parents":[2147483647,0,0,1,1,2,2,4,4,5,5,6,6,9,9,12,12,13,13,14,14,15,15],"right_children":[2,4,6,-1,8,10,12,-1,-1,14,-1,-1,16,18,20,22,-1,-1,-1,-1,-1,-1,-1],"split_conditions":[4E0,2.75E-1,6E0,-1.4493476E-2,2.4375E-1,7.9125E-1,2.7924502E-1,-2.2380393E-2,-4.308507E-2,4.525E-1,-2.3396503E-2,1.6532851E-2,6.566667E-1,8.283333E-1,4.2180684E-1,4.6875E-1,-3.0232748E-2,-6.475719E-3,4.3091875E-2,3.1056702E-2,9.760285E-2,1.605253E-2,-2.1689784E-2],"split_indices":[0,3,0,0,31,15,34,0,0,13,0,0,14,14,16,24,0,0,0,0,0,0,0],"split_type":[0,0,0,0,0,0,0,0,0,0,0,0,0,0,0,0,0,0,0,0,0,0,0],"sum_hessian":[1.7312476E2,5.3027122E1,1.2009764E2,1.4583759E1,3.8443363E1,6.6155136E1,5.3942505E1,1.0019529E1,2.8423832E1,5.5984215E1,1.0170922E1,1.2323499E1,4.1619003E1,2.7088717E1,2.8895498E1,2.2525818E1,1.9093187E1,1.4966263E1,1.2122454E1,1.8803684E1,1.0091814E1,1.1020039E1,1.1505779E1],"tree_param":{"num_deleted":"0","num_feature":"36","num_nodes":"23","size_leaf_vector":"1"}},{"base_weights":[-1.14253685E-2,1.0728475E-1,-7.487828E-1,2.242234E-1,-3.0912776E-2,-4.5773245E-2,-2.526786E-2,1.2955587E-1,5.6595128E-2,2.2307785E-1,-3.128665E-2,1.5629163E-2,-2.5372325E-2],"categories":[],"categories_nodes":[],"categories_segments":[],"categories_sizes":[],"default_left":[0,0,0,0,0,0,0,0,0,0,0,0,0],"id":28,"left_children":[1,3,5,7,-1,-1,-1,9,-1,11,-1,-1,-1],"loss_changes":[1.5265783E1,1.2787992E1,3.7708855E-1,1.0867615E1,0E0,0E0,0E0,8.479079E0,0E0,7.097287E0,0E0,0E0,0E0],"parents":[2147483647,0,0,1,1,2,2,3,3,7,7,9,9],"right_children":[2,4,6,8,-1,-1,-1,10,-1,12,-1,-1,-1],"split_conditions":[6.2166667E-1,7.7375E-1,7.5916666E-1,9.2833334E-1,-3.0912776E-2,-4.5773245E-2,-2.526786E-2,8.594911E-1,5.6595128E-2,8.7583333E-1,-3.128665E-2,1.5629163E-2,-2.5372325E-2],"split_indices":[3,6,3,23,0,0,0,34,0,30,0,0,0],"split_type":[0,0,0,0,0,0,0,0,0,0,0,0,0],"sum_hessian":[1.7175212E2,1.4855461E2,2.3197517E1,1.2864851E2,1.9906088E1,1.1886708E1,1.1310808E1,1.1763277E2,1.1015752E1,1.054168E2,1.22159605E1,9.454228E1,1.0874522E1],"tree_param":{"num_deleted":"0","num_feature":"36","num_nodes":"13","size_leaf_vector":"1"}},{"base_weights":[-2.9213132E-2,1.2930857E-1,-6.566045E-1,2.5438172E-1,-3.0372873E-2,-4.6299074E-2,-4.371037E-1,-1.908669E-1,4.5947555E-1,-4.223963E-3,-3.6491368E-2,-6.427607E-3,-3.1770002E-2,7.340023E-2,2.6651603E-1,1.6273787E-2,-1.0956294E-2,2.5888428E-2,-3.6780115E-3],"categories":[],"categories_nodes":[],"categories_segments":[],"categories_sizes":[],"default_left":[0,0,0,0,0,0,0,0,0,0,0,0,0,0,0,0,0,0,0],"id":29,"left_children":[1,3,5,7,-1,-1,9,11,13,-1,-1,15,-1,-1,17,-1,-1,-1,-1],"loss_changes":[1.7321228E1,1.2894449E1,1.5368118E0,1.1012173E1,0E0,0E0,2.0722609E0,3.0626855E0,1.5422119E1,0E0,0E0,2.0485415E0,0E0,0E0,6.086022E0,0E0,0E0,0E0,0E0],"parents":[2147483647,0,0,1,1,2,2,3,3,6,6,7,7,8,8,11,11,14,14],"right_children":[2,4,6,8,-1,-1,10,12,14,-1,-1,16,-1,-1,18,-1,-1,-1,-1],"split_conditions":[5.45E-1,7.425E-1,3.8375E-1,4.8416665E-1,-3.0372873E-2,-4.6299074E-2,5.9625E-1,6.575E-1,6.225E-1,-4.223963E-3,-3.6491368E-2,3.3166668E-1,-3.1770002E-2,7.340023E-2,5.9625E-1,1.6273787E-2,-1.0956294E-2,2.5888428E-2,-3.6780115E-3],"split_indices":[5,6,6,23,0,0,13,13,23,0,0,30,0,0,22,0,0,0,0],"split_type":[0,0,0,0,0,0,0,0,0,0,0,0,0,0,0,0,0,0,0],"sum_hessian":[1.7177733E2,1.376357E2,3.4141624E1,1.18337265E2,1.9298433E1,1.36795635E1,2.0462063E1,3.7187286E1,8.114998E1,1.0020845E1,1.0441217E1,2.7158491E1,1.0028796E1,1.1888266E1,6.926171E1,1.0216251E1,1.694224E1,3.9701385E1,2.956033E1],"tree_param":{"num_deleted":"0","num_feature":"36","num_nodes":"19","size_leaf_vector":"1"}},{"base_weights":[-3.9739233E-2,1.0081297E-1,-7.033555E-1,-4.17011E-1,2.7243096E-1,-4.643571E-2,-2.2187514E-2,8.278466E-4,-3.4267854E-2,4.0515456E-1,-2.025076E-2,6.8001723E-1,2.3962568E-2,6.887793E-2,2.1629019E-2,-9.687114E-3,2.0638103E-2],"categories":[],"categories_nodes":[],"categories_segments":[],"categories_sizes":[],"default_left":[0,0,0,0,0,0,0,0,0,0,0,0,0,0,0,0,0],"id":30,"left_children":[1,3,5,7,9,-1,-1,-1,-1,11,-1,13,15,-1,-1,-1,-1],"loss_changes":[1.6319567E1,1.2893949E1,1.2399578E0,4.277038E0,9.954435E0,0E0,0E0,0E0,0E0,9.5182705E0,0E0,8.383825E0,3.4534242E0,0E0,0E0,0E0,0E0],"parents":[2147483647,0,0,1,1,2,2,3,3,4,4,9,9,11,11,12,12],"right_children":[2,4,6,8,10,-1,-1,-1,-1,12,-1,14,16,-1,-1,-1,-1],"split_conditions":[5.5333334E-1,4E0,4.9125E-1,3.425E-1,7.6875E-1,-4.643571E-2,-2.2187514E-2,8.278466E-4,-3.4267854E-2,6E0,-2.025076E-2,6.141667E-1,0E0,6.887793E-2,2.1629019E-2,-9.687114E-3,2.0638103E-2],"split_indices":[3,0,24,31,24,0,0,0,0,0,0,12,11,0,0,0,0],"split_type":[0,0,0,0,0,0,0,0,0,0,0,0,0,0,0,0,0],"sum_hessian":[1.7255992E2,1.4297548E2,2.958444E1,3.5088917E1,1.07886566E2,1.4250887E1,1.5333553E1,1.3630961E1,2.1457956E1,9.06719E1,1.7214663E1,5.2075806E1,3.8596092E1,1.2333992E1,3.9741814E1,2.4898748E1,1.3697346E1],"tree_param":{"num_deleted":"0","num_feature":"36","num_nodes":"17","size_leaf_vector":"1"}},{"base_weights":[8.0864215E-3,2.3248146E-1,-4.966824E-1,4.8855388E-1,-7.7334964E-3,-6.7479974E-1,1.1122081E-3,7.0781386E-1,-2.1220302E-2,-2.3739639E-1,4.3731248E-1,-1.8029887E-2,-7.8705084E-1,-2.5139856E-3,9.247317E-1,-2.4876807E-2,-7.539459E-2,4.5417286E-2,-2.9808432E-3,-4.64996E-2,-2.8259927E-2,6.93639E-2,2.46019E-2,-1.3864559E-2,1.2108293E-2],"categories":[],"categories_nodes":[],"categories_segments":[],"categories_sizes":[],"default_left":[0,0,0,0,0,0,0,0,0,0,0,0,0,0,0,0,0,0,0,0,0,0,0,0,0],"id":31,"left_children":[1,3,5,7,9,11,-1,13,-1,15,17,-1,19,-1,21,-1,23,-1,-1,-1,-1,-1,-1,-1,-1],"loss_changes":[1.9793976E1,7.510166E0,5.0455065E0,1.2119961E1,6.558289E0,1.018116E0,0E0,8.020746E0,0E0,1.6996095E0,5.233639E0,0E0,2.2909737E-1,0E0,6.623642E0,0E0,1.8437035E0,0E0,0E0,0E0,0E0,0E0,0E0,0E0,0E0],"parents":[2147483647,0,0,1,1,2,2,3,3,4,4,5,5,7,7,9,9,10,10,12,12,14,14,16,16],"right_children":[2,4,6,8,10,12,-1,14,-1,16,18,-1,20,-1,22,-1,24,-1,-1,-1,-1,-1,-1,-1,-1],"split_conditions":[3.9416668E-1,4.8125E-1,1E0,8.3625E-1,8.9E-1,4.750265E-1,1.1122081E-3,2.4583334E-1,-2.1220302E-2,5.466667E-1,8.75E-1,-1.8029887E-2,6.2861454E-1,-2.5139856E-3,5.7375E-1,-2.4876807E-2,4.0449578E-1,4.5417286E-2,-2.9808432E-3,-4.64996E-2,-2.8259927E-2,6.93639E-2,2.46019E-2,-1.3864559E-2,1.2108293E-2],"split_indices":[3,6,17,31,14,25,0,30,0,32,21,0,25,0,24,0,34,0,0,0,0,0,0,0,0],"split_type":[0,0,0,0,0,0,0,0,0,0,0,0,0,0,0,0,0,0,0,0,0,0,0,0,0],"sum_hessian":[1.7296783E2,1.2024877E2,5.2719067E1,5.790439E1,6.2344387E1,3.916748E1,1.3551589E1,4.696043E1,1.0943958E1,4.157907E1,2.0765316E1,1.1652964E1,2.7514515E1,1.0515972E1,3.6444458E1,1.4924734E1,2.6654337E1,1.0338704E1,1.0426612E1,1.4517858E1,1.2996657E1,1.64366E1,2.0007856E1,1.6564667E1,1.008967E1],"tree_param":{"num_deleted":"0","num_feature":"36","num_nodes":"25","size_leaf_vector":"1"}},{"base_weights":[2.407363E-2,-4.7976708E-1,2.2932178E-1,-5.1782676E-3,-7.065467E-1,3.6455074E-1,-4.1133928E-1,-2.7440405E-2,-4.5389503E-2,6.6338134E-1,-2.1461747E-3,-3.6364384E-2,-3.4073584E-3,4.0537181E-1,6.939055E-2,-3.219418E-1,3.0240998E-1,1.1827518E-3,4.4611078E-2,1.29475E-2,-3.904969E-2,-1.1247844E-2,4.8173834E-2],"categories":[],"categories_nodes":[],"categories_segments":[],"categories_sizes":[],"default_left":[0,0,0,0,0,0,0,0,0,0,0,0,0,0,0,0,0,0,0,0,0,0,0],"id":32,"left_children":[1,3,5,-1,7,9,11,-1,-1,13,15,-1,-1,17,-1,19,21,-1,-1,-1,-1,-1,-1],"loss_changes":[1.7895754E1,4.1145563E0,1.0818434E1,0E0,3.3637047E-1,1.1286696E1,2.2360525E0,0E0,0E0,9.830679E0,4.6591654E0,0E0,0E0,7.920061E0,0E0,6.5161552E0,8.774637E0,0E0,0E0,0E0,0E0,0E0,0E0],"parents":[2147483647,0,0,1,1,2,2,4,4,5,5,6,6,9,9,10,10,13,13,15,15,16,16],"right_children":[2,4,6,-1,8,10,12,-1,-1,14,16,-1,-1,18,-1,20,22,-1,-1,-1,-1,-1,-1],"split_conditions":[4E0,3.45E-1,7.4125E-1,-5.1782676E-3,6.125E-1,6E0,6.433333E-1,-2.7440405E-2,-4.5389503E-2,9.097929E-1,4.8E-1,-3.6364384E-2,-3.4073584E-3,4.1642827E-1,6.939055E-2,6.3666666E-1,8.1416667E-1,1.1827518E-3,4.4611078E-2,1.29475E-2,-3.904969E-2,-1.1247844E-2,4.8173834E-2],"split_indices":[0,31,15,0,32,0,32,0,0,7,24,0,0,25,0,14,12,0,0,0,0,0,0],"split_type":[0,0,0,0,0,0,0,0,0,0,0,0,0,0,0,0,0,0,0,0,0,0,0],"sum_hessian":[1.7123062E2,4.903511E1,1.2219552E2,1.9155664E1,2.9879444E1,1.0138295E2,2.0812567E1,1.9118202E1,1.0761241E1,5.5565144E1,4.5817806E1,1.0101963E1,1.0710603E1,4.2224335E1,1.334081E1,2.2482054E1,2.3335754E1,2.4370512E1,1.7853823E1,1.0020285E1,1.2461768E1,1.3263341E1,1.0072413E1],"tree_param":{"num_deleted":"0","num_feature":"36","num_nodes":"23","size_leaf_vector":"1"}},{"base_weights":[8.5476665E-3,1.2351225E-1,-7.7129316E-1,2.4214289E-1,-3.458901E-2,-2.6983416E-2,-4.5510337E-2,-2.5393254E-1,3.8919207E-1,8.909385E-3,-2.8084224E-2,6.217021E-1,4.2591393E-2,6.962336E-2,1.5935821E-2,-9.499629E-3,2.9923791E-2],"categories":[],"categories_nodes":[],"categories_segments":[],"categories_sizes":[],"default_left":[0,0,0,0,0,0,0,0,0,0,0,0,0,0,0,0,0],"id":33,"left_children":[1,3,5,7,-1,-1,-1,9,11,-1,-1,13,15,-1,-1,-1,-1],"loss_changes":[1.5520365E1,1.4780219E1,7.8886986E-2,9.825091E0,0E0,0E0,0E0,4.246827E0,8.228097E0,0E0,0E0,1.3759254E1,5.6754847E0,0E0,0E0,0E0,0E0],"parents":[2147483647,0,0,1,1,2,2,3,3,7,7,8,8,11,11,12,12],"right_children":[2,4,6,8,-1,-1,-1,10,12,-1,-1,14,16,-1,-1,-1,-1],"split_conditions":[6.3416666E-1,7.7375E-1,6.2833333E-1,4E0,-3.458901E-2,-2.6983416E-2,-4.5510337E-2,3.425E-1,6E0,8.909385E-3,-2.8084224E-2,6.2166667E-1,1E0,6.962336E-2,1.5935821E-2,-9.499629E-3,2.9923791E-2],"split_indices":[5,6,12,0,0,0,0,31,0,0,0,12,10,0,0,0,0],"split_type":[0,0,0,0,0,0,0,0,0,0,0,0,0,0,0,0,0],"sum_hessian":[1.7177385E2,1.5054959E2,2.1224258E1,1.3214696E2,1.8402632E1,1.0058121E1,1.1166137E1,2.989346E1,1.02253494E2,1.2474228E1,1.7419231E1,6.0551517E1,4.170198E1,1.5978345E1,4.4573174E1,2.9737873E1,1.1964107E1],"tree_param":{"num_deleted":"0","num_feature":"36","num_nodes":"17","size_leaf_vector":"1"}},{"base_weights":[7.2183968E-3,1.24145195E-1,-7.0982236E-1,2.1778184E-1,-2.8087491E-2,-4.2747166E-2,-2.231091E-2,3.0138683E-1,-1.6789263E-2,-5.188062E-2,4.7757316E-1,1.1902468E-2,-1.8046489E-2,2.8198084E-3,3.4376267E-2],"categories":[],"categories_nodes":[],"categories_segments":[],"categories_sizes":[],"default_left":[0,0,0,0,0,0,0,0,0,0,0,0,0,0,0],"id":34,"left_children":[1,3,5,7,-1,-1,-1,9,-1,11,13,-1,-1,-1,-1],"loss_changes":[1.4605164E1,9.750215E0,4.2193127E-1,6.263403E0,0E0,0E0,0E0,7.313775E0,0E0,3.6335728E0,6.7814407E0,0E0,0E0,0E0,0E0],"parents":[2147483647,0,0,1,1,2,2,3,3,7,7,9,9,10,10],"right_children":[2,4,6,8,-1,-1,-1,10,-1,12,14,-1,-1,-1,-1],"split_conditions":[6E-1,7.7375E-1,6.825E-1,8.3625E-1,-2.8087491E-2,-4.2747166E-2,-2.231091E-2,3.15E-1,-1.6789263E-2,8.3773506E-1,5.2416664E-1,1.1902468E-2,-1.8046489E-2,2.8198084E-3,3.4376267E-2],"split_indices":[5,6,32,31,0,0,0,31,0,7,21,0,0,0,0],"split_type":[0,0,0,0,0,0,0,0,0,0,0,0,0,0,0],"sum_hessian":[1.7284766E2,1.4944432E2,2.3403343E1,1.3222198E2,1.722233E1,1.3402355E1,1.0000987E1,1.1542553E2,1.6796465E1,3.845606E1,7.696947E1,1.9793365E1,1.8662695E1,2.6185217E1,5.0784252E1],"tree_param":{"num_deleted":"0","num_feature":"36","num_nodes":"15","size_leaf_vector":"1"}},{"base_weights":[1.0372661E-2,-4.7142458E-1,1.909154E-1,-7.3678833E-1,-1.137471E-1,2.9344752E-1,-2.5637755E-2,-1.798456E-2,-4.67752E-2,1.4618598E-2,-2.6878214E-2,6.126539E-1,1.2826069E-1,-5.527339E-3,1.0340289E0,-1.7775507E-1,5.972686E-1,1.4760253E-2,8.691361E-2,-3.1014873E-2,5.115978E-3,-6.318403E-3,6.0300965E-2],"categories":[],"categories_nodes":[],"categories_segments":[],"categories_sizes":[],"default_left":[0,0,0,0,0,0,0,0,0,0,0,0,0,0,0,0,0,0,0,0,0,0,0],"id":35,"left_children":[1,3,5,7,9,11,-1,-1,-1,-1,-1,13,15,-1,17,19,21,-1,-1,-1,-1,-1,-1],"loss_changes":[1.5132802E1,4.326723E0,9.283756E0,1.5458527E0,3.8850975E0,5.727392E0,0E0,0E0,0E0,0E0,0E0,1.1651891E1,1.0906358E1,0E0,1.1726603E1,5.8170514E0,1.3456092E1,0E0,0E0,0E0,0E0,0E0,0E0],"parents":[2147483647,0,0,1,1,2,2,3,3,4,4,5,5,11,11,12,12,14,14,15,15,16,16],"right_children":[2,4,6,8,10,12,-1,-1,-1,-1,-1,14,16,-1,18,20,22,-1,-1,-1,-1,-1,-1],"split_conditions":[4E0,6.356099E-1,7.425E-1,4.2452753E-1,4.25E-1,6E-1,-2.5637755E-2,-1.798456E-2,-4.67752E-2,1.4618598E-2,-2.6878214E-2,4.5E-1,9.097929E-1,-5.527339E-3,3.6833334E-1,7.4583334E-1,3E0,1.4760253E-2,8.691361E-2,-3.1014873E-2,5.115978E-3,-6.318403E-3,6.0300965E-2],"split_indices":[0,34,6,34,6,23,0,0,0,0,0,15,7,0,23,14,9,0,0,0,0,0,0],"split_type":[0,0,0,0,0,0,0,0,0,0,0,0,0,0,0,0,0,0,0,0,0,0,0],"sum_hessian":[1.7225806E2,4.63645E1,1.25893555E2,2.584809E1,2.0516409E1,1.105154E2,1.5378158E1,1.0063732E1,1.5784356E1,1.0514846E1,1.0001563E1,3.6557533E1,7.395786E1,1.3642837E1,2.2914698E1,4.5002594E1,2.895527E1,1.1944676E1,1.0970021E1,1.7109842E1,2.7892752E1,1.3516283E1,1.5438989E1],"tree_param":{"num_deleted":"0","num_feature":"36","num_nodes":"23","size_leaf_vector":"1"}},{"base_weights":[-6.847488E-3,-5.042537E-1,1.7182633E-1,1.1702545E-4,-7.0084345E-1,3.991812E-1,-1.5092096E-1,-5.6514996E-1,-4.5262426E-2,1.9560452E-1,8.1427926E-1,1.3834728E-2,-3.1741392E-2,-3.8252387E-2,-1.3353738E-2,3.347983E-2,-3.159125E-2,6.559243E-2,1.2928543E-2,3.2079216E-2,-2.187942E-1,1.8904835E-2,-1.3306245E-2,-2.5337575E-2,1.4675917E-2],"categories":[],"categories_nodes":[],"categories_segments":[],"categories_sizes":[],"default_left":[0,0,0,0,0,0,0,0,0,0,0,0,0,0,0,0,0,0,0,0,0,0,0,0,0],"id":36,"left_children":[1,3,5,-1,7,9,11,13,-1,15,17,19,-1,-1,-1,-1,21,-1,-1,-1,23,-1,-1,-1,-1],"loss_changes":[1.5612143E1,4.699568E0,9.539659E0,0E0,2.739792E-1,6.1664104E0,4.3598404E0,1.0727139E0,0E0,5.739091E0,6.2911243E0,6.1636677E0,0E0,0E0,0E0,0E0,3.5777578E0,0E0,0E0,0E0,4.6713624E0,0E0,0E0,0E0,0E0],"parents":[2147483647,0,0,1,1,2,2,4,4,5,5,6,6,7,7,9,9,10,10,11,11,16,16,20,20],"right_children":[2,4,6,-1,8,10,12,14,-1,16,18,20,-1,-1,-1,-1,22,-1,-1,-1,24,-1,-1,-1,-1],"split_conditions":[4E0,3.0333334E-1,6E0,1.1702545E-4,6.125E-1,8.7333333E-1,6.0375E-1,4.8333332E-1,-4.5262426E-2,5.7416666E-1,9.2554796E-1,0E0,-3.1741392E-2,-3.8252387E-2,-1.3353738E-2,3.347983E-2,1E0,6.559243E-2,1.2928543E-2,3.2079216E-2,6.406915E-1,1.8904835E-2,-1.3306245E-2,-2.5337575E-2,1.4675917E-2],"split_indices":[0,14,0,0,32,14,4,21,0,21,7,20,0,0,0,0,17,0,0,0,25,0,0,0,0],"split_type":[0,0,0,0,0,0,0,0,0,0,0,0,0,0,0,0,0,0,0,0,0,0,0,0,0],"sum_hessian":[1.7331813E2,4.5470707E1,1.2784743E2,1.2846319E1,3.2624386E1,7.5051476E1,5.2795956E1,2.2164589E1,1.0459798E1,5.1504326E1,2.354715E1,3.9956673E1,1.2839281E1,1.2128654E1,1.0035935E1,1.619989E1,3.5304436E1,1.16106205E1,1.1936529E1,1.0444384E1,2.951229E1,1.2474769E1,2.2829668E1,1.9024931E1,1.0487359E1],"tree_param":{"num_deleted":"0","num_feature":"36","num_nodes":"25","size_leaf_vector":"1"}},{"base_weights":[-5.7601456E-2,-5.5931664E-1,1.18140884E-1,-7.1721697E-1,-8.147203E-3,2.0900184E-1,-3.4859207E-2,-2.3139946E-2,-4.061995E-2,4.4018003E-1,-1.161507E-1,5.797095E-1,-1.6100613E-2,1.9863432E-2,-3.009759E-1,3.752012E-2,-1.0171046E-2,-2.401911E-2,7.21831E-3],"categories":[],"categories_nodes":[],"categories_segments":[],"categories_sizes":[],"default_left":[0,0,0,0,0,0,0,0,0,0,0,0,0,0,0,0,0,0,0],"id":37,"left_children":[1,3,5,7,-1,9,-1,-1,-1,11,13,15,-1,-1,17,-1,-1,-1,-1],"loss_changes":[1.5457359E1,2.6412945E0,9.696558E0,2.725258E-1,0E0,8.913515E0,0E0,0E0,0E0,7.555237E0,4.800013E0,8.071308E0,0E0,0E0,3.0634902E0,0E0,0E0,0E0,0E0],"parents":[2147483647,0,0,1,1,2,2,3,3,5,5,9,9,10,10,11,11,14,14],"right_children":[2,4,6,8,-1,10,-1,-1,-1,12,14,16,-1,-1,18,-1,-1,-1,-1],"split_conditions":[4E0,7.5245017E-1,8.2875E-1,1E0,-8.147203E-3,6E0,-3.4859207E-2,-2.3139946E-2,-4.061995E-2,8.441667E-1,5.4166667E-2,7.175E-1,-1.6100613E-2,1.9863432E-2,7.040036E-1,3.752012E-2,-1.0171046E-2,-2.401911E-2,7.21831E-3],"split_indices":[0,16,15,27,0,0,0,0,0,30,3,6,0,0,25,0,0,0,0],"split_type":[0,0,0,0,0,0,0,0,0,0,0,0,0,0,0,0,0,0,0],"sum_hessian":[1.7305821E2,4.4475235E1,1.2858298E2,3.1045929E1,1.3429304E1,1.1646974E2,1.2113242E1,1.0334649E1,2.071128E1,6.8044785E1,4.8424957E1,5.782903E1,1.0215754E1,1.2370607E1,3.6054348E1,4.7619297E1,1.0209732E1,2.5804756E1,1.0249594E1],"tree_param":{"num_deleted":"0","num_feature":"36","num_nodes":"19","size_leaf_vector":"1"}},{"base_weights":[5.730102E-3,9.569423E-2,-3.45827E-2,1.7765896E-1,-3.875124E-2,-2.0118216E-2,2.535632E-1,3.8499495E-1,-6.1945572E-2,3.0931214E-2,9.538653E-3,-3.0643975E-2,1.0776727E-2],"categories":[],"categories_nodes":[],"categories_segments":[],"categories_sizes":[],"default_left":[0,0,0,0,0,0,0,0,0,0,0,0,0],"id":38,"left_children":[1,3,-1,5,-1,-1,7,9,11,-1,-1,-1,-1],"loss_changes":[1.0847357E1,1.1072382E1,0E0,6.326392E0,0E0,0E0,5.284548E0,3.856203E0,5.937424E0,0E0,0E0,0E0,0E0],"parents":[2147483647,0,0,1,1,3,3,6,6,7,7,8,8],"right_children":[2,4,-1,6,-1,-1,8,10,12,-1,-1,-1,-1],"split_conditions":[6.3416666E-1,8.5375E-1,-3.45827E-2,1.9833334E-1,-3.875124E-2,-2.0118216E-2,6.0875E-1,6.225E-1,5.3833336E-1,3.0931214E-2,9.538653E-3,-3.0643975E-2,1.0776727E-2],"split_indices":[5,15,0,12,0,0,6,23,23,0,0,0,0],"split_type":[0,0,0,0,0,0,0,0,0,0,0,0,0],"sum_hessian":[1.7178998E2,1.530521E2,1.8737894E1,1.4071661E2,1.2335482E1,1.5633628E1,1.2508298E2,8.836811E1,3.6714867E1,3.8888798E1,4.9479313E1,1.2013614E1,2.4701254E1],"tree_param":{"num_deleted":"0","num_feature":"36","num_nodes":"13","size_leaf_vector":"1"}},{"base_weights":[-2.1789003E-2,1.5844299E-1,-4.1648337E-1,3.4040302E-1,-1.6948685E-1,-2.7919227E-1,-4.5229144E-2,1.9581409E-1,4.6851516E-2,-2.6692439E-2,1.3422963E-2,-3.3559307E-2,-6.4645804E-2,4.1658276E-1,-1.6942242E-2,1.7851405E-2,-1.1364625E-2,-2.858123E-2,1.2426639E-2,4.940809E-2,2.901375E-3],"categories":[],"categories_nodes":[],"categories_segments":[],"categories_sizes":[],"default_left":[0,0,0,0,0,0,0,0,0,0,0,0,0,0,0,0,0,0,0,0,0],"id":39,"left_children":[1,3,5,7,9,11,-1,13,-1,-1,15,-1,17,19,-1,-1,-1,-1,-1,-1,-1],"loss_changes":[1.2443714E1,7.220544E0,3.3068352E0,6.392893E0,2.9387684E0,3.6205122E0,0E0,7.681884E0,0E0,0E0,2.5389953E0,0E0,4.936412E0,9.214033E0,0E0,0E0,0E0,0E0,0E0,0E0,0E0],"parents":[2147483647,0,0,1,1,2,2,3,3,4,4,5,5,7,7,10,10,12,12,13,13],"right_children":[2,4,6,8,10,12,-1,14,-1,-1,16,-1,18,20,-1,-1,-1,-1,-1,-1,-1],"split_conditions":[3.4583333E-1,5.9E-1,7.4875E-1,5.0875E-1,6.3125E-1,1E0,-4.5229144E-2,4.0875E-1,4.6851516E-2,-2.6692439E-2,3.386349E-1,-3.3559307E-2,3.9E-1,6.625E-1,-1.6942242E-2,1.7851405E-2,-1.1364625E-2,-2.858123E-2,1.2426639E-2,4.940809E-2,2.901375E-3],"split_indices":[3,24,6,24,13,9,0,24,0,0,16,0,13,12,0,0,0,0,0,0,0],"split_type":[0,0,0,0,0,0,0,0,0,0,0,0,0,0,0,0,0,0,0,0,0],"sum_hessian":[1.7263678E2,1.18754364E2,5.3882412E1,7.6547165E1,4.22072E1,4.3440483E1,1.0441927E1,6.2819145E1,1.3728023E1,1.3648013E1,2.8559185E1,1.4448112E1,2.8992373E1,4.4749348E1,1.8069796E1,1.1737263E1,1.6821922E1,1.0877601E1,1.8114773E1,1.646591E1,2.828344E1],"tree_param":{"num_deleted":"0","num_feature":"36","num_nodes":"21","size_leaf_vector":"1"}},{"base_weights":[-1.9919839E-2,-4.754231E-1,1.3292931E-1,-6.706508E-1,-1.0054037E-3,3.2683665E-1,-1.6854696E-1,-4.110349E-2,-2.1566806E-2,1.7482549E-1,5.9503507E-2,-2.9977506E-2,8.4567904E-2,4.1992578E-1,-1.6210315E-1,-1.4927288E-2,1.7980324E-2,9.9177E-3,4.1482423E-2,1.8785845E-2,-2.7656665E-2],"categories":[],"categories_nodes":[],"categories_segments":[],"categories_sizes":[],"default_left":[0,0,0,0,0,0,0,0,0,0,0,0,0,0,0,0,0,0,0,0,0],"id":40,"left_children":[1,3,5,7,-1,9,11,-1,-1,13,-1,-1,15,17,19,-1,-1,-1,-1,-1,-1],"loss_changes":[1.2163467E1,3.8220053E0,7.6926484E0,6.274328E-1,0E0,1.0138289E1,5.7196136E0,0E0,0E0,5.808162E0,0E0,0E0,3.608698E0,3.409985E0,6.469298E0,0E0,0E0,0E0,0E0,0E0,0E0],"parents":[2147483647,0,0,1,1,2,2,3,3,5,5,6,6,9,9,12,12,13,13,14,14],"right_children":[2,4,6,8,-1,10,12,-1,-1,14,-1,-1,16,18,20,-1,-1,-1,-1,-1,-1],"split_conditions":[4E0,7.5245017E-1,5.7375E-1,6.308823E-1,-1.0054037E-3,5.1875E-1,6.3125E-1,-4.110349E-2,-2.1566806E-2,6E0,5.9503507E-2,-2.9977506E-2,7.7E-1,8.25E-1,5.55E-1,-1.4927288E-2,1.7980324E-2,9.9177E-3,4.1482423E-2,1.8785845E-2,-2.7656665E-2],"split_indices":[0,16,24,7,0,24,13,0,0,0,0,0,14,21,14,0,0,0,0,0,0],"split_type":[0,0,0,0,0,0,0,0,0,0,0,0,0,0,0,0,0,0,0,0,0],"sum_hessian":[1.7230438E2,4.2925785E1,1.293786E2,2.9559044E1,1.3366742E1,7.888678E1,5.0491817E1,1.6356813E1,1.320223E1,6.8196144E1,1.0690636E1,1.8321098E1,3.217072E1,3.9507034E1,2.868911E1,1.3256328E1,1.891439E1,2.676248E1,1.2744556E1,1.1986454E1,1.6702656E1],"tree_param":{"num_deleted":"0","num_feature":"36","num_nodes":"21","size_leaf_vector":"1"}},{"base_weights":[-5.540189E-2,4.662862E-2,-5.433296E-1,-1.9833293E-2,4.277937E-2,-3.465807E-2,-1.1881044E-2,2.3881663E-1,-2.3355125E-1,3.0141545E-3,4.109129E-2,-1.2400636E-1,-4.0844556E-2,1.0222792E-2,-2.8470889E-2,-3.1550154E-2,1.3584974E-4],"categories":[],"categories_nodes":[],"categories_segments":[],"categories_sizes":[],"default_left":[0,0,0,0,0,0,0,0,0,0,0,0,0,0,0,0,0],"id":41,"left_children":[1,3,5,7,-1,-1,-1,9,11,13,-1,15,-1,-1,-1,-1,-1],"loss_changes":[8.706072E0,7.850202E0,1.1270046E0,7.4658146E0,0E0,0E0,0E0,8.2923E0,4.541211E0,5.2128854E0,0E0,4.158926E0,0E0,0E0,0E0,0E0,0E0],"parents":[2147483647,0,0,1,1,2,2,3,3,7,7,8,8,9,9,11,11],"right_children":[2,4,6,8,-1,-1,-1,10,12,14,-1,16,-1,-1,-1,-1,-1],"split_conditions":[7.3875E-1,9.291667E-1,6.925E-1,6.225E-1,4.277937E-2,-3.465807E-2,-1.1881044E-2,4.8416665E-1,3.3916667E-1,6.05E-1,4.109129E-2,4.8416665E-1,-4.0844556E-2,1.0222792E-2,-2.8470889E-2,-3.1550154E-2,1.3584974E-4],"split_indices":[15,21,21,23,0,0,0,23,5,6,0,30,0,0,0,0,0],"split_type":[0,0,0,0,0,0,0,0,0,0,0,0,0,0,0,0,0],"sum_hessian":[1.72372E2,1.4313957E2,2.9232414E1,1.3305962E2,1.0079958E1,1.854753E1,1.0684884E1,5.993661E1,7.3123E1,4.3513813E1,1.6422798E1,6.272747E1,1.0395532E1,3.2791756E1,1.0722059E1,1.1905502E1,5.0821968E1],"tree_param":{"num_deleted":"0","num_feature":"36","num_nodes":"17","size_leaf_vector":"1"}},{"base_weights":[-5.7178464E-2,-4.6211097E-1,7.514837E-2,-6.7258024E-1,2.9606752E-3,1.3735126E-1,-2.8364027E-2,-3.902982E-2,-2.3048012E-2,3.1261228E-2,7.462248E-2,1.6030756E-1,-2.1799067E-2,2.6087413E-2,-0E0],"categories":[],"categories_nodes":[],"categories_segments":[],"categories_sizes":[],"default_left":[0,0,0,0,0,0,0,0,0,0,0,0,0,0,0],"id":42,"left_children":[1,3,5,7,-1,9,-1,-1,-1,-1,11,13,-1,-1,-1],"loss_changes":[9.3228855E0,4.801881E0,5.2608643E0,2.1863365E-1,0E0,3.56127E0,0E0,0E0,0E0,0E0,4.7588754E0,5.401968E0,0E0,0E0,0E0],"parents":[2147483647,0,0,1,1,2,2,3,3,5,5,10,10,11,11],"right_children":[2,4,6,8,-1,10,-1,-1,-1,-1,12,14,-1,-1,-1],"split_conditions":[4E0,7.6917267E-1,8E-1,6.2861454E-1,2.9606752E-3,2.0125E-1,-2.8364027E-2,-3.902982E-2,-2.3048012E-2,3.1261228E-2,7.788374E-1,6E-1,-2.1799067E-2,2.6087413E-2,-0E0],"split_indices":[0,16,6,25,0,22,0,0,0,0,34,23,0,0,0],"split_type":[0,0,0,0,0,0,0,0,0,0,0,0,0,0,0],"sum_hessian":[1.7161795E2,4.184176E1,1.297762E2,2.9737719E1,1.2104038E1,1.19178635E2,1.0597561E1,1.759538E1,1.2142339E1,1.2374517E1,1.0680412E2,9.221183E1,1.4592294E1,2.7643517E1,6.456831E1],"tree_param":{"num_deleted":"0","num_feature":"36","num_nodes":"15","size_leaf_vector":"1"}},{"base_weights":[-2.4362637E-2,5.486726E-2,-3.5776235E-2,1.359466E-1,-3.168333E-2,2.3278733E-1,-2.368941E-1,1.0964469E-1,5.93442E-2,-3.977684E-2,2.6094992E-2,1.3089668E-3,3.2204993E-2],"categories":[],"categories_nodes":[],"categories_segments":[],"categories_sizes":[],"default_left":[0,0,0,0,0,0,0,0,0,0,0,0,0],"id":43,"left_children":[1,3,-1,5,-1,7,9,11,-1,-1,-1,-1,-1],"loss_changes":[9.522219E0,8.693736E0,0E0,5.098539E0,0E0,1.2853079E1,1.2771661E1,4.378953E0,0E0,0E0,0E0,0E0,0E0],"parents":[2147483647,0,0,1,1,3,3,5,5,6,6,7,7],"right_children":[2,4,-1,6,-1,8,10,12,-1,-1,-1,-1,-1],"split_conditions":[6.3416666E-1,7.7375E-1,-3.5776235E-2,8.2916665E-1,-3.168333E-2,7.783333E-1,9.4734865E-1,4.8416665E-1,5.93442E-2,-3.977684E-2,2.6094992E-2,1.3089668E-3,3.2204993E-2],"split_indices":[5,6,0,30,0,30,7,3,0,0,0,0,0],"split_type":[0,0,0,0,0,0,0,0,0,0,0,0,0],"sum_hessian":[1.7096448E2,1.54078E2,1.6886475E1,1.3869371E2,1.5384294E1,1.10608406E2,2.8085306E1,9.904471E1,1.1563698E1,1.6224094E1,1.1861211E1,8.673541E1,1.2309298E1],"tree_param":{"num_deleted":"0","num_feature":"36","num_nodes":"13","size_leaf_vector":"1"}},{"base_weights":[-7.206009E-2,2.3371626E-3,-3.8096394E-2,-3.8428524E-1,1.17192455E-1,-3.6701355E-2,-2.0428854E-1,2.0318694E-1,-1.9546624E-2,8.259483E-3,-2.3346422E-2,3.8719565E-1,-4.173563E-2,3.7961442E-2,1.0713319E-2,-1.1688906E-2,1.7004795E-2],"categories":[],"categories_nodes":[],"categories_segments":[],"categories_sizes":[],"default_left":[0,0,0,0,0,0,0,0,0,0,0,0,0,0,0,0,0],"id":44,"left_children":[1,3,-1,5,7,-1,9,11,-1,-1,-1,13,15,-1,-1,-1,-1],"loss_changes":[8.911175E0,6.955476E0,0E0,2.0108204E0,5.3656893E0,0E0,2.5546174E0,4.767568E0,0E0,0E0,0E0,3.6060638E0,3.4103208E0,0E0,0E0,0E0,0E0],"parents":[2147483647,0,0,1,1,3,3,4,4,6,6,7,7,11,11,12,12],"right_children":[2,4,-1,6,8,-1,10,12,-1,-1,-1,14,16,-1,-1,-1,-1],"split_conditions":[8E-1,4E0,-3.8096394E-2,2.7375E-1,7.6875E-1,-3.6701355E-2,4.5625E-1,6E0,-1.9546624E-2,8.259483E-3,-2.3346422E-2,6.2166667E-1,5.7375E-1,3.7961442E-2,1.0713319E-2,-1.1688906E-2,1.7004795E-2],"split_indices":[6,0,0,22,24,0,13,0,0,0,0,12,33,0,0,0,0],"split_type":[0,0,0,0,0,0,0,0,0,0,0,0,0,0,0,0,0],"sum_hessian":[1.7111028E2,1.5522232E2,1.588795E1,3.481446E1,1.2040786E2,1.0594769E1,2.4219692E1,1.0366127E2,1.6746593E1,1.005905E1,1.4160642E1,5.9092712E1,4.4568558E1,1.7492142E1,4.1600567E1,3.008628E1,1.4482277E1],"tree_param":{"num_deleted":"0","num_feature":"36","num_nodes":"17","size_leaf_vector":"1"}},{"base_weights":[-1.3003839E-2,-8.79704E-2,3.6005795E-2,-8.370851E-3,-3.365834E-2,9.282965E-2,-3.5461763E-1,-2.85896E-2,1.709225E-1,1.2478533E-2,-3.5412308E-2,2.2956496E-2,-3.5006718E-3],"categories":[],"categories_nodes":[],"categories_segments":[],"categories_sizes":[],"default_left":[0,0,0,0,0,0,0,0,0,0,0,0,0],"id":45,"left_children":[1,3,-1,5,-1,7,9,-1,11,-1,-1,-1,-1],"loss_changes":[9.444846E0,7.235811E0,0E0,4.940047E0,0E0,5.6817336E0,7.045961E0,0E0,6.867132E0,0E0,0E0,0E0,0E0],"parents":[2147483647,0,0,1,1,3,3,5,5,6,6,8,8],"right_children":[2,4,-1,6,-1,8,10,-1,12,-1,-1,-1,-1],"split_conditions":[9.2833334E-1,6E-1,3.6005795E-2,6.5625E-1,-3.365834E-2,1.7916666E-1,4.280771E-1,-2.85896E-2,6.2166667E-1,1.2478533E-2,-3.5412308E-2,2.2956496E-2,-3.5006718E-3],"split_indices":[23,5,0,4,0,30,25,0,12,0,0,0,0],"split_type":[0,0,0,0,0,0,0,0,0,0,0,0,0],"sum_hessian":[1.7084868E2,1.5592108E2,1.49276E1,1.382951E2,1.762598E1,1.0735935E2,3.0935751E1,1.0488955E1,9.68704E1,1.1425799E1,1.950995E1,4.388483E1,5.298557E1],"tree_param":{"num_deleted":"0","num_feature":"36","num_nodes":"13","size_leaf_vector":"1"}},{"base_weights":[-1.5224758E-2,-5.049428E-1,1.3579065E-1,-9.048733E-3,-7.0904136E-1,3.4474203E-1,-1.7589003E-1,-4.5421295E-2,-2.3646265E-2,1.4118609E-1,7.535546E-1,-3.739894E-2,-4.892727E-3,4.1456714E-1,-1.6701544E-2,5.5133887E-2,1.1085368E-2,2.610188E-1,-2.8404435E-2,2.4798026E-3,5.3306263E-2,-6.823119E-3,3.565089E-2],"categories":[],"categories_nodes":[],"categories_segments":[],"categories_sizes":[],"default_left":[0,0,0,0,0,0,0,0,0,0,0,0,0,0,0,0,0,0,0,0,0,0,0],"id":46,"left_children":[1,3,5,-1,7,9,11,-1,-1,13,15,-1,17,19,-1,-1,-1,21,-1,-1,-1,-1,-1],"loss_changes":[1.2697242E1,2.4604273E0,8.593744E0,0E0,5.7685375E-1,6.3626995E0,5.1010756E0,0E0,0E0,7.16315E0,4.414447E0,0E0,6.455091E0,8.126518E0,0E0,0E0,0E0,5.370802E0,0E0,0E0,0E0,0E0,0E0],"parents":[2147483647,0,0,1,1,2,2,4,4,5,5,6,6,9,9,10,10,12,12,13,13,17,17],"right_children":[2,4,6,-1,8,10,12,-1,-1,14,16,-1,18,20,-1,-1,-1,22,-1,-1,-1,-1,-1],"split_conditions":[4E0,3.45E-1,6E0,-9.048733E-3,4.975E-1,8.7333333E-1,2.625E-1,-4.5421295E-2,-2.3646265E-2,7.558333E-1,7.916667E-1,-3.739894E-2,7.0125E-1,7.4583334E-1,-1.6701544E-2,5.5133887E-2,1.1085368E-2,5.1125E-1,-2.8404435E-2,2.4798026E-3,5.3306263E-2,-6.823119E-3,3.565089E-2],"split_indices":[0,31,0,0,24,14,31,0,0,23,30,0,31,14,0,0,0,24,0,0,0,0,0],"split_type":[0,0,0,0,0,0,0,0,0,0,0,0,0,0,0,0,0,0,0,0,0,0,0],"sum_hessian":[1.6926254E2,3.949743E1,1.297651E2,1.61844E1,2.331303E1,7.781352E1,5.1951588E1,1.086628E1,1.244675E1,5.3009167E1,2.4804356E1,1.1043942E1,4.0907642E1,3.386531E1,1.9143856E1,1.4213076E1,1.0591281E1,2.8031586E1,1.2876059E1,2.2494556E1,1.1370756E1,1.5169023E1,1.2862562E1],"tree_param":{"num_deleted":"0","num_feature":"36","num_nodes":"23","size_leaf_vector":"1"}},{"base_weights":[-7.2312367E-4,6.2740445E-2,-3.588579E-2,-2.9522762E-1,1.6573957E-1,-5.586967E-1,1.4929431E-2,-1.1003859E-1,3.7288237E-1,-3.8630538E-2,-1.3720736E-2,8.747823E-2,-2.4139559E-2,5.0994467E-2,2.1342693E-1,1.5064515E-2,-1.980895E-2,2.5684524E-2,-3.980952E-3],"categories":[],"categories_nodes":[],"categories_segments":[],"categories_sizes":[],"default_left":[0,0,0,0,0,0,0,0,0,0,0,0,0,0,0,0,0,0,0],"id":47,"left_children":[1,3,-1,5,7,9,-1,11,13,-1,-1,15,-1,-1,17,-1,-1,-1,-1],"loss_changes":[7.919944E0,5.8784723E0,0E0,5.754577E0,7.145791E0,1.208981E0,0E0,4.0365367E0,7.0041924E0,0E0,0E0,3.8101308E0,0E0,0E0,5.232445E0,0E0,0E0,0E0,0E0],"parents":[2147483647,0,0,1,1,3,3,4,4,5,5,7,7,8,8,11,11,14,14],"right_children":[2,4,-1,6,8,10,-1,12,14,-1,-1,16,-1,-1,18,-1,-1,-1,-1],"split_conditions":[8.5375E-1,4E0,-3.588579E-2,7.6917267E-1,4.525E-1,4.65E-1,1.4929431E-2,6E0,3.9E-1,-3.8630538E-2,-1.3720736E-2,4.0125E-1,-2.4139559E-2,5.0994467E-2,6.7583334E-1,1.5064515E-2,-1.980895E-2,2.5684524E-2,-3.980952E-3],"split_indices":[15,0,0,16,13,24,0,27,22,0,0,15,0,0,30,0,0,0,0],"split_type":[0,0,0,0,0,0,0,0,0,0,0,0,0,0,0,0,0,0,0],"sum_hessian":[1.7062456E2,1.574602E2,1.316434E1,3.454917E1,1.2291104E2,2.4088806E1,1.0460367E1,5.271513E1,7.019591E1,1.25647E1,1.1524105E1,3.4781765E1,1.7933369E1,1.268836E1,5.7507545E1,2.4524117E1,1.02576475E1,2.8200645E1,2.93069E1],"tree_param":{"num_deleted":"0","num_feature":"36","num_nodes":"19","size_leaf_vector":"1"}},{"base_weights":[-5.8396302E-2,-4.343591E-1,5.109589E-2,-7.776829E-4,-7.651917E-1,-9.29957E-2,3.1400064E-1,-4.530721E-2,-2.6965562E-2,-1.3159361E-2,-3.1493008E-2,5.505959E-1,-1.91374E-2,-3.2707667E-1,1.8313657E-1,8.465667E-1,-0E0,-3.2579526E-2,-6.2839165E-3,-6.8212464E-3,2.8005106E-2,6.4909026E-2,1.9218776E-2],"categories":[],"categories_nodes":[],"categories_segments":[],"categories_sizes":[],"default_left":[0,0,0,0,0,0,0,0,0,0,0,0,0,0,0,0,0,0,0,0,0,0,0],"id":48,"left_children":[1,3,5,-1,7,9,11,-1,-1,13,-1,15,-1,17,19,21,-1,-1,-1,-1,-1,-1,-1],"loss_changes":[7.119079E0,5.311642E0,5.1080065E0,0E0,5.530262E-2,3.6457062E0,8.096113E0,0E0,0E0,4.80089E0,0E0,5.832526E0,0E0,1.8053775E0,5.8575387E0,4.223316E0,0E0,0E0,0E0,0E0,0E0,0E0,0E0],"parents":[2147483647,0,0,1,1,2,2,4,4,5,5,6,6,9,9,11,11,13,13,14,14,15,15],"right_children":[2,4,6,-1,8,10,12,-1,-1,14,-1,16,-1,18,20,22,-1,-1,-1,-1,-1,-1,-1],"split_conditions":[4E0,3.9625E-1,8.7333333E-1,-7.776829E-4,5.5E-1,5.5333334E-1,9.77187E-1,-4.530721E-2,-2.6965562E-2,4.1912133E-1,-3.1493008E-2,6E0,-1.91374E-2,7.375E-1,4.8916668E-1,3.6787772E-1,-0E0,-3.2579526E-2,-6.2839165E-3,-6.8212464E-3,2.8005106E-2,6.4909026E-2,1.9218776E-2],"split_indices":[0,33,14,0,4,3,7,0,0,16,0,0,0,12,14,34,0,0,0,0,0,0,0],"split_type":[0,0,0,0,0,0,0,0,0,0,0,0,0,0,0,0,0,0,0,0,0,0,0],"sum_hessian":[1.7046992E2,3.7985516E1,1.324844E2,1.7359354E1,2.0626162E1,8.5751854E1,4.673256E1,1.0573704E1,1.0052458E1,7.57047E1,1.0047157E1,3.514996E1,1.1582601E1,2.9065775E1,4.663892E1,2.242986E1,1.2720099E1,1.0084586E1,1.898119E1,2.5443098E1,2.1195822E1,1.0320466E1,1.2109393E1],"tree_param":{"num_deleted":"0","num_feature":"36","num_nodes":"23","size_leaf_vector":"1"}},{"base_weights":[-1.4264514E-2,4.6037555E-2,-3.073721E-2,-5.40284E-3,3.1936463E-2,-3.5401173E-2,6.756913E-2,1.4209034E-1,-3.039213E-2,1.967488E-2,-1.1256365E-3],"categories":[],"categories_nodes":[],"categories_segments":[],"categories_sizes":[],"default_left":[0,0,0,0,0,0,0,0,0,0,0],"id":49,"left_children":[1,3,-1,5,-1,-1,7,9,-1,-1,-1],"loss_changes":[6.199883E0,4.769165E0,0E0,7.431151E0,0E0,0E0,6.5884304E0,4.934153E0,0E0,0E0,0E0],"parents":[2147483647,0,0,1,1,3,3,6,6,7,7],"right_children":[2,4,-1,6,-1,-1,8,10,-1,-1,-1],"split_conditions":[8E-1,9.3916667E-1,-3.073721E-2,1.9666667E-1,3.1936463E-2,-3.5401173E-2,6E-1,6.2166667E-1,-3.039213E-2,1.967488E-2,-1.1256365E-3],"split_indices":[6,23,0,14,0,0,5,12,0,0,0],"split_type":[0,0,0,0,0,0,0,0,0,0,0],"sum_hessian":[1.6786725E2,1.5323563E2,1.4631609E1,1.4175475E2,1.1480895E1,1.2647196E1,1.2910754E2,1.1712257E2,1.1984975E1,4.6032124E1,7.109045E1],"tree_param":{"num_deleted":"0","num_feature":"36","num_nodes":"11","size_leaf_vector":"1"}},{"base_weights":[1.8973367E-2,1.0953156E-1,-4.575658E-1,-2.378846E-2,1.9645344E-1,-4.9836594E-3,-3.2772567E-2,-8.990671E-2,3.2814687E-1,1.2770821E-1,-3.2671224E-2,4.733089E-2,1.7710313E-1,2.2707773E-2,-2.2829866E-2,-4.5463713E-3,2.0766458E-2],"categories":[],"categories_nodes":[],"categories_segments":[],"categories_sizes":[],"default_left":[0,0,0,0,0,0,0,0,0,0,0,0,0,0,0,0,0],"id":50,"left_children":[1,3,5,-1,7,-1,-1,9,11,13,-1,-1,15,-1,-1,-1,-1],"loss_changes":[7.386691E0,7.4180527E0,1.7921338E0,0E0,4.8310037E0,0E0,0E0,5.0969934E0,7.8690863E0,5.9090734E0,0E0,0E0,4.6338115E0,0E0,0E0,0E0,0E0],"parents":[2147483647,0,0,1,1,2,2,4,4,7,7,8,8,9,9,12,12],"right_children":[2,4,6,-1,8,-1,-1,10,12,14,-1,-1,16,-1,-1,-1,-1],"split_conditions":[7.4125E-1,1.5875E-1,1.9125E-1,-2.378846E-2,4.8416665E-1,-4.9836594E-3,-3.2772567E-2,5.8375E-1,6.2166667E-1,6.1375E-1,-3.2671224E-2,4.733089E-2,8.25E-1,2.2707773E-2,-2.2829866E-2,-4.5463713E-3,2.0766458E-2],"split_indices":[15,31,6,0,12,0,0,6,12,31,0,0,12,0,0,0,0],"split_type":[0,0,0,0,0,0,0,0,0,0,0,0,0,0,0,0,0],"sum_hessian":[1.6981354E2,1.4351999E2,2.6293543E1,1.783067E1,1.2568932E2,1.007717E1,1.6216373E1,3.945486E1,8.623446E1,2.8893074E1,1.0561788E1,1.5762665E1,7.0471794E1,1.8789438E1,1.0103636E1,3.32549E1,3.7216892E1],"tree_param":{"num_deleted":"0","num_feature":"36","num_nodes":"17","size_leaf_vector":"1"}},{"base_weights":[-8.305336E-3,-7.4461594E-2,4.7716912E-2,-3.2088906E-2,-8.488664E-3,2.6927164E-2,-7.362791E-2,-3.1398302E-1,2.3255941E-1,-3.0134294E-2,-1.37635E-3,2.2407928E-2,-1.2874302E-2],"categories":[],"categories_nodes":[],"categories_segments":[],"categories_sizes":[],"default_left":[0,0,0,0,0,0,0,0,0,0,0,0,0],"id":51,"left_children":[1,3,-1,-1,5,-1,7,9,11,-1,-1,-1,-1],"loss_changes":[1.0913311E1,5.9784975E0,0E0,0E0,5.1939383E0,0E0,9.756203E0,6.0616555E0,6.284195E0,0E0,0E0,0E0,0E0],"parents":[2147483647,0,0,1,1,4,4,6,6,7,7,8,8],"right_children":[2,4,-1,-1,6,-1,8,10,12,-1,-1,-1,-1],"split_conditions":[9.475E-1,1.9833334E-1,4.7716912E-2,-3.2088906E-2,3.275E-1,2.6927164E-2,1E0,5.0125E-1,6.7125E-1,-3.0134294E-2,-1.37635E-3,2.2407928E-2,-1.2874302E-2],"split_indices":[23,12,0,0,12,0,17,15,13,0,0,0,0],"split_type":[0,0,0,0,0,0,0,0,0,0,0,0,0],"sum_hessian":[1.7062996E2,1.6061824E2,1.0011722E1,1.5665271E1,1.4495297E2,1.4487326E1,1.3046565E2,7.3258965E1,5.7206684E1,3.576271E1,3.749625E1,3.992911E1,1.7277573E1],"tree_param":{"num_deleted":"0","num_feature":"36","num_nodes":"13","size_leaf_vector":"1"}},{"base_weights":[-1.4568548E-2,4.642875E-2,-3.3246644E-2,-3.332147E-1,1.4614037E-1,-3.961875E-4,-2.7176917E-2,4.9775073E-1,6.404052E-2,-2.4142887E-3,5.6420226E-2,-2.1367878E-2,1.517899E-1,2.9249752E-2,-4.4226614E-4],"categories":[],"categories_nodes":[],"categories_segments":[],"categories_sizes":[],"default_left":[0,0,0,0,0,0,0,0,0,0,0,0,0,0,0],"id":52,"left_children":[1,3,-1,5,7,-1,-1,9,11,-1,-1,-1,13,-1,-1],"loss_changes":[6.938482E0,6.032359E0,0E0,2.203707E0,3.5631647E0,0E0,0E0,8.277228E0,4.5182805E0,0E0,0E0,0E0,6.2619815E0,0E0,0E0],"parents":[2147483647,0,0,1,1,3,3,4,4,7,7,8,8,12,12],"right_children":[2,4,-1,6,8,-1,-1,10,12,-1,-1,-1,14,-1,-1],"split_conditions":[8E-1,4E0,-3.3246644E-2,3.325E-1,3E0,-3.961875E-4,-2.7176917E-2,9.097929E-1,6.065283E-1,-2.4142887E-3,5.6420226E-2,-2.1367878E-2,5.8416665E-1,2.9249752E-2,-4.4226614E-4],"split_indices":[6,0,0,31,18,0,0,7,7,0,0,0,12,0,0],"split_type":[0,0,0,0,0,0,0,0,0,0,0,0,0,0,0],"sum_hessian":[1.7156563E2,1.5756276E2,1.400287E1,3.2079216E1,1.2548354E2,1.3190949E1,1.8888266E1,2.2564672E1,1.0291887E2,1.25036E1,1.0061072E1,1.4834665E1,8.8084206E1,2.3280779E1,6.480343E1],"tree_param":{"num_deleted":"0","num_feature":"36","num_nodes":"15","size_leaf_vector":"1"}},{"base_weights":[-2.4283988E-2,4.225396E-2,-3.635728E-2,1.0321482E-1,-3.379308E-2,-1.635652E-1,2.670021E-1,1.0068363E-3,-3.243214E-2,6.551492E-2,1.199022E-1,-1.768667E-2,7.3260367E-3,-4.00698E-3,1.6591426E-2],"categories":[],"categories_nodes":[],"categories_segments":[],"categories_sizes":[],"default_left":[0,0,0,0,0,0,0,0,0,0,0,0,0,0,0],"id":53,"left_children":[1,3,-1,5,-1,7,9,11,-1,-1,13,-1,-1,-1,-1],"loss_changes":[8.108474E0,6.8970084E0,0E0,6.4314957E0,0E0,4.5286064E0,1.3672487E1,2.2295916E0,0E0,0E0,3.4848108E0,0E0,0E0,0E0,0E0],"parents":[2147483647,0,0,1,1,3,3,5,5,6,6,7,7,10,10],"right_children":[2,4,-1,6,-1,8,10,12,-1,-1,14,-1,-1,-1,-1],"split_conditions":[6.3416666E-1,8.45E-1,-3.635728E-2,6.05E-1,-3.379308E-2,6.75E-1,6.333333E-1,2.9625E-1,-3.243214E-2,6.551492E-2,8.9E-1,-1.768667E-2,7.3260367E-3,-4.00698E-3,1.6591426E-2],"split_indices":[5,15,0,14,0,31,12,24,0,0,14,0,0,0,0],"split_type":[0,0,0,0,0,0,0,0,0,0,0,0,0,0,0],"sum_hessian":[1.702589E2,1.5626347E2,1.39954195E1,1.4495386E2,1.1309617E1,5.4908535E1,9.004532E1,4.1590065E1,1.331847E1,1.0065942E1,7.997938E1,1.1481591E1,3.0108475E1,4.1220474E1,3.8758904E1],"tree_param":{"num_deleted":"0","num_feature":"36","num_nodes":"15","size_leaf_vector":"1"}},{"base_weights":[-8.754804E-2,-1.370013E-1,2.9140158E-2,-6.984881E-2,-3.5635598E-2,-2.823379E-1,1.8752167E-1,-5.643955E-1,-1.2714195E-1,3.641757E-1,-1.7174913E-2,-3.9668616E-2,-1.3860225E-2,7.2617196E-3,-3.1586926E-2,-7.668193E-3,2.7514046E-2],"categories":[],"categories_nodes":[],"categories_segments":[],"categories_sizes":[],"default_left":[0,0,0,0,0,0,0,0,0,0,0,0,0,0,0,0,0],"id":54,"left_children":[1,3,-1,5,-1,7,9,11,13,15,-1,-1,-1,-1,-1,-1,-1],"loss_changes":[5.6357656E0,5.9911575E0,0E0,7.88348E0,0E0,3.3149638E0,6.2305484E0,1.4815321E0,7.3485923E0,4.88681E0,0E0,0E0,0E0,0E0,0E0,0E0,0E0],"parents":[2147483647,0,0,1,1,3,3,5,5,6,6,7,7,8,8,9,9],"right_children":[2,4,-1,6,-1,8,10,12,14,16,-1,-1,-1,-1,-1,-1,-1],"split_conditions":[9.475E-1,8.8E-1,2.9140158E-2,7.4583334E-1,-3.5635598E-2,3E0,6E0,6.4282703E-1,6.225E-1,3.1875E-1,-1.7174913E-2,-3.9668616E-2,-1.3860225E-2,7.2617196E-3,-3.1586926E-2,-7.668193E-3,2.7514046E-2],"split_indices":[23,30,0,14,0,9,0,16,23,4,0,0,0,0,0,0,0],"split_type":[0,0,0,0,0,0,0,0,0,0,0,0,0,0,0,0,0],"sum_hessian":[1.6793883E2,1.572807E2,1.0658136E1,1.4201115E2,1.5269551E1,7.794778E1,6.406337E1,2.6501741E1,5.1446037E1,4.844854E1,1.5614829E1,1.3570937E1,1.2930805E1,3.3744877E1,1.770116E1,1.2718445E1,3.5730095E1],"tree_param":{"num_deleted":"0","num_feature":"36","num_nodes":"17","size_leaf_vector":"1"}},{"base_weights":[-2.7718306E-2,4.5898844E-2,-2.8128862E-2,1.0388737E-1,-2.7446447E-2,1.7313306E-1,-2.5644306E-2,2.4539758E-1,-1.1590189E-2,8.745534E-3,3.8490545E-2],"categories":[],"categories_nodes":[],"categories_segments":[],"categories_sizes":[],"default_left":[0,0,0,0,0,0,0,0,0,0,0],"id":55,"left_children":[1,3,-1,5,-1,7,-1,9,-1,-1,-1],"loss_changes":[6.7580996E0,5.183053E0,0E0,5.93066E0,0E0,3.7039256E0,0E0,3.7043972E0,0E0,0E0,0E0],"parents":[2147483647,0,0,1,1,3,3,5,5,7,7],"right_children":[2,4,-1,6,-1,8,-1,10,-1,-1,-1],"split_conditions":[5.45E-1,7.7375E-1,-2.8128862E-2,8.594911E-1,-2.7446447E-2,7.5875E-1,-2.5644306E-2,6.85E-1,-1.1590189E-2,8.745534E-3,3.8490545E-2],"split_indices":[3,6,0,34,0,13,0,13,0,0,0],"split_type":[0,0,0,0,0,0,0,0,0,0,0],"sum_hessian":[1.686672E2,1.4890005E2,1.9767153E1,1.3657875E2,1.2321314E1,1.2358516E2,1.2993586E1,1.0541404E2,1.8171124E1,9.4267654E1,1.1146383E1],"tree_param":{"num_deleted":"0","num_feature":"36","num_nodes":"11","size_leaf_vector":"1"}},{"base_weights":[-4.2227514E-2,2.6209239E-2,-3.4549657E-2,1.687976E-1,-2.2763062E-1,-2.2395387E-1,3.1161612E-1,-3.474173E-2,-7.571304E-2,-2.3209302E-2,7.5431922E-3,4.4294956E-1,-1.8221004E-2,2.56466E-2,-2.7600837E-1,1.44714285E-2,5.4864984E-2,2.460432E-3,-3.0405719E-2],"categories":[],"categories_nodes":[],"categories_segments":[],"categories_sizes":[],"default_left":[0,0,0,0,0,0,0,0,0,0,0,0,0,0,0,0,0,0,0],"id":56,"left_children":[1,3,-1,5,7,9,11,-1,13,-1,-1,15,-1,-1,17,-1,-1,-1,-1],"loss_changes":[7.5532255E0,5.5698605E0,0E0,5.619731E0,3.7882733E0,2.5089638E0,6.6549835E0,0E0,5.1805606E0,0E0,0E0,5.7460394E0,0E0,0E0,3.6300392E0,0E0,0E0,0E0,0E0],"parents":[2147483647,0,0,1,1,3,3,4,4,5,5,6,6,8,8,11,11,14,14],"right_children":[2,4,-1,6,8,10,12,-1,14,-1,-1,16,-1,-1,18,-1,-1,-1,-1],"split_conditions":[7.7375E-1,5.9E-1,-3.4549657E-2,2.725E-1,4.8916668E-1,5E0,6.05E-1,-3.474173E-2,7.133333E-1,-2.3209302E-2,7.5431922E-3,5.475E-1,-1.8221004E-2,2.56466E-2,3.375E-1,1.44714285E-2,5.4864984E-2,2.460432E-3,-3.0405719E-2],"split_indices":[6,24,0,24,14,18,15,0,14,0,0,13,0,0,6,0,0,0,0],"split_type":[0,0,0,0,0,0,0,0,0,0,0,0,0,0,0,0,0,0,0],"sum_hessian":[1.6721475E2,1.5198743E2,1.5227332E1,9.778696E1,5.420047E1,2.5738287E1,7.204867E1,1.2261061E1,4.193941E1,1.5702462E1,1.0035824E1,6.0741196E1,1.1307476E1,1.0124506E1,3.1814903E1,5.0490463E1,1.0250731E1,1.6352413E1,1.546249E1],"tree_param":{"num_deleted":"0","num_feature":"36","num_nodes":"19","size_leaf_vector":"1"}},{"base_weights":[-4.868354E-2,-3.9224598E-1,4.406214E-2,-5.71103E-3,-5.757215E-1,1.0534861E-1,-1.6342258E-2,-4.083028E-2,-1.326616E-2,4.0552244E-2,2.911754E-2,1.7047262E-1,-4.4287285E-1,-5.610025E-4,3.3100393E-2,-3.3255793E-2,-9.405068E-3],"categories":[],"categories_nodes":[],"categories_segments":[],"categories_sizes":[],"default_left":[0,0,0,0,0,0,0,0,0,0,0,0,0,0,0,0,0],"id":57,"left_children":[1,3,5,-1,7,9,-1,-1,-1,11,-1,13,15,-1,-1,-1,-1],"loss_changes":[5.442453E0,1.716433E0,3.055538E0,0E0,1.2750931E0,3.4957469E0,0E0,0E0,0E0,6.535047E0,0E0,7.4216375E0,1.0347981E0,0E0,0E0,0E0,0E0],"parents":[2147483647,0,0,1,1,2,2,4,4,5,5,9,9,11,11,12,12],"right_children":[2,4,6,-1,8,10,-1,-1,-1,12,-1,14,16,-1,-1,-1,-1],"split_conditions":[4E0,3.425E-1,7.6875E-1,-5.71103E-3,5.225E-1,7.2125E-1,-1.6342258E-2,-4.083028E-2,-1.326616E-2,6.0875E-1,2.911754E-2,5.05E-1,6.4625E-1,-5.610025E-4,3.3100393E-2,-3.3255793E-2,-9.405068E-3],"split_indices":[0,31,24,0,24,13,0,0,0,15,0,15,13,0,0,0,0],"split_type":[0,0,0,0,0,0,0,0,0,0,0,0,0,0,0,0,0],"sum_hessian":[1.6816779E2,3.529005E1,1.3287773E2,1.4891752E1,2.0398298E1,1.14881065E2,1.799667E1,1.0385586E1,1.0012713E1,1.0228169E2,1.2599372E1,8.1289406E1,2.0992285E1,5.9915703E1,2.1373703E1,1.0142021E1,1.0850264E1],"tree_param":{"num_deleted":"0","num_feature":"36","num_nodes":"17","size_leaf_vector":"1"}},{"base_weights":[-6.499259E-2,5.717024E-2,-3.5182235E-1,1.5046498E-1,-2.7659366E-2,-3.545053E-2,-2.1616492E-1,3.332353E-1,-5.7771735E-2,-4.0108565E-2,-2.5426561E-2,8.284385E-1,-3.1719727E-3,1.4538693E-2,-3.0095828E-1,2.5752122E-2,-2.2265848E-2,1.3096653E-2,6.883172E-2,-1.199223E-2,1.8725622E-2,-3.6503397E-2,3.1133816E-3],"categories":[],"categories_nodes":[],"categories_segments":[],"categories_sizes":[],"default_left":[0,0,0,0,0,0,0,0,0,0,0,0,0,0,0,0,0,0,0,0,0,0,0],"id":58,"left_children":[1,3,5,7,-1,-1,9,11,13,15,-1,17,19,-1,21,-1,-1,-1,-1,-1,-1,-1,-1],"loss_changes":[5.968504E0,6.8237667E0,2.2176428E0,4.013362E0,0E0,0E0,1.9057806E0,9.398781E0,4.2683444E0,5.9183474E0,0E0,6.537615E0,3.130503E0,0E0,4.7424517E0,0E0,0E0,0E0,0E0,0E0,0E0,0E0,0E0],"parents":[2147483647,0,0,1,1,2,2,3,3,6,6,7,7,8,8,9,9,11,11,12,12,14,14],"right_children":[2,4,6,8,-1,-1,10,12,14,16,-1,18,20,-1,22,-1,-1,-1,-1,-1,-1,-1,-1],"split_conditions":[6.3375E-1,5.3E-1,3.5625E-1,5.25E-1,-2.7659366E-2,-3.545053E-2,5.6535405E-1,3.7375E-1,7.1E-1,7.45E-1,-2.5426561E-2,2.5625E-1,5.4875E-1,1.4538693E-2,8.25E-1,2.5752122E-2,-2.2265848E-2,1.3096653E-2,6.883172E-2,-1.199223E-2,1.8725622E-2,-3.6503397E-2,3.1133816E-3],"split_indices":[24,5,31,4,0,0,34,22,12,21,0,24,24,0,21,0,0,0,0,0,0,0,0],"split_type":[0,0,0,0,0,0,0,0,0,0,0,0,0,0,0,0,0,0,0,0,0,0,0],"sum_hessian":[1.6791942E2,1.1808024E2,4.9839172E1,1.032201E2,1.4860143E1,1.2352144E1,3.748703E1,5.4907494E1,4.8312607E1,2.432081E1,1.3166218E1,2.1740044E1,3.316745E1,1.960581E1,2.8706795E1,1.0043284E1,1.4277527E1,1.1507953E1,1.023209E1,2.077728E1,1.2390169E1,1.2823115E1,1.5883679E1],"tree_param":{"num_deleted":"0","num_feature":"36","num_nodes":"23","size_leaf_vector":"1"}},{"base_weights":[5.671894E-2,-5.0501353E-3,4.389299E-2,6.1619952E-2,-3.8315285E-2,1.2060011E-1,-3.1990267E-2,2.3865286E-1,-1.7941064E-1,1.5934806E-2,-1.21144205E-2,-2.251588E-2,2.0699497E-2],"categories":[],"categories_nodes":[],"categories_segments":[],"categories_sizes":[],"default_left":[0,0,0,0,0,0,0,0,0,0,0,0,0],"id":59,"left_children":[1,3,-1,5,-1,7,-1,9,11,-1,-1,-1,-1],"loss_changes":[8.668432E0,8.144098E0,0E0,6.0742364E0,0E0,4.860087E0,0E0,3.8634677E0,6.410115E0,0E0,0E0,0E0,0E0],"parents":[2147483647,0,0,1,1,3,3,5,5,7,7,8,8],"right_children":[2,4,-1,6,-1,8,-1,10,12,-1,-1,-1,-1],"split_conditions":[9.475E-1,8.6076003E-1,4.389299E-2,6.3416666E-1,-3.8315285E-2,6E0,-3.1990267E-2,7.2E-1,1E0,1.5934806E-2,-1.21144205E-2,-2.251588E-2,2.0699497E-2],"split_indices":[23,16,0,5,0,0,0,4,10,0,0,0,0],"split_type":[0,0,0,0,0,0,0,0,0,0,0,0,0],"sum_hessian":[1.6809563E2,1.5714658E2,1.0949045E1,1.4521635E2,1.1930227E1,1.3484813E2,1.036823E1,9.7155685E1,3.769244E1,8.376064E1,1.3395041E1,2.6159437E1,1.1533004E1],"tree_param":{"num_deleted":"0","num_feature":"36","num_nodes":"13","size_leaf_vector":"1"}},{"base_weights":[2.3513801E-2,-3.1503584E-2,3.6390655E-2,2.3805927E-2,-3.670593E-2,8.4671535E-2,-2.8593505E-2,1.6148302E-1,-1.8409759E-2,1.4366069E-3,3.6217004E-2],"categories":[],"categories_nodes":[],"categories_segments":[],"categories_sizes":[],"default_left":[0,0,0,0,0,0,0,0,0,0,0],"id":60,"left_children":[1,3,-1,5,-1,7,-1,9,-1,-1,-1],"loss_changes":[6.6268578E0,6.1990957E0,0E0,5.314966E0,0E0,4.7012534E0,0E0,8.532673E0,0E0,0E0,0E0],"parents":[2147483647,0,0,1,1,3,3,5,5,7,7],"right_children":[2,4,-1,6,-1,8,-1,10,-1,-1,-1],"split_conditions":[9.475E-1,6.333333E-1,3.6390655E-2,9.705326E-1,-3.670593E-2,8.2916665E-1,-2.8593505E-2,7.841667E-1,-1.8409759E-2,1.4366069E-3,3.6217004E-2],"split_indices":[23,3,0,7,0,30,0,32,0,0,0],"split_type":[0,0,0,0,0,0,0,0,0,0,0],"sum_hessian":[1.676327E2,1.56241E2,1.1391713E1,1.4560298E2,1.0638003E1,1.3303531E2,1.2567686E1,1.1448204E2,1.8553257E1,9.3628334E1,2.0853706E1],"tree_param":{"num_deleted":"0","num_feature":"36","num_nodes":"11","size_leaf_vector":"1"}},{"base_weights":[-1.9277822E-2,-3.4569284E-1,5.1908694E-2,-3.2200616E-2,8.864596E-3,1.06151395E-1,-2.4152713E-2,4.682748E-2,3.505194E-2,1.4141424E-1,-1.948607E-2,1.1565679E-2,-1.7995296E-2],"categories":[],"categories_nodes":[],"categories_segments":[],"categories_sizes":[],"default_left":[0,0,0,0,0,0,0,0,0,0,0,0,0],"id":61,"left_children":[1,3,5,-1,-1,7,-1,9,-1,11,-1,-1,-1],"loss_changes":[3.9758377E0,4.9430532E0,4.059129E0,0E0,0E0,4.3944845E0,0E0,4.8707848E0,0E0,4.454312E0,0E0,0E0,0E0],"parents":[2147483647,0,0,1,1,2,2,5,5,7,7,9,9],"right_children":[2,4,6,-1,-1,8,-1,10,-1,12,-1,-1,-1],"split_conditions":[6.083346E-1,5E0,9.716667E-1,-3.2200616E-2,8.864596E-3,9.3916667E-1,-2.4152713E-2,6.9E-1,3.505194E-2,8.441667E-1,-1.948607E-2,1.1565679E-2,-1.7995296E-2],"split_indices":[7,0,14,0,0,14,0,6,0,30,0,0,0],"split_type":[0,0,0,0,0,0,0,0,0,0,0,0,0],"sum_hessian":[1.6806766E2,2.9651909E1,1.3841574E2,1.885595E1,1.0795959E1,1.2657059E2,1.1845156E1,1.1622691E2,1.0343675E1,9.6272705E1,1.995421E1,8.225956E1,1.4013147E1],"tree_param":{"num_deleted":"0","num_feature":"36","num_nodes":"13","size_leaf_vector":"1"}},{"base_weights":[4.4548255E-3,5.5594984E-2,-3.0407457E-2,4.2758333E-3,3.2117337E-2,-3.474369E-2,7.204566E-2,-5.5800043E-2,3.9728448E-1,7.892997E-3,-1.4865333E-2,-1.8002233E-2,3.578174E-2],"categories":[],"categories_nodes":[],"categories_segments":[],"categories_sizes":[],"default_left":[0,0,0,0,0,0,0,0,0,0,0,0,0],"id":62,"left_children":[1,3,-1,5,-1,-1,7,9,11,-1,-1,-1,-1],"loss_changes":[5.2371783E0,4.6296268E0,0E0,6.8393517E0,0E0,0E0,5.5808268E0,5.0160427E0,9.414743E0,0E0,0E0,0E0,0E0],"parents":[2147483647,0,0,1,1,3,3,6,6,7,7,8,8],"right_children":[2,4,-1,6,-1,-1,8,10,12,-1,-1,-1,-1],"split_conditions":[8E-1,9.475E-1,-3.0407457E-2,1.6583334E-1,3.2117337E-2,-3.474369E-2,8.7333333E-1,5.7416666E-1,3.35E-1,7.892997E-3,-1.4865333E-2,-1.8002233E-2,3.578174E-2],"split_indices":[6,23,0,30,0,0,14,12,31,0,0,0,0],"split_type":[0,0,0,0,0,0,0,0,0,0,0,0,0],"sum_hessian":[1.6685344E2,1.5498756E2,1.1865871E1,1.4360513E2,1.1382438E1,1.174177E1,1.3186336E2,9.502978E1,3.683358E1,5.0385876E1,4.46439E1,1.0769277E1,2.6064304E1],"tree_param":{"num_deleted":"0","num_feature":"36","num_nodes":"13","size_leaf_vector":"1"}},{"base_weights":[-1.9524537E-2,-6.9935694E-2,2.9781768E-2,-1.4225421E-2,-3.7008792E-2,-2.9611934E-2,3.6456134E-2,1.198745E-1,-3.2359874E-1,1.0784431E-3,4.4700887E-2,-3.3819918E-2,-1.1766689E-3],"categories":[],"categories_nodes":[],"categories_segments":[],"categories_sizes":[],"default_left":[0,0,0,0,0,0,0,0,0,0,0,0,0],"id":63,"left_children":[1,3,-1,5,-1,-1,7,9,11,-1,-1,-1,-1],"loss_changes":[5.2302003E0,5.785738E0,0E0,4.3642144E0,0E0,0E0,4.083027E0,8.323447E0,2.6136324E0,0E0,0E0,0E0,0E0],"parents":[2147483647,0,0,1,1,3,3,6,6,7,7,8,8],"right_children":[2,4,-1,6,-1,-1,8,10,12,-1,-1,-1,-1],"split_conditions":[9.475E-1,6.3416666E-1,2.9781768E-2,1.6083333E-1,-3.7008792E-2,-2.9611934E-2,8.2916665E-1,7.866667E-1,4.85E-1,1.0784431E-3,4.4700887E-2,-3.3819918E-2,-1.1766689E-3],"split_indices":[23,5,0,30,0,0,30,30,6,0,0,0,0],"split_type":[0,0,0,0,0,0,0,0,0,0,0,0,0],"sum_hessian":[1.6800865E2,1.5625291E2,1.175575E1,1.4534248E2,1.0910423E1,1.1014289E1,1.343282E2,1.0982783E2,2.450037E1,9.847933E1,1.1348496E1,1.053109E1,1.396928E1],"tree_param":{"num_deleted":"0","num_feature":"36","num_nodes":"13","size_leaf_vector":"1"}},{"base_weights":[3.7575222E-3,1.1912646E-1,-2.9970372E-1,-1.830549E-2,2.0469116E-1,-3.662462E-2,-9.212207E-2,3.687745E-2,8.124161E-2,2.0359946E-2,-3.3751774E-1,-1.4632829E-1,2.831098E-1,-3.0976776E-2,-4.8649275E-5,-3.1610318E-2,4.09676E-3,4.2848356E-2,3.4168921E-3],"categories":[],"categories_nodes":[],"categories_segments":[],"categories_sizes":[],"default_left":[0,0,0,0,0,0,0,0,0,0,0,0,0,0,0,0,0,0,0],"id":64,"left_children":[1,3,5,-1,7,-1,9,-1,11,-1,13,15,17,-1,-1,-1,-1,-1,-1],"loss_changes":[5.9917226E0,5.2316628E0,4.076903E0,0E0,6.8790307E0,0E0,4.1859756E0,0E0,4.0945673E0,0E0,2.1082203E0,4.738405E0,5.662572E0,0E0,0E0,0E0,0E0,0E0,0E0],"parents":[2147483647,0,0,1,1,2,2,4,4,6,6,8,8,10,10,11,11,12,12],"right_children":[2,4,6,-1,8,-1,10,-1,12,-1,14,16,18,-1,-1,-1,-1,-1,-1],"split_conditions":[6.05E-1,2.725E-1,5.0083333E-1,-1.830549E-2,3.825E-1,-3.662462E-2,7.1E-1,3.687745E-2,7.7E-1,2.0359946E-2,3.45E-1,3E0,7.525E-1,-3.0976776E-2,-4.8649275E-5,-3.1610318E-2,4.09676E-3,4.2848356E-2,3.4168921E-3],"split_indices":[6,24,12,0,22,0,12,0,14,0,31,9,23,0,0,0,0,0,0],"split_type":[0,0,0,0,0,0,0,0,0,0,0,0,0,0,0,0,0,0,0],"sum_hessian":[1.6963918E2,1.23590065E2,4.604911E1,1.7859818E1,1.0573025E2,1.39513645E1,3.2097748E1,1.87995E1,8.693075E1,1.0225158E1,2.187259E1,4.0760456E1,4.6170288E1,1.1281179E1,1.059141E1,1.26027975E1,2.815766E1,1.1632702E1,3.4537586E1],"tree_param":{"num_deleted":"0","num_feature":"36","num_nodes":"19","size_leaf_vector":"1"}},{"base_weights":[1.0485696E-2,5.908596E-2,-2.976353E-2,-2.116832E-1,1.6971597E-1,7.79259E-2,-3.0773718E-2,4.0990178E-2,5.929219E-2,-1.4216385E-2,2.9761622E-2,-2.2565937E-1,2.3457585E-1,-2.4489162E-3,-2.5958149E-2,1.9170166E-3,3.633677E-2],"categories":[],"categories_nodes":[],"categories_segments":[],"categories_sizes":[],"default_left":[0,0,0,0,0,0,0,0,0,0,0,0,0,0,0,0,0],"id":65,"left_children":[1,3,-1,5,7,9,-1,-1,11,-1,-1,13,15,-1,-1,-1,-1],"loss_changes":[4.945154E0,4.7389255E0,0E0,5.4534006E0,7.930515E0,5.333716E0,0E0,0E0,4.91221E0,0E0,0E0,1.8539966E0,5.7803655E0,0E0,0E0,0E0,0E0],"parents":[2147483647,0,0,1,1,3,3,4,4,5,5,8,8,11,11,12,12],"right_children":[2,4,-1,6,8,10,-1,-1,12,-1,-1,14,16,-1,-1,-1,-1],"split_conditions":[8E-1,3.175E-1,-2.976353E-2,7.2E-1,3.8125E-1,4.825E-1,-3.0773718E-2,4.0990178E-2,5.6125E-1,-1.4216385E-2,2.9761622E-2,5.3375E-1,4.85E-1,-2.4489162E-3,-2.5958149E-2,1.9170166E-3,3.633677E-2],"split_indices":[6,31,0,32,31,32,0,0,33,0,0,31,6,0,0,0,0],"split_type":[0,0,0,0,0,0,0,0,0,0,0,0,0,0,0,0,0],"sum_hessian":[1.6760103E2,1.5614124E2,1.1459784E1,4.476374E1,1.113775E2,2.639322E1,1.8370518E1,1.5107394E1,9.62701E1,1.5674158E1,1.0719063E1,3.633838E1,5.993173E1,2.3624605E1,1.2713773E1,4.3763344E1,1.6168383E1],"tree_param":{"num_deleted":"0","num_feature":"36","num_nodes":"17","size_leaf_vector":"1"}},{"base_weights":[3.236385E-2,8.423473E-2,-3.2889575E-2,3.383073E-2,1.8176477E-2,7.101111E-2,-2.8581515E-2,1.346158E-1,-2.0564083E-2,1.0471506E-2,-2.4128286E-2],"categories":[],"categories_nodes":[],"categories_segments":[],"categories_sizes":[],"default_left":[0,0,0,0,0,0,0,0,0,0,0],"id":66,"left_children":[1,3,-1,-1,5,7,-1,9,-1,-1,-1],"loss_changes":[6.0106106E0,6.0710344E0,0E0,0E0,4.435473E0,4.0756183E0,0E0,5.500059E0,0E0,0E0,0E0],"parents":[2147483647,0,0,1,1,4,4,5,5,7,7],"right_children":[2,4,-1,-1,6,8,-1,10,-1,-1,-1],"split_conditions":[8.8963914E-1,2.2153035E-1,-3.2889575E-2,3.383073E-2,8.45E-1,5.45E-1,-2.8581515E-2,8.441667E-1,-2.0564083E-2,1.0471506E-2,-2.4128286E-2],"split_indices":[25,34,0,0,15,5,0,30,0,0,0],"split_type":[0,0,0,0,0,0,0,0,0,0,0],"sum_hessian":[1.6695337E2,1.5623393E2,1.071943E1,1.4595123E1,1.4163881E2,1.3095691E2,1.0681913E1,1.1651867E2,1.4438233E1,1.04655136E2,1.1863531E1],"tree_param":{"num_deleted":"0","num_feature":"36","num_nodes":"11","size_leaf_vector":"1"}},{"base_weights":[7.4439547E-3,5.1007096E-2,-2.8712196E-2,3.3542108E-2,-6.455321E-3,4.2623915E-2,-2.6647909E-2,1.0007074E-1,-2.4641518E-2,7.934062E-4,4.0350962E-2],"categories":[],"categories_nodes":[],"categories_segments":[],"categories_sizes":[],"default_left":[0,0,0,0,0,0,0,0,0,0,0],"id":67,"left_children":[1,3,-1,-1,5,7,-1,9,-1,-1,-1],"loss_changes":[4.282742E0,5.7395587E0,0E0,0E0,3.8573194E0,4.1552424E0,0E0,7.2089615E0,0E0,0E0,0E0],"parents":[2147483647,0,0,1,1,4,4,5,5,7,7],"right_children":[2,4,-1,-1,6,8,-1,10,-1,-1,-1],"split_conditions":[8.5375E-1,1.85E-1,-2.8712196E-2,3.3542108E-2,8.6076003E-1,9.716667E-1,-2.6647909E-2,9.4734865E-1,-2.4641518E-2,7.934062E-4,4.0350962E-2],"split_indices":[15,4,0,0,16,14,0,7,0,0,0],"split_type":[0,0,0,0,0,0,0,0,0,0,0],"sum_hessian":[1.6891908E2,1.5815866E2,1.0760423E1,1.2660314E1,