tree
version=v4
num_class=1
num_tree_per_iteration=1
label_index=0
max_feature_idx=17
objective=binary sigmoid:1
feature_names=x y distance_to_goal dist_squared angle_to_goal goal_angle x_squared under_pressure is_header is_penalty is_free_kick is_first_time tech_Diving_Header tech_Half_Volley tech_Lob tech_Normal tech_Overhead_Kick tech_Volley
feature_infos=[30.199999999999999:120.5] [0.29999999999999999:79.599999999999994] [0.39999999999999858:89.82944951406526] [0.15999999999999887:8069.329999999999] [0:1.5834219185151814] [0:3.1415926535897931] [912.03999999999996:14520.25] [0:1] [0:1] none [0:1] [0:1] [0:1] [0:1] [0:1] [0:1] [0:1] [0:1]
tree_sizes=3343 3455 3477 3464 3484 3500 3467 3478 3499 3512 3491 3483 3460 3482 3481 3490 3448 3447 3490 3493 3489 3471 3461 3496 3478 3493 3496 3463 3491 3482 3492 3507 3472 3492 3483 3456 3517 3498 3482 3487 3448 3465 3457 3472 3456 3483 3497 3483 3505 3498 3452 3471 3415 3464 3464 3482 3435 3482 3444 3451

Tree=0
num_leaves=31
num_cat=0
split_feature=3 3 8 8 2 2 4 2 15 2 3 14 3 4 4 14 4 2 4 0 2 10 14 0 4 4 2 1 0 3
split_gain=2713.01 1261.64 638.129 487.132 248.992 246.062 147.857 140.27 138.519 89.377 86.6845 52.3723 52.3271 51.4559 50.8685 48.3197 46.4704 44.9869 44.1616 43.1752 41.523 28.9611 30.5305 28.2338 28.0805 23.1143 22.6958 21.9936 19.2502 17.9236
threshold=64.970000000000098 312.23000000000008 1.0000000180025095e-35 1.0000000180025095e-35 4.6443494114579318 14.400520822868229 0.82241827927137889 5.8493581741285992 1.0000000180025095e-35 22.025553275712795 103.70000000000005 1.0000000180025095e-35 118.08499999999997 0.92031399707233619 0.85157359529072363 1.0000000180025095e-35 0.53978509005366726 4.1653324280673347 1.1154020156754434 118.15000000000002 7.0505317521682214 1.0000000180025095e-35 1.0000000180025095e-35 117.05000000000001 0.75282626952941101 0.07358217374977305 6.2597922141634736 29.250000000000004 93.250000000000014 802.2299999999999
decision_type=2 2 2 2 2 2 2 2 2 2 2 2 2 2 2 2 2 2 2 2 2 2 2 2 2 2 2 2 2 2
left_child=2 3 4 5 19 6 10 17 13 11 -2 24 -5 -6 15 -7 25 23 -8 -1 -18 22 29 -4 -3 -10 -15 -13 -24 -11
right_child=1 9 7 12 8 14 18 -9 16 21 -12 27 -14 26 -16 -17 20 -19 -20 -21 -22 -23 28 -25 -26 -27 -28 -29 -30 -31
leaf_value=-1.9074110540488494 -2.0748120272679564 -2.19602082389736 -2.0568655030414997 -2.185410521462678 -2.047576502693699 -2.1627793872417835 -2.1429650123478394 -2.1417512407173511 -2.0297851277140264 -2.2189785824731945 -2.1225330004283722 -2.2143516539488708 -2.2159447153510512 -2.0742113487408527 -2.1951329055849178 -2.0269477319288871 -1.9730255328243298 -2.0785762765461624 -2.1884211055158951 -1.7612650381961215 -2.0889645659625393 -2.2036960222258295 -2.2030868725614869 -1.913280214987866 -2.2172640807439645 -1.9219564956547646 -2.1921077705211389 -2.0481437898057848 -2.1058138013315872 -2.2296885239773423
leaf_weight=29.618490859866142 126.76714088022709 578.24407540261745 6.8350363522768003 291.71935151517391 74.000660240650177 433.97924146056175 155.3831597417593 172.78971898555756 6.6527687162160865 986.06791108846664 389.32367062568665 2.5517469048500043 271.03197482228279 6.65276871621609 141.62195321917534 6.5616348981857291 19.776038512587547 49.39452937245369 81.109098047018051 6.8350363522768012 13.39667125046253 234.57844761013985 11.938530161976816 7.9286421686410904 213.70880328118801 35.9067243039608 10.115853801369665 7.837508350610733 8.6577127128839475 661.0847159922123
leaf_count=325 1391 6345 75 3201 812 4762 1705 1896 73 10820 4272 28 2974 73 1554 72 217 542 890 75 147 2574 131 87 2345 394 111 86 95 7254
internal_value=-2.18103 -2.19237 -2.06242 -2.16112 -1.99735 -2.14467 -2.12579 -2.11823 -2.0235 -2.2143 -2.11078 -2.20029 -2.20013 -2.06551 -2.16909 -2.16071 -1.97344 -2.0551 -2.15857 -1.8788 -2.01928 -2.22021 -2.22253 -1.97813 -2.20176 -1.9383 -2.14527 -2.08937 -2.16227 -2.22328
internal_weight=5042.07 4602.17 439.903 1897.5 202.955 1334.75 752.583 236.948 166.501 2704.67 516.091 802.342 562.751 90.7693 582.163 440.541 75.7322 64.1582 236.492 36.4535 33.1727 1902.33 1667.75 14.7637 791.953 42.5595 16.7686 10.3893 20.5962 1647.15
internal_count=55326 50499 4827 20821 2227 14646 8258 2600 1827 29678 5663 8804 6175 996 6388 4834 831 704 2595 400 364 20874 18300 162 8690 467 184 114 226 18074
is_linear=0
shrinkage=1


Tree=1
num_leaves=31
num_cat=0
split_feature=3 2 8 8 3 3 7 4 15 2 2 15 4 14 14 2 10 7 0 2 15 15 15 4 3 0 0 4 4 2
split_gain=2347.38 1104.14 492.874 302.818 229.392 153.206 120.108 118.172 119.341 87.8281 87.3601 65.435 55.0532 43.032 41.7972 37.0499 37.8049 33.252 32.8524 32.8264 29.6909 26.1078 25.689 22.2119 22.096 21.8739 21.3262 21.1832 18.5216 17.1964
threshold=277.30500000000018 7.1589105316381811 1.0000000180025095e-35 1.0000000180025095e-35 97.620000000000076 370.90000000000003 1.0000000180025095e-35 0.98805683254492471 1.0000000180025095e-35 9.0746900104450336 4.1653324280673347 1.0000000180025095e-35 0.72835271418312575 1.0000000180025095e-35 1.0000000180025095e-35 25.879238774406204 1.0000000180025095e-35 1.0000000180025095e-35 108.95000000000002 5.8493581741285992 1.0000000180025095e-35 1.0000000180025095e-35 1.0000000180025095e-35 1.2233691675349057 126.44499999999998 114.95000000000002 93.250000000000014 0.66254820261630998 0.81083181501197477 3.4964249196573003
decision_type=2 2 2 2 2 2 2 2 2 2 2 2 2 2 2 2 2 2 2 2 2 2 2 2 2 2 2 2 2 2
left_child=1 3 4 10 12 14 19 8 -6 17 28 27 21 15 18 16 -7 -4 20 -5 -2 -3 -14 -13 -11 -17 -15 -12 -1 -8
right_child=5 2 9 6 7 13 29 -9 -10 24 11 23 22 26 -16 25 -18 -19 -20 -21 -22 -23 -24 -25 -26 -27 -28 -29 -30 -31
leaf_value=0.21798716544567742 -0.024185331399824032 0.086299904102324479 0.040127258056889228 0.15143008936551572 0.016509131019911555 -0.031576175937000843 0.14739826058783687 -0.0051289837188077392 0.054885738717781352 -0.0128087837343495 0.14011502733996017 0.19470641298118066 0.024414025830306496 -0.022338975528574802 0.11382559638402967 -0.042481846018416015 0.0093579120496626624 -0.0018006354656051199 -0.035774269969271404 0.085623248726856907 0.0070911593287058833 0.12912003503195654 0.08525564685448199 0.046505092925342016 -0.035281070648389388 0.10563804276670347 0.065347108123213288 0.083985172696411745 0.31085778077001186 0.02832532522750127
leaf_weight=22.588142067193989 100.42522468417883 79.481381393969059 82.839240774512291 38.867399320006371 331.28728907555342 1090.179207496345 3.0801948234438887 174.22099895775318 523.60903333872557 216.33243575692177 47.189726397395134 62.644465506076813 38.499954372644424 12.272009879350664 7.2502815946936598 1156.4583140611649 59.244383201003075 109.49320897459984 79.010152705013752 39.127957344055176 309.3112138658762 68.322154089808464 32.128841072320938 2.8039547055959693 223.51038057357073 2.3867438733577719 15.545401968061922 28.033185735344887 8.7077477574348432 82.896825909614563
leaf_count=199 1105 797 898 385 3504 12250 28 1905 5576 2390 461 575 408 137 73 13113 661 1187 885 416 3411 673 339 26 2521 27 160 279 72 865
internal_value=0.000420052 0.0389692 0.024041 0.122452 0.0422663 -0.0297372 0.0737134 0.0323751 0.0400236 -0.0119183 0.168825 0.151704 0.0888089 -0.0350959 -0.00448624 -0.035842 -0.0294613 0.0162436 -0.00627448 0.118633 -0.00056645 0.106201 0.0522428 0.188514 -0.0242451 -0.0421634 0.0265427 0.119403 0.244894 0.0328156
internal_weight=5047.75 2215.66 1879.72 335.94 1247.55 2832.08 163.972 1029.12 854.896 632.175 171.967 140.671 218.432 2336.09 495.997 2308.27 1149.42 192.332 488.747 77.9954 409.736 147.804 70.6288 65.4484 439.843 1158.85 27.8174 75.2229 31.2959 85.977
internal_count=55326 23504 20198 3306 13202 31822 1694 10985 9080 6996 1612 1341 2217 26348 5474 26051 12911 2085 5401 801 4516 1470 747 601 4911 13140 297 740 271 893
is_linear=0
shrinkage=0.05


Tree=2
num_leaves=31
num_cat=0
split_feature=5 5 8 5 8 2 14 15 2 7 15 5 5 7 0 15 5 0 10 14 7 5 2 0 14 10 14 15 8 4
split_gain=2134.03 844.584 416.974 289.653 211.823 183.364 119.48 126.327 112.561 84.753 60.3925 54.9775 50.9757 38.9045 38.6598 34.0606 25.4531 24.1695 23.0066 21.5877 19.9404 19.5371 18.4123 18.2431 18.1302 18.1199 15.8058 23.3898 24.1915 14.5788
threshold=0.39042320481724652 1.0147912565944472 1.0000000180025095e-35 0.64279509952616165 1.0000000180025095e-35 19.275761978417595 1.0000000180025095e-35 1.0000000180025095e-35 9.0746900104450336 1.0000000180025095e-35 1.0000000180025095e-35 0.28555985852417326 0.28944617069856998 1.0000000180025095e-35 116.65000000000002 1.0000000180025095e-35 0.68573529806879607 116.65000000000002 1.0000000180025095e-35 1.0000000180025095e-35 1.0000000180025095e-35 0.70120786496728671 16.03199923253749 117.85000000000001 1.0000000180025095e-35 1.0000000180025095e-35 1.0000000180025095e-35 1.0000000180025095e-35 1.0000000180025095e-35 0.66254820261630998
decision_type=2 2 2 2 2 2 2 2 2 2 2 2 2 2 2 2 2 2 2 2 2 2 2 2 2 2 2 2 2 2
left_child=5 2 3 6 14 11 7 -2 13 17 21 -1 19 -4 15 29 -10 -6 24 23 -12 -5 -8 25 -14 -7 27 -13 -29 -3
right_child=1 4 8 10 9 12 22 -9 16 -11 20 26 18 -15 -16 -17 -18 -19 -20 -21 -22 -23 -24 -25 -26 -27 -28 28 -30 -31
leaf_value=-0.025283218112478717 0.0010694278456091226 0.12399953963850374 0.043509894242395208 0.034169933533214125 0.094553091263339509 -0.043664147104535811 0.2021112913690841 0.039483244829376513 -0.030791514392835631 0.031381750295541619 0.11570851535352211 -0.016257510266803676 -0.027745506688328106 0.0021568591547162382 0.19965589549966756 0.17047825461892027 -0.0031814136559934012 0.16874872547647901 0.0075213873266744904 0.010471230699510944 0.069195734363699093 0.072992360840822265 0.078884589417560325 0.10112621777120961 0.050249609692460152 -0.02664028502573251 0.081704784915093531 0.016089926062035697 -0.035076338470355253 0.045982222191625129
leaf_weight=203.82386218756437 332.5639275982976 52.188210546970367 102.33887940645218 45.268025316298008 52.411805912852287 1231.6758412867785 10.74017062038183 601.7416282966733 297.64114590734243 67.732014171779156 119.65672864764929 96.654788263142109 738.48456322401762 128.50428476929665 40.410167142748833 54.655095890164375 116.61009761691093 14.461684972047804 51.453861191868782 20.268430054187775 30.00579010695219 122.04305478185415 4.6846711337566367 2.1341844797134391 7.3937772884964934 181.58639475703239 6.7721107527613631 283.06371699273586 25.005742073059082 7.1822389215230933
leaf_count=2288 3529 453 1062 461 496 14434 109 6256 3413 681 1102 1062 8507 1385 304 432 1299 123 574 218 279 1163 43 23 72 2090 66 3052 284 66
internal_value=0.000345555 0.037325 0.0252748 0.0419383 0.116975 -0.0282263 0.0281122 0.0258169 -0.00743918 0.0709778 0.083327 -0.00404909 -0.0348858 0.0205223 0.156962 0.141626 -0.0230341 0.110901 -0.024727 -0.0405222 0.106469 0.062545 0.165757 -0.0412567 -0.026959 -0.0414824 0.00646011 0.00516885 0.0119105 0.114739
internal_weight=5049.16 2200.84 1911.8 1266.7 289.041 2848.32 949.73 934.306 645.094 134.606 316.974 615.32 2233 230.843 154.436 114.026 414.251 66.8735 797.332 1435.66 149.663 167.311 15.4248 1415.4 745.878 1413.26 411.496 404.724 308.069 59.3704
internal_count=55326 22656 20101 12942 2555 32670 9937 9785 7159 1300 3005 6752 25918 2447 1255 951 4712 619 9153 16765 1381 1624 152 16547 8579 16524 4464 4398 3336 519
is_linear=0
shrinkage=0.05


Tree=3
num_leaves=31
num_cat=0
split_feature=5 2 8 2 8 3 5 5 7 5 14 14 5 5 7 0 3 14 5 15 1 10 10 14 4 0 5 2 16 5
split_gain=1917.36 711.895 339.871 301.332 147.358 115.833 78.6435 70.9363 70.4606 55.903 48.9346 45.6574 42.5355 34.9572 32.3644 26.0189 25.8892 20.373 19.4272 18.71 18.1844 17.7774 15.7568 14.557 13.8163 13.5063 13.3944 13.2588 13.1431 12.9904
threshold=0.36992570618680604 7.1589105316381811 1.0000000180025095e-35 14.49844814258026 1.0000000180025095e-35 370.90000000000003 0.70120786496728671 0.67177723279586365 1.0000000180025095e-35 0.93709969090713485 1.0000000180025095e-35 1.0000000180025095e-35 0.28329611895580858 0.27647958668003969 1.0000000180025095e-35 117.35000000000001 287.99999999999994 1.0000000180025095e-35 1.5348313178225643 1.0000000180025095e-35 68.65000000000002 1.0000000180025095e-35 1.0000000180025095e-35 1.0000000180025095e-35 0.60663479628004013 83.450000000000017 0.88130634511938355 9.0746900104450336 1.0000000180025095e-35 1.5348313178225643
decision_type=2 2 2 2 2 2 2 2 2 2 2 2 2 2 2 2 2 2 2 2 2 2 2 2 2 2 2 2 2 2
left_child=5 4 3 6 9 13 10 27 18 -2 -3 16 17 -1 26 19 -5 20 -6 -11 22 23 -7 -14 -20 -19 -9 -4 -8 -10
right_child=1 2 7 11 8 12 28 14 29 15 -12 -13 21 -15 -16 -17 -18 25 24 -21 -22 -23 -24 -25 -26 -27 -28 -29 -30 -31
leaf_value=-0.026127709230708243 0.051589269219381367 0.042647039638355436 0.012678870388391101 0.016900878676075825 0.081123310519979355 -0.043600594984681669 0.082114845281868715 0.014633191317293022 0.023474889860055286 0.10616578536435933 0.15339335052057645 0.10487679612723831 -0.028307701078913963 0.0013854062072346921 -0.0086910755692163541 0.17735969848181177 -0.0032904820144788621 -0.033098220438847387 0.10532961439577999 0.14120430493652242 0.046163890032633347 0.0018653330094375719 -0.027128872439819304 0.040600171031484562 0.21382465829606084 0.049420799872229672 0.050765666684438375 -0.031192198142893226 -0.0020277438697261052 0.09995404132371305
leaf_weight=176.48243682831526 25.485343091189861 568.27811902761459 18.131690874695778 303.87661817669868 77.861351005733013 1117.1176222637296 207.79246519505978 102.86444072425365 83.865814581513405 83.279106296598911 10.107319518923758 11.891494534909723 721.27055491507053 332.56346096098423 173.74818953871727 27.033828601241112 331.56431088596582 9.3163841217756289 8.7297459170222265 78.045287773013115 5.8199027180671683 54.79720351099968 169.63384666293859 7.6036809980869284 5.0152924954891196 10.315265297889708 34.45786389708519 279.68275835365057 4.623503476381301 5.9177686423063269
leaf_count=2023 220 5657 192 3126 696 13569 1819 1110 842 663 91 102 8526 3614 1911 174 3650 105 68 550 68 612 1996 72 36 105 346 3291 42 50
internal_value=0.000282708 0.0321103 0.020243 0.0334999 0.0935406 -0.0295555 0.0542063 -0.0110606 0.0602837 0.121686 0.0446172 0.008192 -0.0347523 -0.00814662 0.00562432 0.131111 0.00635858 -0.0402649 0.0911419 0.123225 -0.0410334 -0.0255115 -0.0414353 -0.0275765 0.146537 0.0100379 0.0237665 -0.0285011 0.0802598 0.028677
internal_weight=5047.17 2442.25 2047.02 1438.13 395.234 2604.92 790.801 608.885 181.39 213.844 578.385 647.332 2095.87 509.046 311.07 188.358 635.441 1312.2 91.6064 161.324 1292.57 783.671 1286.75 728.874 13.745 19.6316 137.322 297.814 212.416 89.7836
internal_count=55326 24636 21337 14487 3299 30690 7609 6850 1692 1607 5748 6878 25053 5637 3367 1387 6776 15843 800 1213 15633 9210 15565 8598 104 210 1456 3483 1861 892
is_linear=0
shrinkage=0.05


Tree=4
num_leaves=31
num_cat=0
split_feature=5 5 7 14 2 2 7 11 5 5 11 5 5 0 14 0 11 10 10 17 0 14 2 0 0 15 2 10 4 5
split_gain=1730.55 593.324 172.919 114.801 101.648 79.9431 142.343 64.2448 42.7106 39.1013 32.679 30.6593 30.0142 28.4959 19.4881 18.3789 17.9932 17.8935 17.5007 16.6041 15.5327 13.5304 12.6126 12.0328 11.9609 11.8395 11.4511 11.393 11.0009 10.4786
threshold=0.36549561965313321 0.88130634511938355 1.0000000180025095e-35 1.0000000180025095e-35 19.275761978417595 14.900167783345553 1.0000000180025095e-35 1.0000000180025095e-35 1.5348313178225643 0.28329611895580858 1.0000000180025095e-35 0.64279509952616165 0.27647958668003969 114.75000000000001 1.0000000180025095e-35 119.05000000000001 1.0000000180025095e-35 1.0000000180025095e-35 1.0000000180025095e-35 1.0000000180025095e-35 114.45000000000002 1.0000000180025095e-35 19.275761978417595 112.75000000000001 83.450000000000017 1.0000000180025095e-35 10.86830253535482 1.0000000180025095e-35 0.79895973000489839 0.30897748964557498
decision_type=2 2 2 2 2 2 2 2 2 2 2 2 2 2 2 2 2 2 2 2 2 2 2 2 2 2 2 2 2 2
left_child=4 3 8 5 12 6 11 13 10 14 23 -2 26 -4 15 18 -8 21 -6 -12 -9 25 -7 -3 -16 -11 -1 -24 -10 -19
right_child=1 2 7 -5 9 22 16 20 28 17 19 -13 -14 -15 24 -17 -18 29 -20 -21 -22 -23 27 -25 -26 -27 -28 -29 -30 -31
leaf_value=0.012654026015650775 0.026984758719779491 0.042099076422550466 0.0061775681163069689 0.1187030195307604 -0.042906833646631053 0.0046709357908183971 -0.0057801105965495717 0.064779867674845976 0.12242832814815777 -0.040201971605273973 0.11583912456066801 0.046263204514081613 0.00050520709856912533 0.056245022741382468 -0.032324483064236874 0.12629360407831275 0.016769424875747448 -0.019679812657548073 -0.025423235168223181 0.075711906174048008 0.13539225038914579 0.03741598289810643 -0.016087954849047341 0.079318522947215142 0.045183682579826627 -0.024441927416473913 -0.029743541430114324 0.055046495753250629 0.17489350029545014 0.024176480106899944
leaf_weight=17.509622566401958 539.19341919571161 27.639256440103054 99.123953424394131 27.282936118543148 1080.1604648157954 522.94926568865776 340.85913179069757 17.207541704177856 40.52907007932663 156.00365144759417 110.24522635340691 337.10861329734325 312.89839681982994 39.92073243111372 9.0711096078157443 1.5437671244144429 119.35876809060574 26.765548929572105 167.3759612813592 35.886053152382374 15.4086422547698 7.8403437510132781 122.62191514670849 122.41027968376875 10.716896079480646 530.39976411312819 155.60853088647127 5.7751368656754485 15.307709097862242 27.473465040326118
leaf_count=196 5503 258 1009 222 13598 5534 3771 130 260 1887 784 3169 3402 363 105 15 1128 303 2012 278 105 72 1419 996 105 6420 1831 63 86 302
internal_value=0.000231635 0.029319 0.0767323 0.016992 -0.0292658 0.0155876 0.0225872 0.0355137 0.0968025 -0.0342118 0.0891283 0.0344112 -0.00872293 0.0206183 -0.0395664 -0.0403471 5.96834e-05 -0.0251236 -0.0405674 0.106078 0.0986035 -0.0272848 0.00121605 0.0725286 0.00941753 -0.0280364 -0.0254216 -0.0128092 0.137188 0.00244613
internal_weight=5042.2 2538.83 523.678 2015.15 2503.37 1987.87 1336.52 171.661 352.018 2017.35 296.181 876.302 486.017 139.045 1268.87 1249.08 460.218 748.483 1247.54 146.131 32.6162 694.244 651.346 150.05 19.788 686.403 173.118 128.397 55.8368 54.239
internal_count=55326 25078 4269 20809 30248 20587 13571 1607 2662 24819 2316 8672 5429 1372 15835 15625 4899 8984 15610 1062 235 8379 7016 1254 210 8307 2027 1482 346 605
is_linear=0
shrinkage=0.05


Tree=5
num_leaves=31
num_cat=0
split_feature=3 2 8 5 5 8 3 5 7 1 7 17 2 17 14 15 2 0 16 0 2 2 14 10 10 4 8 2 10 3
split_gain=1583.62 482.214 327.463 159.335 139.562 76.5271 71.3949 66.6168 44.544 36.8983 33.183 32.5556 29.533 27.5112 25.6792 31.5821 22.6215 21.4679 21.378 20.4586 20.9639 16.5029 12.937 12.3262 12.039 11.8029 10.765 9.0678 9.04644 8.93064
threshold=277.30500000000018 7.1589105316381811 1.0000000180025095e-35 0.54956242509929354 0.32187641109053139 1.0000000180025095e-35 122.29499999999996 0.32341487972245347 1.0000000180025095e-35 35.050000000000004 1.0000000180025095e-35 1.0000000180025095e-35 4.1653324280673347 1.0000000180025095e-35 1.0000000180025095e-35 1.0000000180025095e-35 19.275761978417595 109.15000000000002 1.0000000180025095e-35 92.250000000000014 38.142823701092233 5.8493581741285992 1.0000000180025095e-35 1.0000000180025095e-35 1.0000000180025095e-35 1.2494613999001964 1.0000000180025095e-35 8.9677198885781486 1.0000000180025095e-35 74.049999999999969
decision_type=2 2 2 2 2 2 2 2 2 2 2 2 2 2 2 2 2 2 2 2 2 2 2 2 2 2 2 2 2 2
left_child=1 5 3 7 19 9 10 -3 21 -1 27 18 -11 -9 15 -6 26 -13 -5 28 22 -7 24 -18 -21 -14 -17 -4 -2 -12
right_child=4 2 6 11 14 8 -8 13 -10 12 29 17 25 -15 -16 16 23 -19 -20 20 -22 -23 -24 -25 -26 -27 -28 -29 -30 -31
leaf_value=0.00068486175944784851 -0.04693928284877974 -0.010072818502283089 0.027766915410113582 0.060826753179289345 -0.028543445282725899 0.094067358603308629 -0.034517676557085826 0.028792026180244946 0.027308257416328086 0.13460107391317358 0.00056654844896493028 -0.01041433220363413 0.091523071703629985 -0.0034506243382403587 0.063076572273696355 0.0077350466322790414 -0.017007645296646123 0.04130634554817951 -0.0064873406082381017 -0.034184814266180724 0.074639634516488515 0.053996566530658541 0.014322602368944904 0.021153461469998733 -0.017438629829560293 -0.00010854056178101495 -0.041426861671160366 0.0055087835512827883 -0.02843261437740436 -0.020305307863680993
leaf_weight=10.065916217863558 401.96381288021803 166.56076397746801 89.843495696783066 426.31086717545986 189.70070064812899 55.261441446840763 222.24612640589476 597.41729198396206 92.045798227190971 47.281261682510376 81.607260212302208 27.193404413759708 181.62495304644108 74.06697790324688 11.817055165767668 256.93239415436983 288.3366707265377 74.587651550769806 11.973976813256739 1194.7278609648347 4.4930612891912451 50.77270869910717 14.612906888127325 22.638425074517727 119.68436387181282 3.4722246378660193 11.515560589730738 94.650158166885376 81.558340527117252 135.60694623738527
leaf_count=83 5260 1889 860 3692 2228 394 2678 5855 880 261 884 264 1216 758 95 2731 3488 646 111 15133 48 425 135 242 1430 28 134 1031 1005 1546
internal_value=-0.000215647 0.0286861 0.0182597 0.0318665 -0.0273907 0.0760448 -0.0117854 0.0182058 0.0528863 0.0949153 0.000784284 0.0530479 0.0989735 0.0252281 -0.00970314 -0.0108359 -0.00502598 0.0274421 0.0589753 -0.0349888 -0.0317747 0.0749962 -0.0321438 -0.0142076 -0.0326652 0.089778 0.0055929 0.0163842 -0.0438345 -0.0124441
internal_weight=5040.57 2442.59 2002.06 1378.11 2597.98 440.524 623.954 838.045 198.08 242.444 401.708 540.066 232.378 671.484 780.941 769.124 579.423 101.781 438.285 1817.04 1333.52 106.034 1329.03 310.975 1314.41 185.097 268.448 184.494 483.522 217.214
internal_count=55430 23501 20214 13215 31929 3287 6999 8502 1699 1588 4321 4713 1505 6613 8918 8823 6595 910 3803 23011 16746 819 16698 3730 16563 1244 2865 1891 6265 2430
is_linear=0
shrinkage=0.05


Tree=6
num_leaves=31
num_cat=0
split_feature=2 2 2 7 2 7 4 2 14 11 10 4 2 4 0 0 2 14 15 14 14 1 11 15 15 2 4 2 0 2
split_gain=1429.71 403.144 113.292 110.368 67.7398 52.9136 34.6646 33.3893 30.2725 28.531 24.8233 24.2513 23.278 23.2731 23.2515 19.1104 19.905 16.5682 13.0018 19.3003 11.3227 11.3189 10.9584 22.8559 20.521 19.0485 12.9589 9.05284 8.16851 7.78966
threshold=16.66163252983122 7.1589105316381811 22.025553275712795 1.0000000180025095e-35 11.954915307102768 1.0000000180025095e-35 1.0744761795859892 4.6443494114579318 1.0000000180025095e-35 1.0000000180025095e-35 1.0000000180025095e-35 0.86433701761401571 19.275761978417595 1.1455675130215976 118.35000000000001 119.05000000000001 27.241420667644665 1.0000000180025095e-35 1.0000000180025095e-35 1.0000000180025095e-35 1.0000000180025095e-35 35.050000000000004 1.0000000180025095e-35 1.0000000180025095e-35 1.0000000180025095e-35 9.3837622652511836 0.81663799682771665 13.612494260788511 113.25000000000001 11.161541112229978
decision_type=2 2 2 2 2 2 2 2 2 2 2 2 2 2 2 2 2 2 2 2 2 2 2 2 2 2 2 2 2 2
left_child=1 5 11 4 13 7 8 -1 -6 -7 15 12 18 17 21 16 20 -3 19 -2 -4 -9 24 26 25 -5 -24 -26 -25 -15
right_child=2 3 10 22 6 9 -8 14 -10 -11 -12 -13 -14 29 -16 -17 -18 -19 -20 -21 -22 -23 23 28 27 -27 -28 -29 -30 -31
leaf_value=0.1056528226767787 -0.022448182364637442 0.038337197540650431 -0.032271835465728753 0.10691734565783079 0.016210759890724968 0.028806082520287071 -0.022143391144942834 0.023733200127419283 0.094365248071651045 0.085090393108479379 -0.018679624804172238 -0.031383587202009088 -0.018223953771708178 0.012026141718329976 -0.04430503870102262 0.11660225909549396 -0.043633275278978118 0.12183192682653686 0.0041021023396434026 0.064196540211658645 0.025838202576530578 0.074284234631004573 0.0039488073175421683 0.03850801043381033 -0.011081321921228311 0.014547672942842527 -0.042523409698704877 0.0060800494437678477 -0.0074305685393924979 -0.041598668938252537
leaf_weight=89.740076631307602 94.509452573955059 607.88551163673401 715.00944553315639 6.5960674807429305 657.83640424162149 100.29875841736794 59.246883600950241 12.077753245830534 12.56348807364702 29.234116859734058 211.015545360744 148.1467413008213 379.70952144265175 39.67768768966198 4.279019057750701 1.9082391262054432 666.12265589088202 5.9799099564552298 306.9262338578701 6.774429462850093 8.3166752532124502 226.02777756750584 68.528904214501381 63.031667642295361 336.34266277402639 35.104148350656033 19.053279481828213 99.114680282771587 11.186036147177218 8.0476535335183126
leaf_count=506 1087 5499 9289 60 6588 920 698 99 94 182 2577 1885 4642 426 36 16 9006 46 3288 51 74 1544 628 572 3797 352 198 1068 107 95
internal_value=-0.000234931 0.0266677 -0.0266458 0.0170724 0.0249725 0.0688408 0.0144523 0.079433 0.0176967 0.0416032 -0.0347209 -0.0128152 -0.00931407 0.0365633 0.0696652 -0.0371486 -0.0373718 0.0391784 -0.00101159 -0.016546 -0.0315933 0.0717521 -0.00012234 0.0111103 -0.00394323 0.029499 -0.00614105 -0.00716323 0.0315162 0.00281107
internal_weight=5030.29 2491.85 2538.44 2030.19 1391.24 461.658 729.647 332.125 670.4 129.533 1602.37 936.066 787.92 661.591 242.385 1391.36 1389.45 613.865 408.21 101.284 723.326 238.106 638.957 161.8 477.158 41.7002 87.5822 435.457 74.2177 47.7253
internal_count=55430 23515 31915 20228 13446 3287 7380 2185 6682 1102 20962 10953 9068 6066 1679 18385 18369 5545 4426 1138 9363 1643 6782 1505 5277 412 826 4865 679 521
is_linear=0
shrinkage=0.05


Tree=7
num_leaves=31
num_cat=0
split_feature=2 2 8 2 15 2 2 8 14 2 4 4 7 2 15 7 10 4 2 0 2 1 14 4 15 14 2 1 8 2
split_gain=1293.36 339.903 275.795 108.992 96.3971 88.8046 65.5261 54.0539 51.6101 49.32 39.0655 30.2678 28.7489 25.8775 24.6344 24.5767 24.2447 22.9106 21.5152 19.0553 18.3838 13.4606 12.6356 12.0236 11.8801 17.1672 11.552 10.0454 9.84419 8.21215
threshold=16.66163252983122 7.1589105316381811 1.0000000180025095e-35 22.025553275712795 1.0000000180025095e-35 13.51406672517362 11.064131233356926 1.0000000180025095e-35 1.0000000180025095e-35 11.954915307102768 0.53172406725880605 0.96972257229714753 1.0000000180025095e-35 4.6443494114579318 1.0000000180025095e-35 1.0000000180025095e-35 1.0000000180025095e-35 0.86433701761401571 19.275761978417595 92.450000000000017 37.252919339985731 34.850000000000001 1.0000000180025095e-35 0.96972257229714753 1.0000000180025095e-35 1.0000000180025095e-35 5.8493581741285992 35.250000000000007 1.0000000180025095e-35 8.6072641336393598
decision_type=2 2 2 2 2 2 2 2 2 2 2 2 2 2 2 2 2 2 2 2 2 2 2 2 2 2 2 2 2 2
left_child=1 7 4 17 8 10 15 13 9 -3 -6 -7 26 -1 27 -4 19 18 24 -5 22 -16 -21 -10 25 -2 -9 -15 -26 -17
right_child=3 2 6 16 5 11 -8 12 23 -11 -12 -13 -14 14 21 29 -18 -19 -20 20 -22 -23 -24 -25 28 -27 -28 -29 -30 -31
leaf_value=0.10264128392789705 -0.021727897802766065 0.02367708146277428 0.013061484164206253 -0.045856772467746221 0.069552106964841626 0.027795252487205692 -0.033917379312657474 0.075451141879388964 0.095786204103827349 -0.0065452527514815589 0.039923006285114304 -0.0088497386419926268 0.02342792150952883 -0.0022005077948347189 -0.0046343185229619551 0.0008821954533627382 -0.018027404916842699 -0.030622337509639688 -0.017580622840901044 -0.03373010912332898 0.069771579528045066 0.090895452975883431 0.020014713374210399 -0.0011048750374803463 0.005666164403152759 0.058432101983110163 0.043529512251634449 0.055299036962692873 -0.0412321693588985 -0.01925563689433394
leaf_weight=75.722891196608543 92.807705625891685 272.15701559185982 192.36448650807142 386.5511664673686 212.88203083723783 351.45316122472286 217.2315182313323 61.899689361453056 21.633942365646366 267.30587901175022 236.99000655859709 66.825181692838669 96.032806366682053 8.0770064666867238 3.737740993499755 81.221962161362171 207.80441295355558 144.33846516162157 374.07405360043049 946.97870180010796 4.2407421469688407 86.543539881706238 10.885422170162199 3.6331526711583129 296.41372979432344 7.0723094046115866 55.428015574812889 93.538326479494572 11.509799942374228 132.26235684752464
leaf_count=387 1087 2363 1892 5455 1694 3331 2675 394 150 2699 2186 772 880 66 28 886 2577 1885 4642 12791 42 492 97 34 3150 51 425 615 138 1546
internal_value=-0.000246128 0.0248596 0.0160025 -0.0259026 0.028079 0.0385406 -0.0117613 0.0626978 0.0119836 0.0086941 0.0539671 0.0219281 0.043836 0.0776947 0.0677764 9.0879e-05 -0.0339858 -0.0123116 -0.0089215 -0.0364394 -0.0326462 0.0868843 -0.0331121 0.0817077 -0.000963948 -0.0159491 0.0604632 0.0506818 0.00388411 -0.0115738
internal_weight=5019.62 2536.94 2055.96 2482.68 1432.88 868.15 623.08 480.98 564.73 539.463 449.872 418.278 213.361 267.62 191.897 405.849 1556.46 926.216 781.878 1348.66 962.105 90.2813 957.864 25.2671 407.804 99.88 117.328 101.615 307.924 213.484
internal_count=55430 23515 20228 31915 13229 7983 6999 3287 5246 5062 3880 4103 1699 1588 1201 4324 20962 10953 9068 18385 12930 520 12888 184 4426 1138 819 681 3288 2432
is_linear=0
shrinkage=0.05


Tree=8
num_leaves=31
num_cat=0
split_feature=2 5 8 5 8 5 15 2 2 2 14 15 14 15 5 0 2 2 7 7 10 7 14 5 12 8 10 5 4 2
split_gain=1171.26 296.5 227.72 126.369 97.6344 90.0754 96.5488 52.5252 48.8635 41.9344 38.8017 27.848 20.5163 28.6469 20.2145 19.3464 18.2437 17.7301 17.3935 13.6777 10.7814 10.7243 10.4537 10.8959 9.63963 9.29896 8.7284 8.32326 8.13683 8.07999
threshold=16.66163252983122 0.88130634511938355 1.0000000180025095e-35 0.31914371423312765 1.0000000180025095e-35 0.32811989501530542 1.0000000180025095e-35 11.064131233356926 13.998392754632379 6.2597922141634736 1.0000000180025095e-35 1.0000000180025095e-35 1.0000000180025095e-35 1.0000000180025095e-35 1.5348313178225643 92.250000000000014 19.275761978417595 35.356753243475389 1.0000000180025095e-35 1.0000000180025095e-35 1.0000000180025095e-35 1.0000000180025095e-35 1.0000000180025095e-35 0.26983963193331317 1.0000000180025095e-35 1.0000000180025095e-35 1.0000000180025095e-35 0.27647958668003969 0.58800260354756828 8.6072641336393598
decision_type=2 2 2 2 2 2 2 2 2 2 2 2 2 2 2 2 2 2 2 2 2 2 2 2 2 2 2 2 2 2
left_child=1 2 5 15 11 27 10 18 -8 21 -7 14 13 -5 -3 26 25 22 -4 24 -18 -6 23 -17 -11 -15 -2 -1 -28 -20
right_child=3 4 7 12 9 6 8 -9 -10 19 -12 -13 -14 16 -16 17 20 -19 29 -21 -22 -23 -24 -25 -26 -27 28 -29 -30 -31
leaf_value=-0.018906568796071724 -0.04543136457610561 0.05032302362929663 0.01038563413518959 -0.026977987546993838 0.066147665224996127 0.0089507941194881344 0.050791738276022652 -0.033159444220020026 0.024396378170702778 0.027498368440054845 0.07427287119255048 0.087832126670568847 0.052773580692720069 0.0069508932705906945 0.097406785904953705 -0.035429047123375114 -0.015229935350888478 0.040915640771018356 0.0062205578593816308 0.00201605333954999 0.019642881923061892 0.035714928497787055 0.011729618097939791 -0.025763249322994855 0.12370564331349823 -0.040126844443745563 -0.029286061490924789 0.0028394970674716232 0.073552856631132604 -0.018589434096784273
leaf_weight=96.750339388847351 358.28374239802361 139.78369073569775 162.78595235943794 183.41080269962549 75.858917951583862 475.98791097849607 453.02864472568035 211.24296405166388 288.0836600586772 74.838656917214394 23.808751054108143 155.58062541484833 13.23763883858919 263.70947603881359 27.728712871670723 617.84080508351326 290.31891656666994 8.6640012636780721 43.449502870440483 86.476779110729694 23.788930006325245 49.078919179737568 14.401818931102751 567.57720828056335 2.6444036886095992 10.799972496926783 75.426708616316319 79.955504469573498 1.8542427271604527 130.20907907187939
leaf_count=1146 5260 897 1609 2293 476 4389 3716 2675 2684 605 156 844 99 2767 133 8627 3708 97 469 874 258 423 131 7536 21 134 981 852 24 1546
internal_value=-0.00025827 0.0232195 0.0137511 -0.0251682 0.0536105 0.0243308 0.0290876 -0.0136236 0.0405428 0.032442 0.0120868 0.0725072 -0.00865757 -0.00972408 0.0582002 -0.0330503 -0.00433567 -0.0297742 -0.00133651 0.0157548 -0.0125675 0.054271 -0.0302922 -0.0308079 0.0310015 0.00506658 -0.0421196 -0.00904263 -0.0266621 -0.0123532
internal_weight=5006.61 2577.29 1965.3 2429.31 611.991 1417.61 1240.91 547.687 741.112 288.898 499.797 323.093 785.266 772.028 167.512 1644.05 588.617 1208.48 336.445 163.96 314.108 124.938 1199.82 1185.42 77.4831 274.509 435.565 176.706 77.281 173.659
internal_count=55430 23515 19242 31915 4273 12943 10945 6299 6400 2399 4545 1874 9259 9160 1030 22656 6867 16391 3624 1500 3966 899 16294 16163 626 2901 6265 1998 1005 2015
is_linear=0
shrinkage=0.05


Tree=9
num_leaves=31
num_cat=0
split_feature=3 5 8 5 5 8 15 3 2 2 14 15 0 5 2 7 2 7 10 14 10 5 15 14 14 8 7 10 4 15
split_gain=1063.53 256.859 199.78 115.257 82.2785 81.8823 80.2251 49.3443 42.9754 35.4825 34.5257 22.8252 19.2746 17.2679 17.1782 15.7297 15.4702 11.9191 11.9183 12.6654 11.3802 13.3502 11.1921 10.7548 9.92103 9.13271 8.92462 8.16175 9.016 7.91724
threshold=280.93000000000001 0.88130634511938355 1.0000000180025095e-35 0.31914371423312765 0.32811989501530542 1.0000000180025095e-35 1.0000000180025095e-35 122.29499999999996 13.998392754632379 6.2597922141634736 1.0000000180025095e-35 1.0000000180025095e-35 92.050000000000011 1.5348313178225643 19.275761978417595 1.0000000180025095e-35 38.142823701092233 1.0000000180025095e-35 1.0000000180025095e-35 1.0000000180025095e-35 1.0000000180025095e-35 0.30897748964557498 1.0000000180025095e-35 1.0000000180025095e-35 1.0000000180025095e-35 1.0000000180025095e-35 1.0000000180025095e-35 1.0000000180025095e-35 0.54351840104609572 1.0000000180025095e-35
decision_type=2 2 2 2 2 2 2 2 2 2 2 2 2 2 2 2 2 2 2 2 2 2 2 2 2 2 2 2 2 2
left_child=1 2 4 12 -1 11 10 15 -8 26 -6 13 27 -3 22 -4 20 -11 19 29 23 -22 24 -14 -5 -24 -7 -2 -29 -16
right_child=3 5 7 14 6 9 8 -9 -10 17 -12 -13 16 -15 18 -17 -18 -19 -20 -21 21 -23 25 -25 -26 -27 -28 28 -30 -31
leaf_value=-0.0092888318592026752 -0.045070022965258992 0.046351946914163895 0.0098208758859475633 -0.021241093086182189 0.0084243453543051197 0.060411434468591096 0.046510521111795551 -0.032295927783921083 0.022325175014829522 0.0288119731869005 0.068532772930132477 0.079901147013097876 -0.031623659613748169 0.089115620759120717 -0.031250822225441059 -0.011819555636696616 0.056113792351875406 0.0019123006670470452 0.01837016669557567 0.049012914771297975 -0.019110996003780696 0.046438592019491715 0.0064017693886901459 0.011520232510945057 0.041574666321452187 -0.043180289200025201 0.033044091295361823 -0.03012625578774555 0.055634909743099627 -0.014657464654137409
leaf_weight=178.96365372091532 333.50683254748583 144.06378200650215 164.0024698600173 78.774575114250183 482.48582787066698 78.836836248636246 469.55216144770384 206.75800115615129 303.89526645094156 79.179975844919682 25.072968199849129 162.29691575467587 1056.0276071429253 28.773532375693321 97.290854603052139 171.75556018203497 5.1790603175759307 86.612092576920986 24.162177093327045 6.8612095490097991 104.38582599163055 8.258270323276518 254.67967188358307 14.426682643592356 6.6894070655107489 9.5194967389106733 50.366868019104004 70.224142789840698 3.0753513574600211 286.67368557304144
leaf_count=2045 5091 897 1608 958 4428 476 3716 2691 2790 626 157 844 14919 133 1296 2013 48 874 258 54 1350 95 2661 130 44 122 423 936 39 3708
internal_value=-0.000267171 0.0215804 0.0128147 -0.0246432 0.0224427 0.0494223 0.02688 -0.0130853 0.0370184 0.0301643 0.0114164 0.0663448 -0.0322949 0.0535475 -0.00867273 -0.00123453 -0.0290596 0.014799 -0.015551 -0.0176651 -0.0294413 -0.0142241 -0.000493039 -0.0310365 -0.0162231 0.00458067 0.0498154 -0.0417236 -0.026389 -0.018882
internal_weight=4992.35 2632.62 2002.49 2359.73 1459.97 630.13 1281.01 542.516 773.447 294.996 507.559 335.134 1595.08 172.837 764.651 335.758 1188.28 165.792 414.988 390.826 1183.1 112.644 349.663 1070.45 85.464 264.199 129.204 406.806 73.2995 383.965
internal_count=55430 23721 19448 31709 13136 4273 11091 6312 6506 2399 4585 1874 22608 1030 9101 3621 16542 1500 5316 5058 16494 1445 3785 15049 1002 2783 899 6066 975 5004
is_linear=0
shrinkage=0.05


Tree=10
num_leaves=31
num_cat=0
split_feature=3 3 8 5 5 8 3 5 3 12 5 10 11 5 3 3 5 0 12 13 3 7 5 7 10 7 5 7 3 4
split_gain=939.412 289.304 187.466 100.373 73.018 64.8921 35.0457 33.9089 26.3427 25.2738 21.7383 20.2967 17.8367 21.9528 17.2783 16.8161 14.2721 14.1289 12.9919 12.5312 11.686 11.375 10.5506 10.4902 7.66587 7.51571 7.4033 7.37894 6.83933 6.65929
threshold=326.34000000000009 68.470000000000084 1.0000000180025095e-35 0.45632941997611381 0.28944617069856998 1.0000000180025095e-35 31.384999999999941 0.27647958668003969 124.55999999999997 1.0000000180025095e-35 1.2437983223734086 1.0000000180025095e-35 1.0000000180025095e-35 0.67177723279586365 392.1749999999999 222.01000000000002 0.65583960879509806 95.450000000000017 1.0000000180025095e-35 1.0000000180025095e-35 213.48500000000001 1.0000000180025095e-35 0.12155355791679047 1.0000000180025095e-35 1.0000000180025095e-35 1.0000000180025095e-35 0.93709969090713485 1.0000000180025095e-35 1724.2100000000003 0.22825490744928284
decision_type=2 2 2 2 2 2 2 2 2 2 2 2 2 2 2 2 2 2 2 2 2 2 2 2 2 2 2 2 2 2
left_child=1 5 3 7 11 10 -7 -3 18 25 16 17 20 -14 24 -9 27 -2 23 -16 -5 -18 -19 -4 -6 -8 -11 -1 -13 -12
right_child=4 2 8 12 14 6 9 15 -10 26 29 28 13 -15 19 -17 21 22 -20 -21 -22 -23 -24 -25 -26 -27 -28 -29 -30 -31
leaf_value=-0.0073421088184762095 -0.042993483839174694 -0.021385279969432441 -0.00043419502002713865 0.042053479632508078 -0.0048102680766946675 0.054642126832757668 0.025600642668913594 0.018214182929182154 -0.032316628744669638 0.056869256310809239 0.053487370352156928 -0.01937358735785363 0.016143064645287926 0.03836592944635836 -0.016727844426346013 0.0015013125095637869 0.057749434574281111 0.019674776869123188 0.050560503926060263 -0.036371244564798684 0.020337461319499445 0.030307476807018924 -0.032098222138114835 -0.019806784738031925 0.082665696260147345 0.0083991939298946466 0.17273734086522485 0.079436417601600404 0.047068254799961518 0.082286744219208341
leaf_weight=14.963880673050882 504.68924532085657 118.44078275561333 132.31171517819166 259.97222631424665 236.08295137435198 94.929391905665398 123.60246204584837 239.40002049505711 203.88090555369854 2.9509873315691939 28.167390629649162 154.32014998793602 405.22042226046324 154.05751734226942 558.37737925350666 407.12306896597147 226.27786314487457 9.857404559850691 8.7984368503093702 95.733576163649559 83.071970984339714 46.785398975014687 493.44134013354778 149.29361902177334 2.4263891205191603 133.19233744591475 3.1333803907036781 2.8137377575039855 3.8381211608648291 92.816892296075821
leaf_count=131 7863 1493 1324 2070 2720 610 956 2227 2731 25 140 2074 3552 1131 7428 4170 1347 122 90 1336 767 291 7242 1804 25 1323 24 24 50 442
internal_value=-0.000302586 0.0178777 0.00850085 0.0165196 -0.0261891 0.0442021 0.0285857 0.0031875 -0.0185353 0.0191401 0.0577479 -0.0344308 0.0278151 0.0222792 -0.0154135 0.00769949 0.0502509 -0.0370489 -0.00883496 -0.0196156 0.0368167 0.0530788 -0.0310706 -0.0107257 -0.00386514 0.0167049 0.119177 0.00648052 -0.0177009 0.0756727
internal_weight=4989.97 2931.2 2161.57 1667.29 2058.77 769.634 357.809 764.964 494.285 262.879 411.825 1166.15 902.322 559.278 892.62 646.523 290.841 1007.99 290.404 654.111 343.044 273.063 503.299 281.605 238.509 256.795 6.08437 17.7776 158.158 120.984
internal_count=55532 26672 21359 15410 28860 5313 2938 7890 5949 2328 2375 17351 7520 4683 11509 6397 1793 15227 3218 8764 2837 1638 7364 3128 2745 2279 49 155 2124 582
is_linear=0
shrinkage=0.05


Tree=11
num_leaves=31
num_cat=0
split_feature=2 2 8 5 5 2 5 2 5 5 14 10 12 11 14 8 0 0 5 15 13 2 2 1 0 2 4 2 5 5
split_gain=853.666 234.175 167.668 97.3096 83.614 49.6746 28.617 28.0687 27.4489 25.3894 19.9812 21.6291 19.8162 18.448 16.5702 15.7726 13.8713 12.3198 12.2463 11.6323 11.5659 11.0529 10.8042 8.51451 8.31866 8.25132 8.05459 7.97783 7.37213 8.34518
threshold=17.066634104493954 7.0505317521682214 1.0000000180025095e-35 0.28944617069856998 0.45632941997611381 9.682974749528162 0.70120786496728671 20.014369837304336 1.2437983223734086 0.25989683088224552 1.0000000180025095e-35 1.0000000180025095e-35 1.0000000180025095e-35 1.0000000180025095e-35 1.0000000180025095e-35 1.0000000180025095e-35 92.450000000000017 118.15000000000002 0.66296674128120647 1.0000000180025095e-35 1.0000000180025095e-35 39.399111493223991 14.803209110577303 34.850000000000001 117.05000000000001 41.569573742171471 1.2870022175865687 8.5014704152706795 0.19236934828250149 0.23798498083967098
decision_type=2 2 2 2 2 2 2 2 2 2 2 2 2 2 2 2 2 2 2 2 2 2 2 2 2 2 2 2 2 2
left_child=1 8 4 10 9 12 13 14 15 -3 11 16 27 -6 19 23 -2 -10 -7 -5 -9 28 -11 -1 -18 -13 -17 -4 -12 -30
right_child=3 2 5 7 6 18 -8 20 17 22 21 25 -14 -15 -16 26 24 -19 -20 -21 -22 -23 -24 -25 -26 -27 -28 -29 29 -31
leaf_value=0.001441328514419817 -0.045665964213579747 -0.021778669048859417 0.0090363697643701165 -0.019543710441489618 0.032511237730357453 -0.030048176509581498 0.04171631660357384 -0.016498666391236393 0.057943920538496833 0.016228180904373168 0.12311332481419153 -0.018708619704534534 0.077830793686574695 0.016556948362696739 0.059926499540242498 0.028508947643167942 -0.033324423301939202 0.094781638975768467 -0.008355290967645047 0.0002860779527474734 -0.036209785264903732 -0.031900889013148914 0.0016414217791812062 0.052070823122271764 0.044541127312663437 0.058238772926778905 -0.055063035882299306 -0.0078360433406322993 -0.029109770675268209 0.063806347618075868
leaf_weight=8.9720495268702489 321.67618162557483 78.849925942718983 163.55892130732536 95.422173716127872 307.59319616854191 239.72449469566345 284.65471594035625 527.38298406451941 176.15714663267136 245.71456786990166 2.4036274924874332 151.80861586332321 8.7434648200869542 447.26130615919828 10.213642224669455 139.58729048073292 659.53147020190954 26.950167700648308 90.381383545696735 325.45025473833084 87.350935623049736 7.1200252547860137 264.31397680193186 162.33862875401974 3.3111940324306479 3.4408644065260878 2.8146025761961928 122.20996939390898 3.974706679582594 5.7075875103473663
leaf_count=70 5305 984 1566 1212 2531 3200 1911 7134 943 2283 23 2074 76 3837 69 1083 10051 122 1037 3622 1261 103 2613 882 31 43 23 1346 42 55
internal_value=-0.000304623 0.0181736 0.0112065 -0.0235204 0.0196551 -0.0108105 0.028183 -0.0124532 0.0485281 0.00459051 -0.0335009 -0.0343548 0.00410285 0.0230682 -0.00265701 0.0391898 -0.0370947 0.0629007 -0.0241282 -0.00420152 -0.0193131 0.0168265 0.00868044 0.0494508 -0.0329212 -0.0169346 0.0267846 0.00180312 0.0459692 0.0252443
internal_weight=4974.62 2769.83 2253.01 2204.79 1628.39 624.618 1039.51 1045.82 516.82 588.878 1158.97 1139.77 294.512 754.855 431.086 313.713 984.519 203.107 330.106 420.872 614.734 19.2059 510.029 171.311 662.843 155.249 142.402 285.769 12.0859 9.68229
internal_count=55532 24507 21384 31025 14159 7225 8279 13298 3123 5880 17727 17504 2988 6368 4903 2058 15387 1065 4237 4834 8395 223 4896 952 10082 2117 1106 2912 120 97
is_linear=0
shrinkage=0.05


Tree=12
num_leaves=31
num_cat=0
split_feature=3 2 8 5 5 8 15 15 5 2 3 14 12 14 5 0 14 15 15 14 5 2 2 15 0 0 0 5 0 5
split_gain=781.472 221.712 151.481 75.1919 67.9231 50.107 37.0325 34.7527 26.2357 25.2982 24.1193 22.4784 18.7856 18.0783 17.0402 16.2765 16.0978 19.4051 13.4363 11.5337 11.0225 10.2604 9.72658 9.0745 8.54167 6.81432 5.86468 5.74109 5.43578 5.38889
threshold=326.34000000000009 8.2761706065518297 1.0000000180025095e-35 0.45632941997611381 0.28944617069856998 1.0000000180025095e-35 1.0000000180025095e-35 1.0000000180025095e-35 0.27647958668003969 5.6022315382124646 124.55999999999997 1.0000000180025095e-35 1.0000000180025095e-35 1.0000000180025095e-35 1.2437983223734086 106.65000000000002 1.0000000180025095e-35 1.0000000180025095e-35 1.0000000180025095e-35 1.0000000180025095e-35 0.65583960879509806 20.014369837304336 39.399111493223991 1.0000000180025095e-35 92.050000000000011 119.05000000000001 118.15000000000002 0.33919261501779879 111.85000000000001 0.93709969090713485
decision_type=2 2 2 2 2 2 2 2 2 2 2 2 2 2 2 2 2 2 2 2 2 2 2 2 2 2 2 2 2 2
left_child=1 5 3 6 13 14 19 11 -8 -7 18 -5 -11 24 20 -9 17 -6 28 -3 -1 -19 -15 -22 -2 -26 -16 -18 -4 -14
right_child=4 2 10 7 16 9 8 15 -10 12 -12 -13 29 22 26 -17 27 21 -20 -21 23 -23 -24 -25 25 -27 -28 -29 -30 -31
leaf_value=0.0051461431215897016 -0.040259626491293977 -0.018340764699352582 0.086878792611940064 0.010023225266300034 -0.029676430184236602 0.046105367664074318 -0.015988726259650175 0.017990321676708384 0.014248185949279721 0.014541759082030092 -0.03090014208165965 0.065554583440776817 0.046480896145476347 0.042649016058198819 0.060557579110741139 0.037572786140591022 0 -0.0017779168887939864 -0.010081438247287832 0.025658697889747364 0.036901479210310562 -0.01528374073510487 -0.031171753385377185 0.054901194604747676 -0.030967043324911188 0.058707817149602409 0.091744084042471155 0.065001556954636039 0.01124283021641481 0.14010638058221969
leaf_weight=18.090668216347694 356.1759527027607 194.05462286621332 4.7807177826762182 376.15410644561052 182.20226410776377 100.94628944993019 84.324974589049816 147.13906621932983 473.14214227348566 263.35835736989975 193.73600500822067 19.102304071187973 3.2219773381948462 11.940454907715322 108.04742838442326 394.45804823935032 5.9533404409885398 201.43117293715477 276.05730098485947 15.954495824873446 147.47626280039549 472.81219170242548 6.9294730946421614 140.78779911994934 722.77785898372531 1.9980751201510418 18.931956380605698 8.242634713649748 5.0324076041579247 3.6200092881917953
leaf_count=155 5904 2147 47 3260 2591 610 1100 1273 4530 2282 2731 109 25 114 504 2876 50 2309 3121 113 906 6502 103 734 11216 14 78 57 47 24
internal_value=-0.000305566 0.0158108 0.0075414 0.0145284 -0.0247498 0.0382498 0.00291696 0.0240339 0.0096634 0.0247289 -0.0172749 0.0127355 0.0167101 -0.0330127 0.0498104 0.0322662 -0.0143035 -0.0151845 -0.00801597 -0.0149637 0.0433483 -0.0112571 0.0152553 0.0457258 -0.0338612 -0.0307049 0.0653152 0.0382323 0.0490999 0.0980419
internal_weight=4958.88 2988.42 2183.94 1704.33 1970.46 804.481 767.476 936.854 557.467 371.147 479.606 395.256 270.2 1099.82 433.334 541.597 870.642 856.446 285.87 210.009 306.355 674.243 18.8699 288.264 1080.95 724.776 126.979 14.196 9.81313 6.84199
internal_count=55532 26672 21354 15408 28860 5318 7890 7518 5630 2941 5946 3369 2331 17351 2377 4149 11509 11402 3215 2260 1795 8811 217 1640 17134 11230 582 107 94 49
is_linear=0
shrinkage=0.05


Tree=13
num_leaves=31
num_cat=0
split_feature=2 2 8 5 5 8 15 15 5 2 5 10 14 14 14 15 5 7 6 6 15 5 1 14 7 6 5 6 1 4
split_gain=710.48 196.918 134.735 68.9214 62.5538 43.5775 33.5863 29.8844 25.6587 22.776 22.1601 20.0973 20.4006 19.3359 16.2194 18.4876 15.2224 14.2511 13.8624 13.2293 11.8861 10.9432 10.2167 9.26504 9.20801 8.61914 9.11681 8.13225 8.08999 7.50786
threshold=18.20013736160065 8.2761706065518297 1.0000000180025095e-35 0.45632941997611381 0.28944617069856998 1.0000000180025095e-35 1.0000000180025095e-35 1.0000000180025095e-35 0.32498235979547824 11.161541112229978 1.0319916666677782 1.0000000180025095e-35 1.0000000180025095e-35 1.0000000180025095e-35 1.0000000180025095e-35 1.0000000180025095e-35 1.2437983223734086 1.0000000180025095e-35 11374.225000000002 8547.0050000000028 1.0000000180025095e-35 0.40272640447824637 35.050000000000004 1.0000000180025095e-35 1.0000000180025095e-35 11783.105000000001 0.23798498083967098 13700.705 39.850000000000001 0.066568163775823835
decision_type=2 2 2 2 2 2 2 2 2 2 2 2 2 2 2 2 2 2 2 2 2 2 2 2 2 2 2 2 2 2
left_child=1 5 3 6 11 16 23 13 -8 20 28 12 19 -5 15 -6 22 -12 -9 -2 -4 -17 -1 -3 -22 26 -14 -21 29 -7
right_child=4 2 9 7 14 10 8 18 -10 -11 17 -13 25 -15 -16 21 -18 -19 -20 27 24 -23 -24 -25 -26 -27 -28 -29 -30 -31
leaf_value=0.012905256361984314 -0.044778436820950951 -0.017561022576340835 0.04498180530437975 0.0094512352985588761 -0.029457110631338025 0.078726002530135009 -0.0077193527556096656 0.016862736620368326 0.015461494219488696 -0.030159663776319845 0.048129008699634497 -0.015185527904040652 -0.02204612248734427 0.060105869360441801 0.038999620118642608 -0.01271649954702282 0.060826574120298904 0.019692711152199224 0.034794659254516663 -0.032239282956332882 -1.36363959986699e-05 0.014243097831831489 0.043289451226288495 0.020902881195300593 -0.018400511602243329 0.11392091457410901 0.055685145726968727 0.045529148602644738 0.0014371268583690847 0.018259834980498081
leaf_weight=31.331367447972298 298.54056566953659 196.01105549186468 10.180282436311243 378.90619687736034 173.41616786271334 5.425830826163291 167.83370265364647 149.08399863541126 410.97961244732141 188.7493777051568 101.93716958165169 149.12458787113428 10.836354978382593 19.782751455903053 14.037384979426859 612.94796106219292 129.48459336161613 79.318852938711643 404.39542388916016 596.22019329294562 129.85162859410048 39.849474437534809 281.78501446545124 16.815360568463802 144.33655628561974 1.9367565810680378 5.6415066197514525 3.244373381137847 100.2864673808217 89.938077986240387
leaf_count=230 5305 2211 94 3260 2535 51 2033 1273 3795 2731 575 2124 143 109 104 8221 582 627 2876 9637 1322 426 1565 117 1804 16 50 28 891 797
internal_value=-0.000304534 0.0147133 0.00696818 0.0133902 -0.024234 0.0356558 0.00248091 0.0224538 0.00873113 -0.0166893 0.0231251 -0.0322816 -0.0350562 0.0119917 -0.01402 -0.0149315 0.0463077 0.0357304 0.0299775 -0.0361264 -0.00772336 -0.0110612 0.0402702 -0.0144901 -0.00971416 0.0167782 0.0044404 -0.0318025 0.0114093 0.0218314
internal_weight=4942.23 3036.43 2216.93 1743.81 1905.8 819.507 791.64 952.168 578.813 473.118 376.906 1065.54 916.42 398.689 840.251 826.214 442.601 181.256 553.479 898.005 284.368 652.797 313.116 212.826 274.188 18.4146 16.4779 599.465 195.65 95.3639
internal_count=55532 26943 21625 15674 28589 5318 8156 7518 5828 5951 2941 17303 15179 3369 11286 11182 2377 1202 4149 14970 3220 8647 1795 2328 3126 209 193 9665 1739 848
is_linear=0
shrinkage=0.05


Tree=14
num_leaves=31
num_cat=0
split_feature=3 3 5 7 5 5 10 15 14 11 12 14 3 6 5 5 14 5 1 10 14 4 4 7 5 13 5 3 3 1
split_gain=650.472 170.563 62.8825 39.5552 53.9787 20.3106 19.596 19.3594 19.1287 17.1198 15.0165 14.7989 14.4567 13.204 13.1381 12.3272 12.0402 10.6504 10.4246 10.1628 10.1402 9.55641 9.01537 8.92138 7.70722 7.53383 7.28203 7.25623 7.25369 7.99469
threshold=326.34000000000009 49.710000000000043 0.28944617069856998 1.0000000180025095e-35 0.45632941997611381 1.5348313178225643 1.0000000180025095e-35 1.0000000180025095e-35 1.0000000180025095e-35 1.0000000180025095e-35 1.0000000180025095e-35 1.0000000180025095e-35 470.7150000000002 8547.0050000000028 0.66296674128120647 0.27425395647546552 1.0000000180025095e-35 0.31914371423312765 35.250000000000007 1.0000000180025095e-35 1.0000000180025095e-35 0.26060239174734118 1.2021004241368469 1.0000000180025095e-35 0.58327523763570055 1.0000000180025095e-35 0.30394954470027663 1386.7749999999999 1549.7450000000001 39.95000000000001
decision_type=2 2 2 2 2 2 2 2 2 2 2 2 2 2 2 2 2 2 2 2 2 2 2 2 2 2 2 2 2 2
left_child=1 5 6 4 7 9 8 -3 13 22 16 14 20 -2 -6 -9 17 -5 -11 25 -4 -7 23 -1 -13 -14 -21 -15 29 -10
right_child=2 3 12 10 11 21 -8 15 28 18 -12 24 19 27 -16 -17 -18 -19 -20 26 -22 -23 -24 -25 -26 -27 -28 -29 -30 -31
leaf_value=0.035741971105705754 -0.044300248522931247 -0.013801884215947482 -0.0081121417024792326 -0.02417653009546817 0.01373837177502334 0.033091655563015632 -0.01461870830221465 -0.014162664215898152 -0.0050723909624984936 -0.00033719926635465583 0.096072544936235849 0.088661826078112682 -0.01956463628126626 -0.031550305298980556 0.024817133693766931 0.009351479664797685 0.065455407380158634 -0.00075941771197583774 0.048353962273884124 -0.027029522618266355 0.040978340747390096 0.069459809529091962 -0.027152856427062368 0.016079151716554819 0.018779943604637639 -0.039765616747934329 0.01813405240968282 0.040033922186336598 -0.028205603293219424 0.073917471804707036
leaf_weight=140.92661938071251 286.97005402669311 166.78937990218401 427.45283805578947 52.317888639867306 650.01037459820509 25.326547279953957 147.21490567177534 64.561929680407047 5.7870054468512553 11.444750793278216 3.8349626362323752 11.487661570310594 316.436188980937 582.75456482544541 459.84900732338428 398.39266506582499 6.4792559891939154 667.45223990827799 191.26377017050982 12.983632333576677 10.656696565449236 71.879600912332535 7.5906563997268668 100.15430025011301 6.3898234218358985 54.863775812089443 27.810289591550827 3.4193988740444174 6.1797090247273436 6.7488526552915573
leaf_count=802 5305 1833 5451 656 5843 120 2124 857 51 79 40 62 4620 9683 3402 3844 40 6937 951 169 73 315 57 799 35 876 320 29 97 62
internal_value=-0.000302977 0.0140292 -0.0233376 0.00846059 0.0125244 0.039265 -0.0315923 0.000789597 -0.0343865 0.0347591 -0.00131548 0.0190722 -0.0132408 -0.0354604 0.018335 0.00605914 -0.00184978 -0.0024716 0.0455814 -0.019969 -0.00689756 0.0600794 0.0259023 0.0276041 0.064206 -0.0225729 0.00360646 -0.0311174 0.0153737 0.0373056
internal_weight=4925.43 3036.15 1889.28 2487.57 1757.48 548.586 1039.07 629.744 891.86 451.38 730.084 1127.74 850.203 873.144 1109.86 462.955 726.249 719.77 202.709 412.094 438.11 97.2061 248.672 241.081 17.8775 371.3 40.7939 586.174 18.7156 12.5359
internal_count=55532 26672 28860 23549 15876 3123 17351 6534 15227 2688 7673 9342 11509 15017 9245 4701 7633 7593 1030 5985 5524 435 1658 1601 97 5496 489 9712 210 113
is_linear=0
shrinkage=0.05


Tree=15
num_leaves=31
num_cat=0
split_feature=3 5 8 5 5 5 15 15 14 5 10 4 10 6 3 15 11 14 6 1 3 14 15 2 4 3 4 15 4 1
split_gain=611.019 162.84 93.1003 86.9254 51.9124 47.9941 32.5423 31.4211 28.4734 28.0508 18.5036 17.9678 17.5907 16.6954 16.56 15.3369 14.343 13.508 11.4114 11.0293 10.1926 9.5936 8.39593 7.78364 6.55558 10.9576 8.61209 6.28712 5.89741 7.80924
threshold=370.90000000000003 1.0557191242912884 1.0000000180025095e-35 0.54956242509929354 0.29643801977528988 0.68573529806879607 1.0000000180025095e-35 1.0000000180025095e-35 1.0000000180025095e-35 0.32048586322932832 1.0000000180025095e-35 0.7765488368811907 1.0000000180025095e-35 13607.225000000002 101.49500000000008 1.0000000180025095e-35 1.0000000180025095e-35 1.0000000180025095e-35 8547.0050000000028 43.45000000000001 93.650000000000048 1.0000000180025095e-35 1.0000000180025095e-35 35.925826335165539 0.27142665586744713 413.86000000000007 0.22433768563922943 1.0000000180025095e-35 0.53172406725880605 42.350000000000001
decision_type=2 2 2 2 2 2 2 2 2 2 2 2 2 2 2 2 2 2 2 2 2 2 2 2 2 2 2 2 2 2
left_child=1 2 3 6 12 20 8 14 -1 -8 21 15 17 16 -5 -7 28 18 -2 -15 -4 22 -6 -20 25 -12 -27 -22 29 -3
right_child=4 13 5 7 10 11 9 -9 -10 -11 24 -13 -14 19 -16 -17 -18 -19 23 -21 27 -23 -24 -25 -26 26 -28 -29 -30 -31
leaf_value=-0.0095335320664501413 -0.043032492947877199 0.028007333616767612 -0.00033765935812825381 0.025670952670074739 -0.027597946835408373 0.058137796110500684 -0.0055511198546588161 0.036922556842229309 0.04123752241706042 0.015444727290491431 0.1479549940356456 0.040860762085792583 -0.015006369549289437 0.065560945615895122 0.0039405437672176925 -0.00070373280618459813 0.048774236177413548 0.0071472818643322986 -0.031244286260932896 0.016311122249280496 0.018961649755060608 0.030880488921374419 -0.012676698207804767 0.030847431837179553 -0.0062157067352677378 0.0088576539636613105 0.079561188759949039 -0.027400474842714646 0.0075602124695247075 0.078026774883757727
leaf_weight=368.56146947294474 279.27488796412945 124.031697884202 45.782722599804401 210.34255673736334 122.75508645176888 11.339953951537607 198.91370691359043 404.11606599390507 29.72666984051466 787.14540307968855 1.8621682897210146 30.962843164801598 147.5531910136342 94.361910849809647 151.38912173360586 342.93852545320988 131.65435101091862 19.567326240241528 603.81720286607742 13.330861255526541 7.3375700935721389 10.947370447218416 421.08802390098572 4.933654908090829 16.3963378444314 20.160440266132358 5.4671740904450408 250.09149942547083 33.496886402368546 8.4135096222162229
leaf_count=4018 5370 769 486 1394 1908 86 2532 2551 184 7019 19 254 2148 423 1260 3409 623 222 10240 67 93 82 5997 48 189 233 64 3531 200 56
internal_value=0.000314424 0.0129251 0.00868918 0.0138136 -0.0244174 -0.00730792 0.00633059 0.0273307 -0.00572223 0.0112041 -0.0126399 0.00439335 -0.0310933 0.0425719 0.0165939 0.00118147 0.0363998 -0.0337012 -0.0346076 0.0595317 -0.0221878 -0.0151177 -0.0160583 -0.0307279 0.0185324 0.0334437 0.0243859 -0.0260527 0.0265287 0.031279
internal_weight=4897.76 3243.94 2838.65 2150.19 1653.82 688.453 1384.35 765.848 398.288 986.059 598.677 385.241 1055.15 405.289 361.732 354.278 297.596 907.593 888.026 107.693 303.212 554.79 543.843 608.751 43.8861 27.4898 25.6276 257.429 165.942 132.445
internal_count=55475 28955 26817 18958 26520 7859 13753 5205 4202 9551 8492 3749 18028 2138 2654 3495 1648 15880 15658 490 4110 7987 7905 10288 505 316 297 3624 1025 825
is_linear=0
shrinkage=0.05


Tree=16
num_leaves=31
num_cat=0
split_feature=3 3 8 3 15 3 3 10 7 15 4 14 14 1 4 1 10 3 15 0 4 14 14 3 4 1 1 4 4 0
split_gain=558.242 137.461 87.2924 76.302 38.2303 37.8793 36.0571 22.3778 19.5547 19.299 18.2028 17.6092 17.0851 17.0067 16.534 14.8581 14.5329 14.4528 13.632 12.6935 15.4695 10.8507 10.1649 9.7766 8.41491 12.573 8.03548 6.83515 6.25324 9.35948
threshold=370.90000000000003 45.730000000000025 1.0000000180025095e-35 219.13500000000008 1.0000000180025095e-35 122.29499999999996 600.11500000000035 1.0000000180025095e-35 1.0000000180025095e-35 1.0000000180025095e-35 1.0882830317724201 1.0000000180025095e-35 1.0000000180025095e-35 28.850000000000005 0.73806821526427446 32.250000000000007 1.0000000180025095e-35 21.570000000000032 1.0000000180025095e-35 95.750000000000014 0.059583495612790478 1.0000000180025095e-35 1.0000000180025095e-35 802.2299999999999 1.2021004241368469 45.45000000000001 43.45000000000001 1.1636830100730877 0.2561513825656036 100.05000000000001
decision_type=2 2 2 2 2 2 2 2 2 2 2 2 2 2 2 2 2 2 2 2 2 2 2 2 2 2 2 2 2 2
left_child=1 17 3 4 12 8 14 10 26 11 21 -5 -3 -6 16 -11 19 -1 -10 20 -2 23 -21 -8 25 -19 -4 -12 29 -18
right_child=6 2 5 9 13 -7 7 -9 18 15 27 -13 -14 -15 -16 -17 28 24 -20 22 -22 -23 -24 -25 -26 -27 -28 -29 -30 -31
leaf_value=0.049736959171453765 0 0.0081281397098247523 0.015088476134097207 -0.016736472073368931 -0.007644569403975259 -0.02669973012780634 -0.029500230004388225 -0.012782739048225512 0.088546348882096892 -0.0058124701899654845 0.12847400866283898 0.034794158175551919 0.050747840919280834 0.029287189697380762 -0.030427580487785651 0.01062060113290437 0.028004338193877945 0.031312566914503591 -0.012135234960084656 -0.01512651269110734 0.19421418975283469 0.0058524260264246203 0.032635245888448398 -0.041085459287506579 -0.0099757617578732291 0.12442459607206664 -0.0074301804165933004 0.014544242257754986 0.00071820254706844364 0.14603595927395457
leaf_weight=147.01046533882618 2.7870862372219554 504.0912769138813 177.25741098821163 188.52226002886891 32.320371866226196 193.36976490914822 369.08405796438456 154.05572260916233 3.3031965270638457 201.20159390196204 1.8243176788091648 18.027655102312565 24.632371045649052 720.70468074828386 141.50339369475842 432.35932675004005 13.633443668484686 329.82713492959738 225.5783850774169 507.56051911041141 1.5141767337918279 16.101215980947018 11.234469041228293 373.40594174340367 11.929188638925551 3.6162963286042205 50.613655939698219 4.6709934137761593 19.586746603250504 1.871292121708392
leaf_count=667 41 4183 1562 2266 360 2901 6279 2241 27 2182 30 110 138 5161 2397 4297 147 1877 2630 7539 23 194 82 7248 86 22 486 49 233 17
internal_value=0.000288654 0.0121946 0.00786733 0.0127795 0.0204554 -0.0081567 -0.0237158 -0.0302323 -0.000291293 0.00106138 -0.0337372 -0.0122 0.0101324 0.0276946 -0.0151454 0.00539392 -0.0112575 0.0365395 -0.0106223 -0.0133536 0.0710399 -0.0344565 -0.0140765 -0.035338 0.0308947 0.0323744 0.0100637 0.0487642 0.019795 0.0434147
internal_weight=4883.2 3264.37 2771.98 2121.86 1281.75 650.122 1618.83 919.142 456.753 840.111 765.087 206.55 528.724 753.025 699.691 633.561 558.188 492.383 228.882 523.096 4.30126 758.591 518.795 742.49 345.373 333.443 227.871 6.49531 35.0915 15.5047
internal_count=55475 28955 26303 18697 9842 7606 26520 16041 4705 8855 13800 2376 4321 5521 10479 6479 8082 2652 2657 7685 64 13721 7621 13527 1985 1899 2048 79 397 164
is_linear=0
shrinkage=0.05


Tree=17
num_leaves=31
num_cat=0
split_feature=5 5 2 2 14 0 0 15 14 11 3 3 13 1 1 5 2 5 0 1 5 4 5 2 0 4 11 4 4 4
split_gain=516.688 130.442 48.6319 32.0821 20.3723 14.647 14.1129 13.5164 21.3624 12.6081 11.0217 10.6607 9.81537 9.43642 9.04508 8.94478 8.43287 7.35231 7.324 7.30578 7.284 6.77185 6.38224 5.99045 5.40332 6.86161 5.21795 4.90811 18.6288 5.1423
threshold=0.32341487972245347 1.0557191242912884 14.900167783345553 19.815650380444247 1.0000000180025095e-35 93.050000000000011 116.65000000000002 1.0000000180025095e-35 1.0000000180025095e-35 1.0000000180025095e-35 76.250000000000028 312.23000000000008 1.0000000180025095e-35 43.45000000000001 68.65000000000002 0.26553566677658075 13.705838172107541 0.38548881746076807 118.35000000000001 48.150000000000013 0.73639638712487998 0.71843256436227876 0.25436555650993059 15.92890454488318 115.95000000000002 0.022766546193062637 1.0000000180025095e-35 0.20255573496854259 0.16295609901869443 0.23238810596136769
decision_type=2 2 2 2 2 2 2 2 2 2 2 2 2 2 2 2 2 2 2 2 2 2 2 2 2 2 2 2 2 2
left_child=3 2 4 22 10 21 9 8 17 24 18 23 14 -8 15 -7 20 -4 -2 -13 -6 -5 -1 -9 25 -3 -12 28 -11 -29
right_child=1 6 7 5 16 12 13 11 -10 27 26 19 -14 -15 -16 -17 -18 -19 -20 -21 -22 -23 -24 -25 -26 -27 -28 29 -30 -31
leaf_value=-0.01870310208133091 0.018261708365463154 -0.013218766087298411 -0.026011567019792139 -0.036300156799122824 0.027521880947144944 -0.028088694927587622 0.05829638958986795 9.8225242784107938e-05 0.034895482114755919 0.048208591562083736 0.0064877015295617714 -0.006047969985398978 -0.039187668661564035 0.013220772089770247 0.059247941252996088 -0.017014751872331337 0.11968049826178172 -0.0078115064535866953 -0.039722136019689984 0.013176836973167599 0.1029710945575423 0.04530443022989146 -0.003775682817779456 0.013443627750430351 0.0044659800518225554 0.030149355070129131 0.012820154190411562 0.10378298440804415 -0.024354828942741956 0.047245449902308542
leaf_weight=115.52797689288855 535.589012414217 9.59559617936611 101.96237256005406 375.31280168890953 16.744803868234165 350.56239630281925 96.825321197509766 137.29618013650179 22.492331713438034 34.344051033258438 767.74306304752827 362.0421552285552 93.375119958072901 13.60539175570011 3.2926388904452315 389.57135041803122 4.4188585579395285 124.23708138614893 5.3577260896563521 57.006908603012562 4.0124215334653845 2.4246222749352446 191.19466906040907 220.02584168314934 33.355669096112251 128.44431087374687 571.9249547496438 4.3810821920633307 11.729240879416464 85.128203898668289
leaf_count=1637 3917 57 1509 7233 89 6139 423 1272 132 157 7829 4560 1653 67 31 6157 23 1464 40 694 21 39 2367 2095 173 795 4436 20 53 393
internal_value=0.000264618 0.0112439 0.00751668 -0.0238963 0.0122403 -0.0275473 0.0373944 -0.00126091 -0.0114059 0.0318189 0.011637 0.0019834 -0.0238342 0.0528052 -0.021894 -0.0222697 0.056887 -0.0160454 0.0176709 -0.0034182 0.0427699 -0.0357513 -0.0094187 0.00833129 0.0227223 0.0270911 0.00919561 0.0432561 0.0296145 0.0501812
internal_weight=4869.52 3348.26 2930.85 1521.26 1905.79 1214.54 417.409 1025.06 248.692 306.978 1880.61 776.371 836.802 110.431 743.426 740.134 25.1761 226.199 540.947 419.049 20.7572 377.737 306.723 357.322 171.396 138.04 1339.67 135.583 46.0733 89.5093
internal_count=55475 30219 28081 25256 16355 21252 2138 11726 3105 1648 16222 8621 13980 490 12327 12296 133 2973 3957 5254 110 7272 4004 3367 1025 852 12265 623 210 413
is_linear=0
shrinkage=0.05


Tree=18
num_leaves=31
num_cat=0
split_feature=5 5 8 3 5 15 3 10 5 0 4 15 14 3 7 0 11 5 4 15 3 5 5 4 4 4 3 5 4 4
split_gain=472.44 115.636 71.4064 93.9919 40.6457 36.5602 30.4495 20.4993 18.4123 17.1839 14.7447 14.6937 20.1182 14.0988 13.0469 12.7167 11.1548 10.0135 9.51354 8.20383 8.11619 7.94677 7.32297 12.1005 6.92004 5.96911 9.03668 5.18387 4.77762 5.74176
threshold=0.32341487972245347 1.0557191242912884 1.0000000180025095e-35 219.13500000000008 0.68573529806879607 1.0000000180025095e-35 370.90000000000003 1.0000000180025095e-35 0.67177723279586365 92.850000000000009 0.7765488368811907 1.0000000180025095e-35 1.0000000180025095e-35 312.23000000000008 1.0000000180025095e-35 116.65000000000002 1.0000000180025095e-35 0.12155355791679047 1.0882830317724201 1.0000000180025095e-35 80.390000000000015 0.2621856987867523 0.30897748964557498 0.087386929107971481 1.1455675130215976 0.11942892601833838 1724.2100000000003 0.25436555650993059 0.53172406725880605 0.022766546193062637
decision_type=2 2 2 2 2 2 2 2 2 2 2 2 2 2 2 2 2 2 2 2 2 2 2 2 2 2 2 2 2 2
left_child=6 2 3 5 19 8 27 9 -2 -8 14 12 -5 -13 -6 16 28 24 -7 -4 -21 -19 25 -24 -11 -9 -27 -1 29 -3
right_child=1 15 4 11 10 18 7 22 -10 17 -12 13 -14 -15 -16 -17 -18 21 -20 20 -22 -23 23 -25 -26 26 -28 -29 -30 -31
leaf_value=-0.017046255056910282 0.0024945880971762383 -0.010488808891183631 0.026469180735216438 -0.015067911651102751 0.0099306550202779755 0.026708564238326762 -0.03981951216285743 -0.036236120231141693 0.021242932223577874 0.11437675041316053 0.035466111138841322 0.010866221826218887 0.033740048272516837 -0.0027996737581174125 -0.0091411053609251128 0.049634271116304682 0.04050051736612819 -0.031915115512117474 0.059114165499345631 0.0048908392016910043 -0.025710465939812389 -0.021473558318892087 0.13784948734874178 0.0035570971442048997 0.004299160355952872 -0.010543476305203917 0.085222207916341539 -0.0030027004510388075 0.0044802235393627569 0.028300169030401293
leaf_weight=106.4079998396337 306.42908310890198 10.055237278342245 8.438450522720812 227.0697557143867 178.17704805731773 700.88923449069262 281.02686111629009 23.306297607719898 229.54137440770864 1.6691021397709835 32.492313146591187 347.35179784148932 23.128030315041542 412.19669704139233 180.29503607749939 111.59138654172421 137.52956546843052 323.80498819798231 23.665935732424259 23.381183743476868 251.66490941867232 432.48631938919425 1.9743065983057011 9.2458489090204221 8.0239619761705381 124.84196352958679 2.4039515778422347 174.60721232369542 34.555320754647255 128.93271060287952
leaf_count=1507 2658 60 101 3008 1490 4670 5904 359 1480 20 254 3082 133 5173 2005 490 623 6010 173 227 3627 7187 23 106 99 1890 31 2120 200 765
internal_value=0.000244742 0.0106179 0.00710479 0.0113493 -0.0071749 0.0204543 -0.0231974 -0.0266457 0.0105358 -0.0292077 0.00326627 -1.29395e-05 -0.0105245 0.00344395 0.000324615 0.0350744 0.0298209 -0.0253032 0.0277819 -0.0215884 -0.0230901 -0.0259543 -0.0100258 0.028638 0.024739 -0.0129576 -0.00862949 -0.00834233 0.0213103 0.0254525
internal_weight=4857.18 3367.39 2944.72 2270.27 674.449 1260.53 1489.8 1208.78 535.97 1047.01 390.964 1009.75 250.198 759.548 358.472 422.664 311.073 765.984 724.555 283.485 275.046 756.291 161.772 11.2202 9.69306 150.552 127.246 281.015 173.543 138.988
internal_count=55475 30219 28081 20377 7704 8981 25256 21629 4138 19220 3749 11396 3141 8255 3495 2138 1648 13316 4843 3955 3854 13197 2409 129 119 2280 1921 3627 1025 825
is_linear=0
shrinkage=0.05


Tree=19
num_leaves=31
num_cat=0
split_feature=5 5 8 2 5 15 2 10 5 6 15 14 7 3 6 5 4 4 4 15 2 5 8 5 4 4 2 5 4 14
split_gain=432 102.689 64.0255 83.123 37.5096 31.7917 29.2614 20.1684 16.2691 16.2193 13.356 18.1254 13.1933 12.6135 11.4455 9.98747 9.07371 8.77836 7.93671 7.53202 7.61213 7.13303 6.92818 6.59486 9.5644 5.674 8.19783 5.53124 5.30174 4.89276
threshold=0.32341487972245347 1.0557191242912884 1.0000000180025095e-35 14.803209110577303 0.68573529806879607 1.0000000180025095e-35 19.815650380444247 1.0000000180025095e-35 0.67177723279586365 8621.1250000000018 1.0000000180025095e-35 1.0000000180025095e-35 1.0000000180025095e-35 312.23000000000008 13607.225000000002 0.12155355791679047 0.70877277080499024 0.91271952293858816 1.0882830317724201 1.0000000180025095e-35 8.9677198885781486 0.26553566677658075 1.0000000180025095e-35 0.30897748964557498 0.087386929107971481 0.11942892601833838 41.569573742171471 0.25436555650993059 1.1455675130215976 1.0000000180025095e-35
decision_type=2 2 2 2 2 2 2 2 2 2 2 2 2 2 2 2 2 2 2 2 2 2 2 2 2 2 2 2 2 2
left_child=6 2 3 5 19 8 27 9 -2 29 11 -5 17 -12 22 28 -14 -6 -7 -4 -21 -17 -3 25 -25 -9 -27 -1 -11 -8
right_child=1 14 4 10 12 18 7 23 -10 15 13 -13 16 -15 -16 21 -18 -19 -20 20 -22 -23 -24 24 -26 26 -28 -29 -30 -31
leaf_value=-0.017434084789428345 0.0023655230004119608 0.034633955962241406 0.024627083585405565 -0.014499441735433036 0.0098689553930879758 0.024954185713332938 -0.040474873906316489 -0.035548711020718764 0.019919803915155826 0.099792617646705786 0.010238425904217302 0.031480891380281532 -0.010114285471313664 -0.0026659959885578914 0.046696448503559314 -0.031092649157916121 0.023323036981090547 0.060799001883620779 0.054030295483116532 0.0046297554453366791 -0.024978333102665482 -0.020977180763100768 0.019548120138910899 0.11786694415006699 0.0033713098184009918 -0.010135652899902769 0.079305584831878273 -0.003381772924036039 0.0061756489381674549 -0.0018617100016122268
leaf_weight=112.00130674615502 306.98158269375563 175.63763956725597 8.6188072040677053 224.25097820535302 188.74437454342842 712.35663832724094 262.36485639959574 22.589405313134193 232.47713545709848 1.8275049068033675 350.1499812528491 23.54438653588295 171.30076338350773 411.25156582891941 112.65880538523197 322.19956923648715 22.846729658544064 8.8152705430984479 24.582488588988781 23.468067817389965 246.2324540913105 394.53830398619175 139.11578997969627 2.2038977891206732 9.2724084109067899 123.78973998874426 2.5061079263687125 189.87713309004903 7.7618587389588356 8.7595940306782705
leaf_count=1637 2658 788 101 3008 1555 4670 5766 359 1480 20 3082 133 1926 5173 490 6151 212 56 173 227 3627 6674 860 23 106 1891 30 2367 94 138
internal_value=0.000224303 0.0100348 0.00671937 0.0107046 -0.00686708 0.0191827 -0.0225085 -0.0261253 0.00994201 -0.0287738 -1.41393e-05 -0.0100995 0.00309419 0.00326243 0.0329425 -0.0248527 -0.00614375 0.0121964 0.0259381 -0.0209006 -0.0223827 -0.0255351 0.0279905 -0.0096126 0.0266191 -0.0124549 -0.00825996 -0.00861599 0.0253786 -0.0392469
internal_weight=4842.73 3383.03 2955.62 2285.59 670.026 1276.4 1459.69 1157.81 539.459 997.452 1009.2 247.795 391.707 761.402 427.412 726.327 194.147 197.56 736.939 278.319 269.701 716.738 314.753 160.362 11.4763 148.885 126.296 301.878 9.58936 271.124
internal_count=55475 30219 28081 20377 7704 8981 25256 21252 4138 18843 11396 3141 3749 8255 2138 12939 2138 1611 4843 3955 3854 12825 1648 2409 129 2280 1921 4004 114 5904
is_linear=0
shrinkage=0.05


Tree=20
num_leaves=31
num_cat=0
split_feature=3 3 8 3 8 15 2 10 4 14 14 4 2 2 3 10 4 0 16 2 0 15 0 2 14 17 0 4 3 7
split_gain=380.188 95.6147 92.6133 37.6302 31.2861 29.8355 29.9613 18.1528 17.545 15.2501 15.0286 14.6271 13.9444 12.7114 12.6319 12.1165 12.8992 14.5032 11.6536 10.878 8.9496 8.88032 8.21199 7.51268 7.07005 7.00921 6.61081 6.10775 5.69123 5.63875
threshold=326.34000000000009 76.250000000000028 1.0000000180025095e-35 600.11500000000035 1.0000000180025095e-35 1.0000000180025095e-35 14.803209110577303 1.0000000180025095e-35 1.0882830317724201 1.0000000180025095e-35 1.0000000180025095e-35 1.1154020156754434 13.301503674397118 5.6022315382124646 103.70000000000005 1.0000000180025095e-35 0.2561513825656036 100.25000000000001 1.0000000180025095e-35 28.371200175020082 107.95000000000002 1.0000000180025095e-35 95.750000000000014 4.6443494114579318 1.0000000180025095e-35 1.0000000180025095e-35 111.95000000000002 0.95265210085970942 74.049999999999969 1.0000000180025095e-35
decision_type=2 2 2 2 2 2 2 2 2 2 2 2 2 2 2 2 2 2 2 2 2 2 2 2 2 2 2 2 2 2
left_child=1 4 5 9 18 10 11 8 19 15 14 -7 29 -6 -3 21 17 -17 23 -5 -8 -2 -23 -1 -21 -25 -15 -12 -28 -4
right_child=3 2 12 7 13 6 20 -9 -10 -11 27 -13 -14 26 -16 16 -18 -19 -20 24 -22 22 -24 25 -26 -27 28 -29 -30 -31
leaf_value=0.044437991883250177 -0.024955012758156925 0.013592373921088807 -0.0069959106690768982 -0.025202084600244368 0.027529124287846807 0.022405217996479331 0.0087141507336047294 -0.011333831915271427 0.047170389379448875 0.030852819264241872 0.037606306600669395 -0.0055699399208256712 -0.038213758966719712 -0.016120660606131449 -0.0060107601311772648 0.023084083163371627 -0.013758456909745961 0.13981982168989796 -0.029634249949298086 -0.039260459062816805 -0.0058028787424382351 0.06627289478431854 -0.01230476213154922 0.031922387591726699 0.0046570434364169759 0.016215417799894456 0.0090245643066161809 -0.024133856042703506 0.057845158252140476 -0.02002697649543507
leaf_weight=94.263308614492416 165.15896591171622 100.41263135522604 169.97776774317026 340.7074529863894 110.65369578450918 625.67232841253281 327.73322703689337 148.43572741374373 7.0215760953724375 19.878919519484043 33.194067746400833 50.154339142143726 68.79181756824255 26.027257107198238 448.58691514655948 15.087573833763601 19.544646382331848 3.1947440505027762 7.7526296228170386 321.84727180749178 156.51521345227957 3.2255747914314261 626.81891936063766 356.19367306679487 9.2031434215605241 90.963056966662407 307.2093258574605 4.3822398707270613 6.035737268626689 165.5359311401844
leaf_count=385 2763 747 2003 6313 584 4310 2923 2283 80 137 169 592 1100 260 4486 159 240 28 43 7152 1741 46 9330 1843 134 522 2492 37 63 2361
internal_value=-0.000425298 0.00981828 0.00387815 -0.0196333 0.0226001 0.00887177 0.0135183 -0.0272364 -0.0307044 -0.0122511 -0.000309968 0.0203212 -0.0176794 0.0128015 -0.0024144 -0.0132893 0.0142638 0.0444047 0.030615 -0.0315328 0.00401151 -0.0146079 -0.0118841 0.0314923 -0.0380234 0.0287427 0.00797669 0.0302284 0.00999938 -0.0134441
internal_weight=4830.18 3150.06 2150.96 1680.12 999.099 1746.65 1160.08 827.215 678.779 852.909 586.576 675.827 404.306 449.926 549 833.03 37.827 18.2823 549.173 671.758 484.248 795.203 630.044 541.42 331.05 447.157 339.272 37.5763 313.245 335.514
internal_count=55326 26661 20469 28665 6192 15005 9566 15962 13679 12703 5439 4902 5464 3399 5233 12566 427 187 2793 13599 4664 12139 9376 2750 7286 2365 2815 206 2555 4364
is_linear=0
shrinkage=0.05


Tree=21
num_leaves=31
num_cat=0
split_feature=5 3 8 3 8 0 11 14 2 2 2 3 2 10 2 1 10 10 1 5 1 5 5 0 2 0 0 1 5 7
split_gain=357.332 96.2572 77.3665 51.8935 27.8399 23.3391 19.9361 17.3703 14.3244 13.2842 11.33 10.8049 10.7415 13.6538 10.5439 8.92171 8.38735 7.92395 8.10231 7.48257 7.38714 7.28146 8.2744 6.77035 6.25252 5.74555 5.17281 5.00506 4.78821 4.7105
threshold=0.32341487972245347 76.250000000000028 1.0000000180025095e-35 280.93000000000001 1.0000000180025095e-35 93.050000000000011 1.0000000180025095e-35 1.0000000180025095e-35 14.900167783345553 13.301503674397118 5.8493581741285992 103.70000000000005 21.475683923601796 1.0000000180025095e-35 37.252919339985731 53.650000000000013 1.0000000180025095e-35 1.0000000180025095e-35 48.050000000000004 0.24677293527611921 40.150000000000013 1.308368198801136 1.1484282044729284 118.15000000000002 19.815650380444247 111.95000000000002 117.35000000000001 39.95000000000001 1.757980002366557 1.0000000180025095e-35
decision_type=2 2 2 2 2 2 2 2 2 2 2 2 2 2 2 2 2 2 2 2 2 2 2 2 2 2 2 2 2 2
left_child=5 4 3 6 20 16 8 12 -3 29 28 -8 19 14 -14 -9 -1 18 -5 -7 23 22 -22 27 -19 -12 -21 -2 -6 -4
right_child=1 2 9 17 10 7 11 15 -10 -11 25 -13 13 -15 -16 -17 -18 24 -20 26 21 -23 -24 -25 -26 -27 -28 -29 -30 -31
leaf_value=-0.037463326598319462 0.023357827390465331 0.024047712240400622 -0.0072473237967075601 -0.0081273621908102781 0.020658867880835735 -0.022654318262998331 0.019501526327924651 0.0075486261481725672 0.0071632945640775136 -0.037737245793955064 -0.015512322361539039 0.0040389581148100474 -0.026042050604307455 -0.0044563900287068912 0.051070662238921143 0.085641236040118376 -0.017789330382661592 0.085292956461807026 0.0072808848339481827 -0.0081497778652880829 0.034871458498915896 0.051837285726097859 0.0062175866015203992 0.062226594955608755 0.012541101569011507 0.0090262115179878741 0.046383424687688496 -0.0066814919302034606 0.048899339085689018 -0.019367923704741608
leaf_weight=261.77430277690291 267.77434147894382 432.74248272925615 164.71061714738607 540.09515115991235 111.04670807719231 114.25466295331717 139.18120091408491 12.898921981453897 178.46699021011591 67.087119180709124 25.707788579165936 606.97117083519697 584.66598799079657 89.836787179112434 4.3343921527266493 5.114618979394435 70.036371320486069 3.3844184577465084 100.9020231962204 248.06328063458204 176.02615293860435 52.539941012859344 29.968432873487473 10.848973996937273 21.785625696182251 297.09874998033047 4.3028651848435393 14.313487738370894 17.768762707710266 159.87974997982383
leaf_count=6072 1339 3071 1946 6895 611 1802 914 112 1542 1101 260 4888 11075 1320 32 43 1131 28 1214 3408 951 217 134 51 229 2434 46 66 78 2316
internal_value=-0.000413264 0.00828927 0.00287932 0.00681835 0.0213085 -0.0217362 0.0124284 -0.0181107 0.0191278 -0.0174547 0.0120808 0.00693215 -0.0189532 -0.0226867 -0.0254575 0.030348 -0.0333323 -0.00460523 -0.00569333 -0.0120224 0.0288529 0.0350589 0.0307321 0.0233485 0.0228202 0.00705232 -0.00718217 0.021814 0.024628 -0.013237
internal_weight=4813.58 3418.3 2415.21 2023.53 1003.09 1395.28 1357.36 1063.47 611.209 391.677 451.622 746.152 1045.46 678.837 589 18.0135 331.811 666.167 640.997 366.621 551.471 258.535 205.995 292.937 25.17 322.807 252.366 282.088 128.815 324.59
internal_count=55326 30285 24144 18781 6141 25041 10415 17838 4613 5363 3383 5802 17683 12427 11107 155 7203 8366 8109 5256 2758 1302 1085 1456 257 2694 3454 1405 689 4262
is_linear=0
shrinkage=0.05


Tree=22
num_leaves=31
num_cat=0
split_feature=5 3 8 3 15 8 0 15 2 5 0 2 3 10 5 5 15 10 4 2 1 5 16 4 5 4 0 0 12 1
split_gain=327.124 85.7863 70.3843 46.3699 28.2628 24.6944 22.5673 19.8423 12.7564 11.3896 10.2747 10.1446 10.074 10.5585 10.8914 9.08043 8.9386 8.23861 8.07133 7.54707 7.28238 7.2385 7.14131 7.00613 6.6499 6.00639 5.88519 5.64578 4.85618 6.29127
threshold=0.32341487972245347 76.250000000000028 1.0000000180025095e-35 280.93000000000001 1.0000000180025095e-35 1.0000000180025095e-35 93.050000000000011 1.0000000180025095e-35 13.301503674397118 0.56015874882465699 113.35000000000001 14.49844814258026 387.81 1.0000000180025095e-35 0.12155355791679047 0.41387694224075616 1.0000000180025095e-35 1.0000000180025095e-35 0.015840321265681669 8.2761706065518297 48.750000000000007 1.757980002366557 1.0000000180025095e-35 0.076771891269778084 0.24677293527611921 0.14189705460416391 117.35000000000001 105.15000000000002 1.0000000180025095e-35 37.350000000000001
decision_type=2 2 2 2 2 2 2 2 2 2 2 2 2 2 2 2 2 2 2 2 2 2 2 2 2 2 2 2 2 2
left_child=6 5 3 4 15 7 17 9 28 -2 -7 -6 24 14 -14 -3 -5 -1 -16 21 -18 -12 -11 -9 -8 -25 27 -26 -4 -30
right_child=1 2 8 16 11 10 12 23 -10 22 19 -13 13 -15 18 -17 20 -19 -20 -21 -22 -23 -24 25 26 -27 -28 -29 29 -31
leaf_value=-0.036857681513893452 -0.042862824485706705 -0.015394078093187305 -0.013932797470645953 -0.01481842097316537 0.020860477364855249 0.00099666357967110393 -0.020542809100260174 0.010776418358817694 -0.037080957479962331 0.020892642553648991 0.013051202700301086 0.0093338709018853539 0.029908870843436266 -0.0043491847582147478 0.03596492267530834 0.0047588854692095254 -0.0034557549245479886 -0.017170519997290565 -0.023988670408460571 0.054985597033654687 0.01447852471377202 0.045889684004467406 -0.028304620073457423 0.068790499791066925 0.08094487960636966 0.037208968147797283 0.051131942043047218 -0.0065100828988215375 0.070422064742836979 -0.006364782016051485
leaf_weight=252.99778167158365 7.3644302934408179 64.088400669395924 309.2156375348568 156.91251094639301 589.37145454436541 156.573571421206 93.03899259865284 24.06836299598217 64.917969863861799 271.64298222213984 267.5063843652606 285.51073668897152 9.5324323475360853 89.670677118003368 5.5116464309394351 429.41569168120623 441.93015366792679 68.963844794780016 652.31535820662975 12.443427555263041 64.769938684999943 17.98805645108223 7.4133933186531058 16.641804039478302 1.7563822716474522 229.79518884420395 4.5624011456966391 190.16859820857644 3.82317106425762 7.9887648075819016
leaf_count=6072 64 650 4146 2277 3860 1393 1411 108 1101 1407 1789 2359 108 1322 98 3546 5357 1131 12405 123 732 78 40 73 26 1066 47 2421 37 79
internal_value=-0.00040051 0.00784586 0.0027285 0.00644821 0.0117089 0.020073 -0.0210679 0.0271372 -0.0168394 0.0179213 0.011402 0.0171061 -0.0174933 -0.0205329 -0.022699 0.00212902 -0.00439197 -0.0326629 -0.0234734 0.0168514 -0.001151 0.0151531 0.0195581 0.0368666 -0.00952378 0.039389 -0.00427292 -0.00564197 -0.0127203 0.0184516
internal_weight=4797.9 3429.38 2417.94 2032 1368.39 1011.44 1368.52 556.926 385.946 286.421 454.511 874.882 1046.56 757.03 667.359 493.504 663.613 321.962 657.827 297.938 506.7 285.494 279.056 270.505 289.526 246.437 196.487 191.925 321.028 11.8119
internal_count=55326 30285 24144 18781 10415 6141 25041 2758 5363 1511 3383 6219 17838 13933 12611 4196 8366 7203 12503 1990 6089 1867 1447 1247 3905 1139 2494 2447 4262 116
is_linear=0
shrinkage=0.05


Tree=23
num_leaves=31
num_cat=0
split_feature=5 3 0 0 7 7 14 14 15 15 2 2 10 0 2 0 5 10 0 2 0 1 1 0 0 5 15 10 0 4
split_gain=299.36 76.5327 21.7945 20.1883 23.0592 19.3234 16.0257 12.1175 11.851 10.9016 10.7333 9.83608 12.3126 9.14263 9.06742 8.83008 8.76144 8.07979 8.00715 7.68821 8.76888 7.42442 7.24677 7.09554 6.86705 6.75998 6.36664 5.4351 5.38174 4.98842
threshold=0.32341487972245347 76.250000000000028 93.050000000000011 106.65000000000002 1.0000000180025095e-35 1.0000000180025095e-35 1.0000000180025095e-35 1.0000000180025095e-35 1.0000000180025095e-35 1.0000000180025095e-35 3.4964249196573003 21.475683923601796 1.0000000180025095e-35 112.05000000000001 37.252919339985731 106.75000000000001 1.0319916666677782 1.0000000180025095e-35 99.950000000000017 13.093318872179653 111.35000000000001 53.650000000000013 28.450000000000003 111.45000000000002 118.35000000000001 0.25319676144469344 1.0000000180025095e-35 1.0000000180025095e-35 118.05000000000001 0.012591163749967188
decision_type=2 2 2 2 2 2 2 2 2 2 2 2 2 2 2 2 2 2 2 2 2 2 2 2 2 2 2 2 2 2
left_child=2 5 17 7 8 16 11 9 22 18 -7 25 14 -12 -13 -10 23 -1 -3 26 -21 -8 -5 -2 -25 -4 -6 -11 29 -18
right_child=1 3 6 4 19 10 21 -9 15 27 13 12 -14 -15 -16 -17 28 -19 -20 20 -22 -23 -24 24 -26 -27 -28 -29 -30 -31
leaf_value=-0.036245619882040413 0.087313638765365284 -0.034703208802844325 -0.02057756513114542 -0.054022651962048432 0.0049356644230572682 0.059021417075288046 0.0081011557056620293 0.032629897481536656 0.064438009350136036 -0.0019142774584528328 -0.025466629465576141 -0.024695769029703881 -0.0040484339083542839 0.0089022962508401721 0.045251465635109608 0.013116316146238254 -0.0036206111631378701 -0.016564759788094449 -0.0093761401784965195 0.0034661583615686492 0.057099864387187317 0.078314226284934327 0.0032928773999105956 0.018119787844288696 -0.046337154122315427 -0.0060645270789135017 -0.011867167162772939 0.021529447125952644 0.05063417519821907 0.028576320674970953
leaf_weight=244.62221169471741 3.6092523336410514 38.342589009553194 122.69086997210979 5.5023798570036879 73.84209843724966 9.9670786261558515 12.804162636399271 22.961351476609707 8.4405660033225995 679.75594779103994 20.694596417248249 559.66190287843347 89.166116334497929 268.23909591138363 4.5338557809591284 719.45279678702354 12.224553436040877 67.941708475351334 172.96445779874921 105.63035953789949 8.1448834426701051 5.3700542151927939 326.96706784516573 372.51982688158751 4.0430576205253592 236.32746487483382 232.73269280046225 25.535047702491283 27.550533905625343 300.25498783588409
leaf_count=6072 26 684 2003 64 611 44 112 126 75 7683 215 11075 1320 2025 32 5877 56 1131 2200 1006 70 43 2712 2267 29 3253 2779 257 114 1365
internal_value=-0.000388236 0.00742803 -0.0204064 0.00258552 0.00622408 0.0189222 -0.0168855 -0.00314347 0.0101536 -0.00404853 0.00820546 -0.0177248 -0.0213868 0.0064154 -0.0241169 0.0137271 0.0233613 -0.0319903 -0.0140097 -0.00367666 0.00739634 0.0294361 0.00231331 0.018102 0.0174023 -0.0110425 -0.00780342 -0.00105548 0.0292196 0.0273
internal_weight=4782.49 3439.38 1343.12 2420.27 1480.71 1019.1 1030.55 939.559 1060.36 916.598 298.901 1012.38 653.362 288.934 564.196 727.893 720.202 312.564 211.307 420.35 113.775 18.1742 332.469 380.172 376.563 359.018 306.575 705.291 340.03 312.48
internal_count=55326 30285 25041 24144 13194 6141 17838 10950 8728 10824 2284 17683 12427 2240 11107 5952 3857 7203 2884 4466 1076 155 2776 2322 2296 5256 3390 7940 1535 1421
is_linear=0
shrinkage=0.05


Tree=24
num_leaves=31
num_cat=0
split_feature=5 2 8 2 8 0 11 2 0 2 2 7 16 4 2 10 10 0 5 5 0 1 0 5 4 5 2 0 0 12
split_gain=273.967 68.4991 63.1425 38.8282 21.1424 20.5282 20.3789 12.3391 9.85245 9.8033 9.45518 9.32683 9.17071 9.06879 8.81815 8.1785 7.91141 7.81638 7.48507 7.30439 8.23562 5.32838 4.9602 4.95141 4.74649 9.21469 5.33431 4.64895 4.5629 4.36397
threshold=0.32187641109053139 8.7341282327115621 1.0000000180025095e-35 14.803209110577303 1.0000000180025095e-35 93.050000000000011 1.0000000180025095e-35 13.301503674397118 100.25000000000001 19.275761978417595 34.943525749562355 1.0000000180025095e-35 1.0000000180025095e-35 0.015840321265681669 5.8493581741285992 1.0000000180025095e-35 1.0000000180025095e-35 95.750000000000014 0.82823982147061381 1.308368198801136 118.35000000000001 33.050000000000004 117.35000000000001 0.25319676144469344 0.12645482678006639 0.27647958668003969 41.569573742171471 111.95000000000002 117.35000000000001 1.0000000180025095e-35
decision_type=2 2 2 2 2 2 2 2 2 2 2 2 2 2 2 2 2 2 2 2 2 2 2 2 2 2 2 2 2 2
left_child=5 4 3 6 12 16 18 29 17 23 13 -8 19 -11 -6 -15 -1 -5 -3 20 -2 -10 -21 -7 -18 26 -26 -16 -25 -4
right_child=1 2 7 8 14 9 11 -9 21 10 -12 -13 -14 15 27 -17 24 -19 -20 22 -22 -23 -24 28 25 -27 -28 -29 -30 -31
leaf_value=-0.035627243568926645 0.022775010719498827 0.021508763584950397 -0.013414610341472181 0.045264255671246811 0.020766901165248822 -0.017267706060937242 0.0099383860866062972 -0.036505555361469183 -0.0049869725280393164 0.042304264361472749 0.032102253876607166 -0.0051425878114032195 -0.029282721648565005 -0.022463938603887304 -0.015000095908526934 -0.0058993968025207871 -0.037052555005404608 -0.01234231685873375 -0.048928214108629006 0.028976131832492383 -0.048019428034517482 0.004027587557179634 0.051674423888234546 -0.0041768955697245582 -0.016339975889492184 0.097833248980072604 0.055586996031702286 0.0071745334222602462 0.051999999919963583 0.017036217395345461
leaf_weight=236.63070241361856 439.67860793322325 432.25623782724142 305.67186393588781 5.9311201088130465 132.14191033691168 94.489729505032301 479.25970467925072 63.108513012528419 229.61015061661601 5.6495688632130614 8.6477341018617135 129.8677841797471 7.7114282324910155 638.33241033181548 25.405909687280655 85.420294404029846 19.090983774513006 206.03306965529919 3.6709671318531027 77.021337881684303 4.0117934048175803 570.18148342892528 36.960860952734947 164.53005781024694 43.37478020042181 1.8849502019584168 2.6170191317796698 303.91038075089455 3.5863593742251387 12.011374481022356
leaf_count=6072 2222 2971 4145 86 689 1455 3473 1102 2482 97 91 987 43 12609 260 1276 336 3093 21 317 28 5872 151 2067 732 31 32 2435 35 116
internal_value=-0.000375269 0.00697701 0.00241122 0.00587569 0.0178095 -0.0199077 0.0126351 -0.0162853 -0.0011018 -0.016439 -0.019396 0.00671455 0.024297 -0.0200177 0.00984664 -0.0205169 -0.0313149 -0.0106862 0.0208931 0.025052 0.022113 0.00143307 0.0364191 -0.00810525 -0.0159723 -0.00740258 -0.012027 0.0054446 -0.00291857 -0.0122426
internal_weight=4768.7 3464.44 2437.6 2056.81 1026.84 1304.25 1045.05 380.792 1011.76 1000.66 738.05 609.127 565.384 729.402 461.458 723.753 303.598 211.964 435.927 557.673 443.69 799.792 113.982 262.606 66.9677 47.8767 45.9918 329.316 168.116 317.683
internal_count=55326 30493 24348 18985 6145 24833 7452 5363 11533 17630 14073 4460 2761 13982 3384 13885 7203 3179 2992 2718 2250 8354 468 3557 1131 795 764 2695 2102 4261
is_linear=0
shrinkage=0.05


Tree=25
num_leaves=31
num_cat=0
split_feature=2 3 8 2 1 15 8 10 14 2 3 2 4 14 10 15 4 1 15 1 1 1 4 15 14 0 1 7 4 0
split_gain=249.222 54.1059 43.4193 25.3445 21.4341 21.7529 19.9974 19.7849 14.6623 13.6855 12.8421 12.7186 11.7425 11.4816 10.7716 10.4602 10.3972 8.87008 9.03381 7.64428 7.37776 6.8585 6.59813 6.48124 6.23251 5.89166 6.67567 5.78033 7.58134 5.685
threshold=19.275761978417595 76.250000000000028 1.0000000180025095e-35 28.371200175020082 28.850000000000005 1.0000000180025095e-35 1.0000000180025095e-35 1.0000000180025095e-35 1.0000000180025095e-35 13.799818828688428 126.44499999999998 4.1653324280673347 1.0882830317724201 1.0000000180025095e-35 1.0000000180025095e-35 1.0000000180025095e-35 0.32175055439664274 53.350000000000001 1.0000000180025095e-35 39.850000000000001 39.550000000000004 16.050000000000004 0.27829965900511183 1.0000000180025095e-35 1.0000000180025095e-35 100.05000000000001 34.650000000000013 1.0000000180025095e-35 0.1987306725412353 114.75000000000001
decision_type=2 2 2 2 2 2 2 2 2 2 2 2 2 2 2 2 2 2 2 2 2 2 2 2 2 2 2 2 2 2
left_child=1 6 4 7 -3 8 11 13 -6 -7 -4 16 14 17 24 29 -1 18 -2 20 -8 -16 25 -21 -5 26 -9 28 -12 -13
right_child=3 2 10 12 5 9 19 22 -10 -11 27 15 -14 -15 21 -17 -18 -19 -20 23 -22 -23 -24 -25 -26 -27 -28 -29 -30 -31
leaf_value=0.015250860411499298 -0.02614062428608932 -0.010824748640705638 -0.0049610829638193112 -0.03651803773492121 -0.002421803947474997 0.017371689364464937 0.013005103355900112 0.066493314016843941 0.028013313813892483 0.0066058670096548313 0.0096551553205772439 0.01974458865106745 0.031997255416593151 0.023025157648101577 0.057613675925224594 0.027845450600776697 0.058448474702704013 -0.029855997186382877 -0.0123774012394594 0.050847680797273399 0.048431954783938386 -0.017491919914356155 -0.0037073354485214062 0.0012237061453501882 0.0047316777585828061 0.085964807032658935 0.0077136688882629353 -0.034370414436698811 -0.023916047484477832 0.0047635289468483865
leaf_weight=21.388284400105476 149.59710117429495 174.30091447010636 228.89674673601985 276.30735079199076 556.35284268856049 534.63106706738472 210.09082615375519 5.6740798950195304 42.498992651700974 664.36243535205722 22.874661847949028 148.29649078845978 7.5106395408511153 17.999518066644669 3.0342039540410033 239.54734902083874 42.373615980148315 118.83502305671573 608.45520496740937 6.6843482702970496 15.866020388901232 80.911338768899441 53.669725250452757 231.01910902559757 9.227658271789549 3.33694964647293 31.722076117992401 69.749407347291708 61.123100414872169 112.42571698129177
leaf_count=86 2900 2158 2807 7183 5358 3524 1537 74 221 6141 379 785 75 137 44 1106 173 2506 10806 38 112 1366 782 1701 150 25 392 1261 1015 600
internal_value=-0.000190713 0.00708813 0.00290765 -0.0182137 0.00590008 0.00752484 0.0166609 -0.0139977 -0.000249237 0.0114116 -0.0124998 0.02299 -0.0292573 -0.016296 -0.0305243 0.0202833 0.0440831 -0.0171113 -0.0151032 0.00894775 0.0155351 -0.0146524 0.00773011 0.00266098 -0.0351663 0.0228946 0.0169191 -0.0236803 -0.0147137 0.0133081
internal_weight=4748.76 3382.48 2354.79 1366.28 1972.15 1797.85 1027.69 989.29 598.852 1198.99 382.644 564.031 376.991 894.887 369.481 500.27 63.7619 876.887 758.052 463.66 225.957 83.9455 94.4028 237.703 285.535 40.7331 37.3962 153.747 83.9978 260.722
internal_count=55442 29002 22864 26440 17402 15244 6138 17622 5579 9665 5462 2750 8818 16349 8743 2491 259 16212 13706 3388 1649 1410 1273 1739 7333 491 466 2655 1394 1385
is_linear=0
shrinkage=0.05


Tree=26
num_leaves=31
num_cat=0
split_feature=3 5 8 8 5 15 14 14 10 0 5 10 5 3 1 0 3 15 0 12 15 7 3 1 3 4 0 4 0 3
split_gain=226.987 50.1762 34.6031 33.286 27.3509 24.199 15.355 15.2819 14.5086 13.8415 13.7773 13.4225 12.2104 12.1751 11.5207 10.9649 10.448 9.53673 9.28386 8.62037 8.23386 7.6259 7.5477 7.40951 6.7929 6.72887 6.58783 6.49431 6.29476 8.14411
threshold=370.90000000000003 0.66296674128120647 1.0000000180025095e-35 1.0000000180025095e-35 0.28329611895580858 1.0000000180025095e-35 1.0000000180025095e-35 1.0000000180025095e-35 1.0000000180025095e-35 117.65000000000002 0.20100187942766409 1.0000000180025095e-35 0.41663036465899572 210.20500000000013 26.850000000000005 112.05000000000001 93.650000000000048 1.0000000180025095e-35 92.050000000000011 1.0000000180025095e-35 1.0000000180025095e-35 1.0000000180025095e-35 82.29500000000003 26.450000000000003 2350.2100000000005 0.96972257229714753 117.85000000000001 0.12327822907087493 94.450000000000017 615.85000000000002
decision_type=2 2 2 2 2 2 2 2 2 2 2 2 2 2 2 2 2 2 2 2 2 2 2 2 2 2 2 2 2 2
left_child=1 3 9 5 7 6 12 8 18 20 -7 14 -1 -12 23 -4 -5 -18 -2 22 -3 -19 -17 -6 -9 -8 -20 -10 -13 -30
right_child=4 2 15 16 11 10 25 24 27 -11 13 28 -14 -15 -16 19 17 21 26 -21 -22 -23 -24 -25 -26 -27 -28 -29 29 -31
leaf_value=-0.018882191420254411 -0.038450850831052708 0.014407055139514752 -0.0051185755888755596 0.0075580477889760746 -0.0015252194963135002 -0.025423261405480846 0.03173115773902202 0.041110688437421522 -0.039731057475470018 0.05185748728305422 0.014247223615688446 -0.025162889667134369 -0.0019604148180624313 0.0041597582405244696 -0.013388002111729594 0.0092178527281419134 0.035873206658365492 -0.013245338333513804 -0.025153383672858149 0.050161074631011618 0.02509307943280539 -0.033479694697752339 -0.040734354403809007 0.072673250960747351 -0.029212044064607652 -0.029045384651880266 0.041256485018565249 -0.0052892844721812299 0.0091820831078880359 0.059100267347769166
leaf_weight=155.93882651627064 175.33497853204608 370.57669852674007 180.97980237752199 38.997873589396477 6.870757829397915 30.16663583368063 36.68833189457655 12.582103326916696 15.714944217354057 35.181412532925606 544.40522213280201 8.9415850490331632 339.14229377359152 668.24351082369685 565.11613958328962 408.06382088363171 7.0335049107670775 100.21704576909542 391.77523303031921 12.627788804471491 358.72026620805264 89.213046416640282 7.5732653737068167 6.2538274563848972 4.5437704399228087 5.0329238250851622 3.6275179609656325 106.81434221193194 38.213009595870972 10.442084588110445
leaf_count=2028 4962 2048 2091 413 124 463 184 128 292 153 3776 133 3162 6558 9548 2901 88 1597 8775 71 1709 1596 93 109 87 41 22 1742 413 135
internal_value=-0.000186408 0.00671249 0.0140813 0.00168605 -0.0175556 0.00402603 -0.00483917 -0.0243028 -0.0254593 0.0211671 0.00785923 -0.0100068 -0.00730321 0.00869334 -0.0123042 0.00517999 -0.0159725 -0.0206702 -0.0288152 0.00954389 0.0196728 -0.0228138 0.00828607 0.0337342 0.0221014 0.0242281 -0.0245212 -0.00977617 0.0129526 0.020097
internal_weight=4735.03 3388.8 1373.72 2015.08 1346.23 1779.62 536.802 710.393 693.267 764.478 1242.82 635.837 495.081 1212.65 578.241 609.245 235.461 196.464 570.738 428.265 729.297 189.43 415.637 13.1246 17.1259 41.7213 395.403 122.529 57.5967 48.6551
internal_count=55442 28972 9066 19906 26470 16212 5415 16008 15793 3910 10797 10462 5190 10334 9781 5156 3694 3281 13759 3065 3757 3193 2994 233 215 225 8797 2034 681 548
is_linear=0
shrinkage=0.05


Tree=27
num_leaves=31
num_cat=0
split_feature=2 5 5 5 7 2 14 10 6 10 1 7 6 14 4 4 1 6 2 2 6 4 5 1 4 15 2 4 11 6
split_gain=207.983 45.5605 25.5005 20.5366 14.1562 14.9418 14.1303 13.8895 13.2498 12.3208 10.3651 9.93787 9.18985 8.08342 6.66944 6.16706 6.10977 6.0289 5.99551 5.8136 5.656 7.3301 7.8206 5.64947 5.50512 5.41027 5.92778 5.77234 5.43814 5.3145
threshold=19.275761978417595 0.89596356732542437 0.28329611895580858 0.27647958668003969 1.0000000180025095e-35 14.49844814258026 1.0000000180025095e-35 1.0000000180025095e-35 13607.225000000002 1.0000000180025095e-35 26.850000000000005 1.0000000180025095e-35 8473.2050000000017 1.0000000180025095e-35 0.0097241922818926563 0.12327822907087493 26.450000000000003 13888.625000000002 48.582144712969459 19.166898549321953 8920.8050000000021 0.087386929107971481 0.28805544705062602 39.850000000000001 0.5800027742076812 1.0000000180025095e-35 11.064131233356926 1.4041965737842748 1.0000000180025095e-35 8732.9050000000025
decision_type=2 2 2 2 2 2 2 2 2 2 2 2 2 2 2 2 2 2 2 2 2 2 2 2 2 2 2 2 2 2
left_child=1 3 6 25 5 13 7 12 11 10 16 14 -2 -5 -3 -9 -4 -14 -8 -7 -11 23 -23 -22 -16 -1 27 -27 -28 -12
right_child=2 8 9 4 -6 19 18 15 -10 20 29 -13 17 -15 24 -17 -18 -19 -20 -21 21 22 -24 -25 -26 26 28 -29 -30 -31
leaf_value=-0.033628603199222305 -0.037890657301313989 -0.017206011607479841 -0.0014520218675259256 0.0093986037741117037 -0.0018225284544927214 -0.0001084156551365347 0.03788160254928688 -0.039139519105014731 0.032430715185070999 -0.024446523807993684 -0.03676146648317502 0.0048643152193443848 -0.024436936140540905 0.041181360841313873 0.022437309803664113 -0.0050487693285624548 0.0648057224152737 0.038440055608223417 -0.028517171173526836 0.034823349059088023 0.01327462857072087 0.10073523184332489 0.0048985606877691903 0.10069212156468402 0.0077219976014103256 0.045787124272939309 -0.021558459828963202 -0.027019458703217272 0.0073123484947832541 -0.011965779297023582
leaf_weight=32.467083279043436 169.18910384178162 12.434306785464285 6.8615465909242612 1160.2845327854156 685.09747561439872 643.11828715726733 12.969924420118334 15.17023605853319 121.43876032531261 8.7512654364109022 22.680350981652737 193.02298890054226 382.61349076032639 20.368750751018524 338.06308503448963 106.32524504140019 6.6631670109927654 3.7039085999131194 4.4271964095532885 12.031078390777109 3.4811634272336951 2.1633318066596976 39.474589698016644 4.3314543440937996 79.81946487724781 8.3439395949244481 67.080240245908499 3.8465355187654486 21.180490911006927 533.96370103210211
leaf_count=503 4962 62 124 8995 7191 6494 128 292 529 133 495 1383 8769 103 1679 1742 109 22 87 141 34 31 443 40 382 105 1060 47 328 9029
internal_value=-0.000183248 0.0063627 -0.0170048 0.00329323 0.00430498 0.00659438 -0.0236135 -0.0247608 0.0172913 -0.00969102 -0.0119325 0.0143291 -0.0281145 0.0099546 0.0185609 -0.00937523 0.03106 -0.0238114 0.0206324 0.000530653 0.0121647 0.018781 0.010227 0.0630324 0.019641 -0.0158466 -0.0100218 0.0223743 -0.0145731 -0.0129915
internal_weight=4721.37 3398.6 1322.77 2653.82 2520.9 1835.8 694.399 677.002 744.779 628.371 570.169 623.34 555.507 1180.65 430.317 121.495 13.5247 386.317 17.3971 655.149 58.2018 49.4505 41.6379 7.81262 417.883 132.918 100.451 12.1905 88.2607 556.644
internal_count=55442 29002 26440 24967 22924 15733 16002 15787 4035 10438 9757 3506 13753 9098 2123 2034 233 8791 215 6635 681 548 474 74 2061 2043 1540 152 1388 9524
is_linear=0
shrinkage=0.05


Tree=28
num_leaves=31
num_cat=0
split_feature=2 5 8 8 5 15 14 14 1 0 5 5 3 0 1 15 1 12 15 15 3 3 0 4 4 5 2 4 2 1
split_gain=189.905 40.9475 30.4911 30.1073 24.1638 21.8095 14.1004 13.0748 12.976 12.1506 10.9769 9.7169 9.62475 9.20899 8.63769 8.60133 8.14648 7.43174 7.39775 7.13539 7.84527 6.81 6.7961 6.11528 6.08493 6.05698 5.79296 5.35627 5.30972 5.21122
threshold=19.275761978417595 0.66296674128120647 1.0000000180025095e-35 1.0000000180025095e-35 0.28329611895580858 1.0000000180025095e-35 1.0000000180025095e-35 1.0000000180025095e-35 30.250000000000004 117.65000000000002 0.41663036465899572 0.20100187942766409 93.650000000000048 112.05000000000001 68.65000000000002 1.0000000180025095e-35 26.850000000000005 1.0000000180025095e-35 1.0000000180025095e-35 1.0000000180025095e-35 494.09500000000008 82.29500000000003 92.050000000000011 0.96972257229714753 0.69970840192037465 0.31019560535210394 13.301503674397118 1.0744761795859892 48.582144712969459 59.250000000000007
decision_type=2 2 2 2 2 2 2 2 2 2 2 2 2 2 2 2 2 2 2 2 2 2 2 2 2 2 2 2 2 2
left_child=1 2 5 9 7 6 10 14 24 18 -1 -10 25 -5 22 -14 -6 21 27 20 -18 -15 -2 -8 -7 -4 -17 -3 29 -9
right_child=4 3 12 13 16 8 23 28 11 -11 -12 -13 15 17 -16 26 19 -19 -20 -21 -22 -23 -24 -25 -26 -27 -28 -29 -30 -31
